{"learner":{"attributes":{"best_iteration":"679","best_ntree_limit":"680","scikit_learn":"{\"use_label_encoder\": false, \"n_estimators\": 680, \"objective\": \"binary:logistic\", \"max_depth\": 3, \"learning_rate\": 0.01, \"verbosity\": null, \"booster\": \"gbtree\", \"tree_method\": null, \"gamma\": null, \"min_child_weight\": null, \"max_delta_step\": null, \"subsample\": null, \"colsample_bytree\": null, \"colsample_bylevel\": null, \"colsample_bynode\": null, \"reg_alpha\": null, \"reg_lambda\": null, \"scale_pos_weight\": null, \"base_score\": 0.5, \"missing\": NaN, \"num_parallel_tree\": null, \"random_state\": null, \"n_jobs\": -1, \"monotone_constraints\": null, \"interaction_constraints\": null, \"importance_type\": null, \"gpu_id\": null, \"validate_parameters\": null, \"predictor\": null, \"enable_categorical\": false, \"kwargs\": {\"eval_metric\": \"logloss\"}, \"classes_\": [0, 1], \"n_classes_\": 2, \"evals_result_\": {\"validation_0\": {\"logloss\": [0.686828, 0.680632, 0.674558, 0.668603, 0.662758, 0.657022, 0.651395, 0.645872, 0.640449, 0.635124, 0.62989, 0.624753, 0.619703, 0.614742, 0.609871, 0.605078, 0.600371, 0.595741, 0.591192, 0.586721, 0.582321, 0.577997, 0.573744, 0.56956, 0.565445, 0.561396, 0.557411, 0.553492, 0.549632, 0.545835, 0.542098, 0.538419, 0.534797, 0.531232, 0.527721, 0.524266, 0.520863, 0.517512, 0.514212, 0.51096, 0.507756, 0.504192, 0.501078, 0.497988, 0.494584, 0.491599, 0.488638, 0.485366, 0.482486, 0.479298, 0.476499, 0.47375, 0.470683, 0.467999, 0.465359, 0.462397, 0.459827, 0.457287, 0.454439, 0.45197, 0.449528, 0.446785, 0.444412, 0.442064, 0.43942, 0.437134, 0.434555, 0.432326, 0.42957, 0.427399, 0.42471, 0.422065, 0.419462, 0.417079, 0.414541, 0.411616, 0.409622, 0.40677, 0.403964, 0.401753, 0.399017, 0.396324, 0.394488, 0.392367, 0.390297, 0.388511, 0.38646, 0.384736, 0.383012, 0.380527, 0.378571, 0.376928, 0.375012, 0.373119, 0.371534, 0.369949, 0.368116, 0.366298, 0.364786, 0.363012, 0.361508, 0.359775, 0.35833, 0.356622, 0.354942, 0.353548, 0.352171, 0.350541, 0.348768, 0.346711, 0.345221, 0.343663, 0.342139, 0.340615, 0.339187, 0.337901, 0.336422, 0.335039, 0.333144, 0.331716, 0.330403, 0.32857, 0.327063, 0.325696, 0.324443, 0.322684, 0.321364, 0.320105, 0.318401, 0.316996, 0.315731, 0.314567, 0.31293, 0.311709, 0.310581, 0.308996, 0.307834, 0.306282, 0.305126, 0.304053, 0.30292, 0.301871, 0.300391, 0.299299, 0.29785, 0.296777, 0.295777, 0.294373, 0.293352, 0.292322, 0.291271, 0.289919, 0.288849, 0.28786, 0.286933, 0.285631, 0.284646, 0.283745, 0.282479, 0.281597, 0.280646, 0.279698, 0.278475, 0.277579, 0.27669, 0.275856, 0.274985, 0.273775, 0.272883, 0.272035, 0.27124, 0.270067, 0.26921, 0.268391, 0.267575, 0.266677, 0.265794, 0.264922, 0.264065, 0.263219, 0.262387, 0.261377, 0.260382, 0.259401, 0.25861, 0.25765, 0.256704, 0.255771, 0.25485, 0.253942, 0.253207, 0.252319, 0.251444, 0.25058, 0.249728, 0.248887, 0.248058, 0.247382, 0.246571, 0.245771, 0.244982, 0.244203, 0.243567, 0.242805, 0.242054, 0.241312, 0.24058, 0.239858, 0.239275, 0.238701, 0.238001, 0.23739, 0.236703, 0.236152, 0.235479, 0.234814, 0.234158, 0.23351, 0.23287, 0.232289, 0.231661, 0.231041, 0.230474, 0.229865, 0.229131, 0.228532, 0.227812, 0.227272, 0.226568, 0.225985, 0.225295, 0.224722, 0.224059, 0.223585, 0.223024, 0.222377, 0.221877, 0.221244, 0.220789, 0.220246, 0.219627, 0.219018, 0.218577, 0.218049, 0.217454, 0.217024, 0.216507, 0.215925, 0.215352, 0.214904, 0.214491, 0.21399, 0.213433, 0.212885, 0.212396, 0.211998, 0.211512, 0.211034, 0.210566, 0.210089, 0.209625, 0.209204, 0.208825, 0.208411, 0.207893, 0.207522, 0.20706, 0.206656, 0.206152, 0.205713, 0.20526, 0.204767, 0.204339, 0.20395, 0.203597, 0.203215, 0.202738, 0.202393, 0.201956, 0.201489, 0.20108, 0.200677, 0.20031, 0.199976, 0.199318, 0.198961, 0.198539, 0.197898, 0.19755, 0.197136, 0.196752, 0.196127, 0.195788, 0.195411, 0.195094, 0.194484, 0.194116, 0.193787, 0.193424, 0.193104, 0.192746, 0.192439, 0.192119, 0.191769, 0.191457, 0.191112, 0.190811, 0.190504, 0.190166, 0.18986, 0.189526, 0.189145, 0.188848, 0.188519, 0.188195, 0.1879, 0.18758, 0.187293, 0.186977, 0.186688, 0.186401, 0.186091, 0.185807, 0.185527, 0.185248, 0.184944, 0.184639, 0.184361, 0.184089, 0.18382, 0.183522, 0.183165, 0.182871, 0.182604, 0.182313, 0.182053, 0.181767, 0.181419, 0.181137, 0.180878, 0.1806, 0.180255, 0.179693, 0.17942, 0.178869, 0.178607, 0.178067, 0.177536, 0.177206, 0.176686, 0.176361, 0.175851, 0.17535, 0.175107, 0.174614, 0.174299, 0.173815, 0.173498, 0.173242, 0.172767, 0.172299, 0.171995, 0.171456, 0.171207, 0.170676, 0.17038, 0.169858, 0.169559, 0.169316, 0.168874, 0.168365, 0.168081, 0.167844, 0.167413, 0.167141, 0.166648, 0.166228, 0.165949, 0.165467, 0.16524, 0.164831, 0.164558, 0.164088, 0.163745, 0.163408, 0.162983, 0.162763, 0.162432, 0.162015, 0.161799, 0.161475, 0.161065, 0.160853, 0.160535, 0.160132, 0.159924, 0.159613, 0.159217, 0.159012, 0.158621, 0.158418, 0.158114, 0.157914, 0.157529, 0.157332, 0.156952, 0.156654, 0.156459, 0.156084, 0.155891, 0.155522, 0.155231, 0.154867, 0.154676, 0.154316, 0.154128, 0.153844, 0.153658, 0.153306, 0.153122, 0.152772, 0.152591, 0.152245, 0.151969, 0.15179, 0.151449, 0.151272, 0.150937, 0.150666, 0.150491, 0.150163, 0.14999, 0.149664, 0.149399, 0.14908, 0.148909, 0.148741, 0.148423, 0.148257, 0.147943, 0.147686, 0.147521, 0.147214, 0.147056, 0.146803, 0.1465, 0.146338, 0.146031, 0.145876, 0.145629, 0.145327, 0.145169, 0.144877, 0.144721, 0.144571, 0.144329, 0.144035, 0.143854, 0.143565, 0.143417, 0.14318, 0.142904, 0.142752, 0.14247, 0.14232, 0.142088, 0.141811, 0.141668, 0.141493, 0.14122, 0.140993, 0.140732, 0.140584, 0.140445, 0.140179, 0.140009, 0.139786, 0.139602, 0.139383, 0.13913, 0.138994, 0.138814, 0.138599, 0.13835, 0.138166, 0.13799, 0.137737, 0.137528, 0.137396, 0.137147, 0.136975, 0.13677, 0.136531, 0.136402, 0.136233, 0.135995, 0.135794, 0.135558, 0.135388, 0.135223, 0.134987, 0.134819, 0.134657, 0.134424, 0.134232, 0.134073, 0.133909, 0.133753, 0.13353, 0.133369, 0.133216, 0.132993, 0.132807, 0.13265, 0.132428, 0.132277, 0.132184, 0.132066, 0.131884, 0.13173, 0.131583, 0.131404, 0.131259, 0.131109, 0.130994, 0.130851, 0.130676, 0.130527, 0.130386, 0.130297, 0.130087, 0.129896, 0.129782, 0.129694, 0.129582, 0.129437, 0.129164, 0.128978, 0.128709, 0.12854, 0.128424, 0.128242, 0.128039, 0.127956, 0.127686, 0.12752, 0.127382, 0.127204, 0.12694, 0.126778, 0.126697, 0.126522, 0.126327, 0.126125, 0.125966, 0.125836, 0.125665, 0.125411, 0.125214, 0.124964, 0.12481, 0.124703, 0.124635, 0.124482, 0.124289, 0.124183, 0.124018, 0.123776, 0.123672, 0.123523, 0.123446, 0.123285, 0.123048, 0.122946, 0.122845, 0.122698, 0.12254, 0.122354, 0.122255, 0.122024, 0.121881, 0.121783, 0.121667, 0.121571, 0.121344, 0.121203, 0.121118, 0.120938, 0.120799, 0.120704, 0.120591, 0.120498, 0.120361, 0.120278, 0.120101, 0.119883, 0.119748, 0.119534, 0.119442, 0.119332, 0.1192, 0.119116, 0.118905, 0.118734, 0.118605, 0.118525, 0.118318, 0.118151, 0.118062, 0.117955, 0.117827, 0.117746, 0.117543, 0.117418, 0.117341, 0.117178, 0.117072, 0.116949, 0.11675, 0.1167, 0.11654, 0.116454, 0.116335, 0.116213, 0.116019, 0.115945, 0.115789, 0.11567, 0.115479, 0.11543, 0.115277, 0.11516, 0.115077, 0.114889, 0.114773, 0.114702, 0.114552, 0.114368, 0.114326, 0.114212, 0.114065, 0.113951, 0.11391, 0.113811, 0.113698, 0.113617, 0.113505, 0.113298, 0.113258, 0.113148, 0.112944, 0.112834, 0.112689, 0.11265, 0.112449, 0.112342, 0.112233, 0.112194, 0.112097, 0.111986, 0.11179, 0.111751, 0.111557, 0.11145, 0.11131, 0.111232, 0.111137, 0.11103, 0.110953, 0.11088, 0.110775, 0.110671, 0.110533, 0.110458, 0.110381, 0.110288, 0.110185, 0.11011, 0.110008, 0.109903]}, \"validation_1\": {\"logloss\": [0.68676, 0.680496, 0.67435, 0.668321, 0.662361, 0.656551, 0.650804, 0.645201, 0.639656, 0.634231, 0.628918, 0.623679, 0.618549, 0.613463, 0.608485, 0.603613, 0.598777, 0.594043, 0.58941, 0.584831, 0.580349, 0.575894, 0.571531, 0.567264, 0.563182, 0.559184, 0.555112, 0.55124, 0.547293, 0.543519, 0.539664, 0.536054, 0.532312, 0.528814, 0.525161, 0.521738, 0.518242, 0.514902, 0.51163, 0.508284, 0.505128, 0.501584, 0.498373, 0.495199, 0.491826, 0.488894, 0.485841, 0.482454, 0.479593, 0.476537, 0.473752, 0.470788, 0.467894, 0.465216, 0.462361, 0.459387, 0.456736, 0.454198, 0.451324, 0.448786, 0.446342, 0.443593, 0.441004, 0.438651, 0.435953, 0.433917, 0.431308, 0.428864, 0.426152, 0.423899, 0.421252, 0.418649, 0.415788, 0.413331, 0.410836, 0.407809, 0.405746, 0.402795, 0.399893, 0.397695, 0.394867, 0.392085, 0.39022, 0.388084, 0.386015, 0.384108, 0.382044, 0.380185, 0.378585, 0.376013, 0.374046, 0.372351, 0.370451, 0.36855, 0.366827, 0.365202, 0.363366, 0.361705, 0.360055, 0.358278, 0.356708, 0.354974, 0.353479, 0.351814, 0.350136, 0.348601, 0.347016, 0.345391, 0.343449, 0.341314, 0.339627, 0.338078, 0.3364, 0.334699, 0.332975, 0.331812, 0.330346, 0.328672, 0.326707, 0.325106, 0.323742, 0.321842, 0.320353, 0.319008, 0.31771, 0.315887, 0.314401, 0.312963, 0.311198, 0.309797, 0.308561, 0.307277, 0.305583, 0.304393, 0.303235, 0.301595, 0.30021, 0.298605, 0.297291, 0.296195, 0.295099, 0.29394, 0.29241, 0.291195, 0.289699, 0.288666, 0.287561, 0.286111, 0.285112, 0.283928, 0.282951, 0.281554, 0.280589, 0.279644, 0.278617, 0.277271, 0.276516, 0.275609, 0.274299, 0.273319, 0.272397, 0.271528, 0.270262, 0.269387, 0.268544, 0.267711, 0.266689, 0.265611, 0.264804, 0.264006, 0.263118, 0.262073, 0.261303, 0.260536, 0.259737, 0.258584, 0.257446, 0.256323, 0.255214, 0.254119, 0.253038, 0.251831, 0.250641, 0.249468, 0.248435, 0.247287, 0.246155, 0.245038, 0.243936, 0.242849, 0.241883, 0.240819, 0.23977, 0.238735, 0.237714, 0.236706, 0.235712, 0.234817, 0.233844, 0.232884, 0.231937, 0.231002, 0.230154, 0.229239, 0.228453, 0.227562, 0.226682, 0.225929, 0.225271, 0.224624, 0.223892, 0.223321, 0.22268, 0.222118, 0.221304, 0.220687, 0.219892, 0.219294, 0.218518, 0.21797, 0.217209, 0.216642, 0.216172, 0.215469, 0.214962, 0.214417, 0.213919, 0.213471, 0.212985, 0.212308, 0.211831, 0.21131, 0.210932, 0.210514, 0.209901, 0.209533, 0.209077, 0.208717, 0.208317, 0.207688, 0.207318, 0.206974, 0.206586, 0.205971, 0.205616, 0.205239, 0.204773, 0.204445, 0.204104, 0.203693, 0.203331, 0.202745, 0.202433, 0.202107, 0.201617, 0.201268, 0.200727, 0.200399, 0.199859, 0.19943, 0.199114, 0.198846, 0.198504, 0.198241, 0.197948, 0.197622, 0.197125, 0.196868, 0.196584, 0.196142, 0.195625, 0.195348, 0.194916, 0.194662, 0.194342, 0.194093, 0.193824, 0.19352, 0.193049, 0.192767, 0.192353, 0.19208, 0.191841, 0.191536, 0.190872, 0.190639, 0.190155, 0.189522, 0.189297, 0.188849, 0.188589, 0.18797, 0.187706, 0.187324, 0.187036, 0.186432, 0.18606, 0.185803, 0.185561, 0.185326, 0.184965, 0.184684, 0.184435, 0.184082, 0.183854, 0.183623, 0.183348, 0.183123, 0.182778, 0.18254, 0.182201, 0.181783, 0.181567, 0.181349, 0.181135, 0.180905, 0.180581, 0.180371, 0.180178, 0.179912, 0.179688, 0.179498, 0.179236, 0.17902, 0.178802, 0.178391, 0.178093, 0.177836, 0.177625, 0.177418, 0.177002, 0.176669, 0.176379, 0.176171, 0.175765, 0.175564, 0.175282, 0.174955, 0.174559, 0.174357, 0.173966, 0.17368, 0.173279, 0.172997, 0.172603, 0.172343, 0.171915, 0.171494, 0.171156, 0.170784, 0.170451, 0.170045, 0.169689, 0.169442, 0.169054, 0.168729, 0.168343, 0.168085, 0.16772, 0.167375, 0.167008, 0.166693, 0.166306, 0.16595, 0.165581, 0.165271, 0.164898, 0.164632, 0.164284, 0.163994, 0.163642, 0.163342, 0.163001, 0.162682, 0.162423, 0.162081, 0.161772, 0.161464, 0.161122, 0.16081, 0.160556, 0.160254, 0.159922, 0.159666, 0.159413, 0.158897, 0.158595, 0.158346, 0.157838, 0.157524, 0.15728, 0.156779, 0.156487, 0.156247, 0.155754, 0.155468, 0.155231, 0.154746, 0.154519, 0.154039, 0.153831, 0.153601, 0.153396, 0.152922, 0.152703, 0.152235, 0.152007, 0.151807, 0.151339, 0.151125, 0.150669, 0.150444, 0.149988, 0.149793, 0.149342, 0.149157, 0.148939, 0.148757, 0.148317, 0.14813, 0.14769, 0.147488, 0.147053, 0.146836, 0.146654, 0.146224, 0.146028, 0.145603, 0.14539, 0.145212, 0.144798, 0.144629, 0.144216, 0.144007, 0.143603, 0.14343, 0.143242, 0.142838, 0.142668, 0.142268, 0.142066, 0.141905, 0.141516, 0.141383, 0.14118, 0.140791, 0.140612, 0.140191, 0.140061, 0.139865, 0.13945, 0.139289, 0.138913, 0.138761, 0.138636, 0.13844, 0.138034, 0.137862, 0.137461, 0.137339, 0.137149, 0.136792, 0.136622, 0.136231, 0.136077, 0.135887, 0.135501, 0.135383, 0.135218, 0.134837, 0.13465, 0.13431, 0.134166, 0.134051, 0.133709, 0.133549, 0.133368, 0.133177, 0.132998, 0.132667, 0.132555, 0.132369, 0.132193, 0.131896, 0.131709, 0.131528, 0.131169, 0.131019, 0.13091, 0.130585, 0.130409, 0.130261, 0.129945, 0.129838, 0.129663, 0.129316, 0.129171, 0.128856, 0.128681, 0.128514, 0.128176, 0.128004, 0.127841, 0.127535, 0.127391, 0.127232, 0.127063, 0.126907, 0.12661, 0.126444, 0.126287, 0.125995, 0.125856, 0.125692, 0.12537, 0.125221, 0.125174, 0.125085, 0.124948, 0.124834, 0.12469, 0.124555, 0.124413, 0.124257, 0.124169, 0.124007, 0.123875, 0.123766, 0.123633, 0.12353, 0.123281, 0.123013, 0.122897, 0.122796, 0.122682, 0.122577, 0.122338, 0.122076, 0.121841, 0.121716, 0.121595, 0.121338, 0.121036, 0.120995, 0.120822, 0.120676, 0.120576, 0.120324, 0.120156, 0.120017, 0.119938, 0.11969, 0.119429, 0.119282, 0.11916, 0.119049, 0.118806, 0.118643, 0.1185, 0.118341, 0.118208, 0.118115, 0.118013, 0.117894, 0.117755, 0.117649, 0.117412, 0.117257, 0.117152, 0.117018, 0.116943, 0.11671, 0.116558, 0.116455, 0.116353, 0.116228, 0.11599, 0.115857, 0.115772, 0.115623, 0.115511, 0.115413, 0.115244, 0.115147, 0.114921, 0.114793, 0.114687, 0.11456, 0.114458, 0.114377, 0.114212, 0.114119, 0.113994, 0.113891, 0.113767, 0.113548, 0.113442, 0.113154, 0.113076, 0.112915, 0.112819, 0.11274, 0.112454, 0.112334, 0.112232, 0.112132, 0.111856, 0.111738, 0.111664, 0.111512, 0.111419, 0.111342, 0.111069, 0.110961, 0.110864, 0.11075, 0.110596, 0.110498, 0.110229, 0.110163, 0.110052, 0.109981, 0.109841, 0.109753, 0.109487, 0.109393, 0.109285, 0.109198, 0.108929, 0.108865, 0.108758, 0.108621, 0.108552, 0.108292, 0.108207, 0.108115, 0.108012, 0.107755, 0.107704, 0.107621, 0.10752, 0.107384, 0.107333, 0.107192, 0.107103, 0.107037, 0.106903, 0.10661, 0.106561, 0.106429, 0.106213, 0.106125, 0.106026, 0.105978, 0.105693, 0.105564, 0.105477, 0.105429, 0.105288, 0.105113, 0.104904, 0.104856, 0.10458, 0.104495, 0.104399, 0.104284, 0.104146, 0.103976, 0.103896, 0.103826, 0.103742, 0.103616, 0.103523, 0.103444, 0.103382, 0.103247, 0.103164, 0.103087, 0.102962, 0.102795]}}, \"_estimator_type\": \"classifier\"}"},"feature_names":["partners_cnt","orders_cnt","perc","month","day","hour","weekday","day_of_year","day_freq","weekday_freq","days_until_holiday","days_since_holiday","is_holiday","is_weekend","days_until_nonworking","days_since_nonworking"],"feature_types":["float","float","float","int","int","int","int","int","float","float","int","int","int","int","int","int"],"gradient_booster":{"model":{"gbtree_model_param":{"num_trees":"680","size_leaf_vector":"0"},"tree_info":[0,0,0,0,0,0,0,0,0,0,0,0,0,0,0,0,0,0,0,0,0,0,0,0,0,0,0,0,0,0,0,0,0,0,0,0,0,0,0,0,0,0,0,0,0,0,0,0,0,0,0,0,0,0,0,0,0,0,0,0,0,0,0,0,0,0,0,0,0,0,0,0,0,0,0,0,0,0,0,0,0,0,0,0,0,0,0,0,0,0,0,0,0,0,0,0,0,0,0,0,0,0,0,0,0,0,0,0,0,0,0,0,0,0,0,0,0,0,0,0,0,0,0,0,0,0,0,0,0,0,0,0,0,0,0,0,0,0,0,0,0,0,0,0,0,0,0,0,0,0,0,0,0,0,0,0,0,0,0,0,0,0,0,0,0,0,0,0,0,0,0,0,0,0,0,0,0,0,0,0,0,0,0,0,0,0,0,0,0,0,0,0,0,0,0,0,0,0,0,0,0,0,0,0,0,0,0,0,0,0,0,0,0,0,0,0,0,0,0,0,0,0,0,0,0,0,0,0,0,0,0,0,0,0,0,0,0,0,0,0,0,0,0,0,0,0,0,0,0,0,0,0,0,0,0,0,0,0,0,0,0,0,0,0,0,0,0,0,0,0,0,0,0,0,0,0,0,0,0,0,0,0,0,0,0,0,0,0,0,0,0,0,0,0,0,0,0,0,0,0,0,0,0,0,0,0,0,0,0,0,0,0,0,0,0,0,0,0,0,0,0,0,0,0,0,0,0,0,0,0,0,0,0,0,0,0,0,0,0,0,0,0,0,0,0,0,0,0,0,0,0,0,0,0,0,0,0,0,0,0,0,0,0,0,0,0,0,0,0,0,0,0,0,0,0,0,0,0,0,0,0,0,0,0,0,0,0,0,0,0,0,0,0,0,0,0,0,0,0,0,0,0,0,0,0,0,0,0,0,0,0,0,0,0,0,0,0,0,0,0,0,0,0,0,0,0,0,0,0,0,0,0,0,0,0,0,0,0,0,0,0,0,0,0,0,0,0,0,0,0,0,0,0,0,0,0,0,0,0,0,0,0,0,0,0,0,0,0,0,0,0,0,0,0,0,0,0,0,0,0,0,0,0,0,0,0,0,0,0,0,0,0,0,0,0,0,0,0,0,0,0,0,0,0,0,0,0,0,0,0,0,0,0,0,0,0,0,0,0,0,0,0,0,0,0,0,0,0,0,0,0,0,0,0,0,0,0,0,0,0,0,0,0,0,0,0,0,0,0,0,0,0,0,0,0,0,0,0,0,0,0,0,0,0,0,0,0,0,0,0,0,0,0,0,0,0,0,0,0,0,0,0,0,0,0,0,0,0,0,0,0,0,0,0,0,0,0,0,0,0,0,0,0,0,0,0,0,0,0,0,0,0,0,0,0,0,0,0,0,0,0,0,0,0,0,0,0,0,0,0,0,0,0,0,0,0,0,0,0,0,0,0,0,0,0,0,0,0,0,0,0,0,0,0,0,0,0,0,0,0,0,0,0,0,0,0,0,0,0,0,0,0,0,0,0,0,0,0,0,0],"trees":[{"base_weights":[-1.0513296E-1,-1.6571429E0,1.1303383E0,-1.1392405E0,-1.9046632E0,1.4871016E-1,1.6898955E0,-1.3363229E0,1.75E0,-1.9585493E0,-1.6548223E0,6.0692465E-1,-1.1627907E0,-0E0,1.7509025E0],"categories":[],"categories_nodes":[],"categories_segments":[],"categories_sizes":[],"default_left":[true,true,true,true,true,true,true,false,false,false,false,false,false,false,false],"id":0,"left_children":[1,3,5,7,9,11,13,-1,-1,-1,-1,-1,-1,-1,-1],"loss_changes":[1.5521426E3,4.3818787E1,2.4733533E2,6.981464E1,6.8969727E-3,9.971202E1,2.958844E1,0E0,0E0,0E0,0E0,0E0,0E0,0E0,0E0],"parents":[2147483647,0,0,1,1,2,2,3,3,4,4,5,5,6,6],"right_children":[2,4,6,8,10,12,14,-1,-1,-1,-1,-1,-1,-1,-1],"split_conditions":[1.001833E0,1.4108023E-1,1.5005088E0,1.4056484E-1,3E0,1.4981637E0,1.3894808E-1,-1.3363229E-2,1.75E-2,-1.9585492E-2,-1.6548224E-2,6.069246E-3,-1.1627906E-2,-0E0,1.7509025E-2],"split_indices":[0,9,2,9,15,2,9,0,0,0,0,0,0,0,0],"split_type":[0,0,0,0,0,0,0,0,0,0,0,0,0,0,0],"sum_hessian":[8.075E2,3.5775E2,4.4975E2,1.175E2,2.4025E2,1.6375E2,2.86E2,1.105E2,7E0,1.92E2,4.825E1,1.2175E2,4.2E1,1E1,2.76E2],"tree_param":{"num_deleted":"0","num_feature":"16","num_nodes":"15","size_leaf_vector":"0"}},{"base_weights":[-1.04113E-1,-1.6407855E0,1.1191206E0,-1.1278653E0,-1.8859369E0,1.4719164E-1,1.6731814E0,-1.3231381E0,1.7348039E0,-1.9392511E0,-1.6387204E0,6.0091037E-1,-1.1514713E0,-0E0,1.7335896E0],"categories":[],"categories_nodes":[],"categories_segments":[],"categories_sizes":[],"default_left":[true,true,true,true,true,true,true,false,false,false,false,false,false,false,false],"id":1,"left_children":[1,3,5,7,9,11,13,-1,-1,-1,-1,-1,-1,-1,-1],"loss_changes":[1.5214856E3,4.297986E1,2.4247333E2,6.853401E1,1.5258789E-3,9.776569E1,2.9006042E1,0E0,0E0,0E0,0E0,0E0,0E0,0E0,0E0],"parents":[2147483647,0,0,1,1,2,2,3,3,4,4,5,5,6,6],"right_children":[2,4,6,8,10,12,14,-1,-1,-1,-1,-1,-1,-1,-1],"split_conditions":[1.001833E0,1.4108023E-1,1.5005088E0,1.4056484E-1,3E0,1.4981637E0,1.3894808E-1,-1.3231381E-2,1.7348038E-2,-1.939251E-2,-1.6387204E-2,6.0091037E-3,-1.1514712E-2,-0E0,1.7335895E-2],"split_indices":[0,9,2,9,15,2,9,0,0,0,0,0,0,0,0],"split_type":[0,0,0,0,0,0,0,0,0,0,0,0,0,0,0],"sum_hessian":[8.074491E2,3.577228E2,4.4972632E2,1.1749453E2,2.4022827E2,1.6374747E2,2.8597885E2,1.1049506E2,6.999464E0,1.9198157E2,4.8246696E1,1.21748886E2,4.199858E1,1E1,2.7597885E2],"tree_param":{"num_deleted":"0","num_feature":"16","num_nodes":"15","size_leaf_vector":"0"}},{"base_weights":[-1.03115775E-1,-1.6248319E0,1.1081291E0,-1.1167053E0,-1.8677254E0,1.4569277E-1,1.6568731E0,-1.310198E0,1.7199678E0,5.949663E-1,-1.1403364E0,-0E0,1.7167062E0],"categories":[],"categories_nodes":[],"categories_segments":[],"categories_sizes":[],"default_left":[true,true,true,true,false,true,true,false,false,false,false,false,false],"id":2,"left_children":[1,3,5,7,-1,9,11,-1,-1,-1,-1,-1,-1],"loss_changes":[1.4916328E3,4.217816E1,2.3776416E2,6.7283356E1,0E0,9.586171E1,2.8443665E1,0E0,0E0,0E0,0E0,0E0,0E0],"parents":[2147483647,0,0,1,1,2,2,3,3,5,5,6,6],"right_children":[2,4,6,8,-1,10,12,-1,-1,-1,-1,-1,-1],"split_conditions":[1.001833E0,1.4108023E-1,1.5005088E0,1.4056484E-1,-1.8677253E-2,1.4981637E0,1.3894808E-1,-1.3101979E-2,1.7199678E-2,5.949663E-3,-1.1403364E-2,-0E0,1.7167062E-2],"split_indices":[0,9,2,9,0,2,9,0,0,0,0,0,0],"split_type":[0,0,0,0,0,0,0,0,0,0,0,0,0],"sum_hessian":[8.072985E2,3.5764236E2,4.4965616E2,1.1747834E2,2.4016402E2,1.6373993E2,2.8591623E2,1.1048047E2,6.997875E0,1.2174556E2,4.1994377E1,1E1,2.7591623E2],"tree_param":{"num_deleted":"0","num_feature":"16","num_nodes":"13","size_leaf_vector":"0"}},{"base_weights":[-1.02119766E-1,-1.6092204E0,1.097356E0,-1.1057528E0,-1.8499396E0,1.4421344E-1,1.6409551E0,-1.2974939E0,1.7054787E0,-1.9027808E0,-1.6053158E0,5.890914E-1,-1.1293806E0,-0E0,1.7002352E0],"categories":[],"categories_nodes":[],"categories_segments":[],"categories_sizes":[],"default_left":[true,true,true,true,true,true,true,false,false,false,false,false,false,false,false],"id":3,"left_children":[1,3,5,7,9,11,13,-1,-1,-1,-1,-1,-1,-1,-1],"loss_changes":[1.4625046E3,4.140381E1,2.3320093E2,6.606169E1,6.1401367E-2,9.3998955E1,2.7900085E1,0E0,0E0,0E0,0E0,0E0,0E0,0E0,0E0],"parents":[2147483647,0,0,1,1,2,2,3,3,4,4,5,5,6,6],"right_children":[2,4,6,8,10,12,14,-1,-1,-1,-1,-1,-1,-1,-1],"split_conditions":[1.001833E0,1.4108023E-1,1.5005088E0,1.4056484E-1,3E0,1.4981637E0,1.3894808E-1,-1.2974939E-2,1.7054787E-2,-1.9027807E-2,-1.6053157E-2,5.8909142E-3,-1.1293805E-2,-0E0,1.7002352E-2],"split_indices":[0,9,2,9,15,2,9,0,0,0,0,0,0,0,0],"split_type":[0,0,0,0,0,0,0,0,0,0,0,0,0,0,0],"sum_hessian":[8.0705115E2,3.5751016E2,4.49541E2,1.17451744E2,2.4005841E2,1.6372758E2,2.8581342E2,1.1045648E2,6.9952617E0,1.9184053E2,4.821788E1,1.2174011E2,4.1987473E1,1E1,2.7581342E2],"tree_param":{"num_deleted":"0","num_feature":"16","num_nodes":"15","size_leaf_vector":"0"}},{"base_weights":[-1.0116566E-1,-1.5940291E0,1.0867938E0,-1.0950015E0,-1.8326977E0,1.4275303E-1,1.6254125E0,-1.2850186E0,1.6913246E0,-1.885055E0,-1.5903375E0,4.3999916E-1,-1.7320356E0,-0E0,1.6841612E0],"categories":[],"categories_nodes":[],"categories_segments":[],"categories_sizes":[],"default_left":[true,true,true,true,true,true,true,false,false,false,false,false,false,false,false],"id":4,"left_children":[1,3,5,7,9,11,13,-1,-1,-1,-1,-1,-1,-1,-1],"loss_changes":[1.4341749E3,4.06709E1,2.2877734E2,6.4868164E1,5.9143066E-2,9.2550934E1,2.7374573E1,0E0,0E0,0E0,0E0,0E0,0E0,0E0,0E0],"parents":[2147483647,0,0,1,1,2,2,3,3,4,4,5,5,6,6],"right_children":[2,4,6,8,10,12,14,-1,-1,-1,-1,-1,-1,-1,-1],"split_conditions":[1.001833E0,1.4108023E-1,1.5005088E0,1.4056484E-1,3E0,1.4794058E-1,1.3894808E-1,-1.2850185E-2,1.6913246E-2,-1.8850548E-2,-1.5903374E-2,4.3999916E-3,-1.7320355E-2,-0E0,1.684161E-2],"split_indices":[0,9,2,9,15,9,9,0,0,0,0,0,0,0,0],"split_type":[0,0,0,0,0,0,0,0,0,0,0,0,0,0,0],"sum_hessian":[8.0671E2,3.5732788E2,4.4938217E2,1.17415054E2,2.3991283E2,1.6371054E2,2.8567163E2,1.104234E2,6.99165E0,1.9171802E2,4.8194813E1,1.4196709E2,2.174345E1,1E1,2.7567163E2],"tree_param":{"num_deleted":"0","num_feature":"16","num_nodes":"15","size_leaf_vector":"0"}},{"base_weights":[-1.00239314E-1,-1.5791972E0,1.0763806E0,-1.0844449E0,-1.8159117E0,1.4125195E-1,1.6102309E0,-1.2727648E0,1.6774942E0,-1.867816E0,-1.5756894E0,5.8119833E-1,-1.1183792E0,-0E0,1.6684688E0],"categories":[],"categories_nodes":[],"categories_segments":[],"categories_sizes":[],"default_left":[true,true,true,true,true,true,true,false,false,false,false,false,false,false,false],"id":5,"left_children":[1,3,5,7,9,11,13,-1,-1,-1,-1,-1,-1,-1,-1],"loss_changes":[1.4065294E3,3.99693E1,2.2451929E2,6.3701874E1,5.847168E-2,9.192453E1,2.686621E1,0E0,0E0,0E0,0E0,0E0,0E0,0E0,0E0],"parents":[2147483647,0,0,1,1,2,2,3,3,4,4,5,5,6,6],"right_children":[2,4,6,8,10,12,14,-1,-1,-1,-1,-1,-1,-1,-1],"split_conditions":[1.001833E0,1.4108023E-1,1.5005088E0,1.4056484E-1,3E0,1.4981637E0,1.3894808E-1,-1.2727648E-2,1.6774941E-2,-1.8678159E-2,-1.5756894E-2,5.8119833E-3,-1.1183792E-2,-0E0,1.6684689E-2],"split_indices":[0,9,2,9,15,2,9,0,0,0,0,0,0,0,0],"split_type":[0,0,0,0,0,0,0,0,0,0,0,0,0,0,0],"sum_hessian":[8.062939E2,3.5709702E2,4.491969E2,1.1736856E2,2.3972844E2,1.6370488E2,2.85492E2,1.1038149E2,6.987068E0,1.9156259E2,4.816586E1,1.2172801E2,4.1976868E1,1E1,2.75492E2],"tree_param":{"num_deleted":"0","num_feature":"16","num_nodes":"15","size_leaf_vector":"0"}},{"base_weights":[-9.932483E-2,-1.5647112E0,1.0662109E0,-1.0740765E0,-1.7995638E0,1.3982548E-1,1.5953972E0,-1.2607254E0,1.6639766E0,-1.8510449E0,-1.5613595E0,4.338457E-1,-1.7147954E0,-0E0,1.6531438E0],"categories":[],"categories_nodes":[],"categories_segments":[],"categories_sizes":[],"default_left":[true,true,true,true,true,true,true,false,false,false,false,false,false,false,false],"id":6,"left_children":[1,3,5,7,9,11,13,-1,-1,-1,-1,-1,-1,-1,-1],"loss_changes":[1.3796117E3,3.9297424E1,2.203602E2,6.2561996E1,5.92041E-2,9.054467E1,2.6374207E1,0E0,0E0,0E0,0E0,0E0,0E0,0E0,0E0],"parents":[2147483647,0,0,1,1,2,2,3,3,4,4,5,5,6,6],"right_children":[2,4,6,8,10,12,14,-1,-1,-1,-1,-1,-1,-1,-1],"split_conditions":[1.001833E0,1.4108023E-1,1.5005088E0,1.4056484E-1,3E0,1.4794058E-1,1.3894808E-1,-1.2607253E-2,1.6639765E-2,-1.8510448E-2,-1.5613595E-2,4.338457E-3,-1.7147953E-2,-0E0,1.6531438E-2],"split_indices":[0,9,2,9,15,9,9,0,0,0,0,0,0,0,0],"split_type":[0,0,0,0,0,0,0,0,0,0,0,0,0,0,0],"sum_hessian":[8.057773E2,3.56819E2,4.4895828E2,1.1731256E2,2.3950642E2,1.6368251E2,2.8527576E2,1.10331024E2,6.981542E0,1.9137523E2,4.813119E1,1.4194542E2,2.1737085E1,1E1,2.7527576E2],"tree_param":{"num_deleted":"0","num_feature":"16","num_nodes":"15","size_leaf_vector":"0"}},{"base_weights":[-9.843648E-2,-1.550558E0,1.0561781E0,-1.0638907E0,-1.7836362E0,1.3835858E-1,1.5808983E0,-1.2488939E0,1.6507609E0,-1.8347224E0,-1.547336E0,5.734495E-1,-1.1075853E0,-0E0,1.6381723E0],"categories":[],"categories_nodes":[],"categories_segments":[],"categories_sizes":[],"default_left":[true,true,true,true,true,true,true,false,false,false,false,false,false,false,false],"id":7,"left_children":[1,3,5,7,9,11,13,-1,-1,-1,-1,-1,-1,-1,-1],"loss_changes":[1.3533301E3,3.8653687E1,2.16354E2,6.1447693E1,6.1279297E-2,8.990342E1,2.5897827E1,0E0,0E0,0E0,0E0,0E0,0E0,0E0,0E0],"parents":[2147483647,0,0,1,1,2,2,3,3,4,4,5,5,6,6],"right_children":[2,4,6,8,10,12,14,-1,-1,-1,-1,-1,-1,-1,-1],"split_conditions":[1.001833E0,1.4108023E-1,1.5005088E0,1.4056484E-1,3E0,1.4981637E0,1.3894808E-1,-1.2488938E-2,1.6507609E-2,-1.8347224E-2,-1.5473359E-2,5.734495E-3,-1.1075852E-2,-0E0,1.6381722E-2],"split_indices":[0,9,2,9,15,2,9,0,0,0,0,0,0,0,0],"split_type":[0,0,0,0,0,0,0,0,0,0,0,0,0,0,0],"sum_hessian":[8.051909E2,3.5649533E2,4.486956E2,1.1724737E2,2.3924796E2,1.6367157E2,2.8502402E2,1.1027227E2,6.9750977E0,1.9115695E2,4.8090992E1,1.2170961E2,4.1961967E1,1E1,2.7502402E2],"tree_param":{"num_deleted":"0","num_feature":"16","num_nodes":"15","size_leaf_vector":"0"}},{"base_weights":[-9.75587E-2,-1.5367256E0,1.0463756E0,-1.0538812E0,-1.7681139E0,1.3696508E-1,1.566722E0,-1.2372632E0,1.6378374E0,-1.8188323E0,-1.5336083E0,4.2780492E-1,-1.6980457E0,-0E0,1.6235414E0],"categories":[],"categories_nodes":[],"categories_segments":[],"categories_sizes":[],"default_left":[true,true,true,true,true,true,true,false,false,false,false,false,false,false,false],"id":8,"left_children":[1,3,5,7,9,11,13,-1,-1,-1,-1,-1,-1,-1,-1],"loss_changes":[1.3277279E3,3.80365E1,2.1243677E2,6.0358276E1,6.4575195E-2,8.859603E1,2.5436401E1,0E0,0E0,0E0,0E0,0E0,0E0,0E0,0E0],"parents":[2147483647,0,0,1,1,2,2,3,3,4,4,5,5,6,6],"right_children":[2,4,6,8,10,12,14,-1,-1,-1,-1,-1,-1,-1,-1],"split_conditions":[1.001833E0,1.4108023E-1,1.5005088E0,1.4056484E-1,3E0,1.4794058E-1,1.3894808E-1,-1.2372632E-2,1.6378373E-2,-1.8188322E-2,-1.5336083E-2,4.278049E-3,-1.6980456E-2,-0E0,1.6235413E-2],"split_indices":[0,9,2,9,15,9,9,0,0,0,0,0,0,0,0],"split_type":[0,0,0,0,0,0,0,0,0,0,0,0,0,0,0],"sum_hessian":[8.0450934E2,3.5612738E2,4.4838196E2,1.1717325E2,2.3895412E2,1.6364409E2,2.8473788E2,1.1020549E2,6.967761E0,1.9090869E2,4.8045425E1,1.4191771E2,2.1726368E1,1E1,2.7473788E2],"tree_param":{"num_deleted":"0","num_feature":"16","num_nodes":"15","size_leaf_vector":"0"}},{"base_weights":[-9.670589E-2,-1.5232023E0,1.0366992E0,-1.0440433E0,-1.7529807E0,1.355311E-1,1.5528567E0,-1.2258282E0,1.6251965E0,-1.8033571E0,-1.5201662E0,-1.832353E0,4.0472683E-1,-0E0,1.6092385E0],"categories":[],"categories_nodes":[],"categories_segments":[],"categories_sizes":[],"default_left":[true,true,true,true,true,true,true,false,false,false,false,false,false,false,false],"id":9,"left_children":[1,3,5,7,9,11,13,-1,-1,-1,-1,-1,-1,-1,-1],"loss_changes":[1.3027186E3,3.7444397E1,2.086611E2,5.9292953E1,6.903076E-2,8.795266E1,2.4989197E1,0E0,0E0,0E0,0E0,0E0,0E0,0E0,0E0],"parents":[2147483647,0,0,1,1,2,2,3,3,4,4,5,5,6,6],"right_children":[2,4,6,8,10,12,14,-1,-1,-1,-1,-1,-1,-1,-1],"split_conditions":[1.001833E0,1.4108023E-1,1.5005088E0,1.4056484E-1,3E0,5.043465E-1,1.3894808E-1,-1.2258281E-2,1.6251964E-2,-1.8033572E-2,-1.5201661E-2,-1.832353E-2,4.047268E-3,-0E0,1.6092384E-2],"split_indices":[0,9,2,9,15,2,9,0,0,0,0,0,0,0,0],"split_type":[0,0,0,0,0,0,0,0,0,0,0,0,0,0,0],"sum_hessian":[8.03763E2,3.5571652E2,4.4804648E2,1.17090454E2,2.3862608E2,1.6362805E2,2.8441843E2,1.101309E2,6.959556E0,1.9063141E2,4.7994663E1,1.8991196E1,1.4463687E2,1E1,2.7441843E2],"tree_param":{"num_deleted":"0","num_feature":"16","num_nodes":"15","size_leaf_vector":"0"}},{"base_weights":[-9.586962E-2,-1.509977E0,1.027146E0,-1.0343713E0,-1.7382226E0,1.34089E-1,1.5392911E0,-1.2145822E0,1.6128286E0,-1.7882816E0,-1.5069994E0,5.653142E-1,-1.100801E0,-0E0,1.5952518E0],"categories":[],"categories_nodes":[],"categories_segments":[],"categories_sizes":[],"default_left":[true,true,true,true,true,true,true,false,false,false,false,false,false,false,false],"id":10,"left_children":[1,3,5,7,9,11,13,-1,-1,-1,-1,-1,-1,-1,-1],"loss_changes":[1.2782904E3,3.687628E1,2.0501547E2,5.8251E1,7.446289E-2,8.828956E1,2.4555603E1,0E0,0E0,0E0,0E0,0E0,0E0,0E0,0E0],"parents":[2147483647,0,0,1,1,2,2,3,3,4,4,5,5,6,6],"right_children":[2,4,6,8,10,12,14,-1,-1,-1,-1,-1,-1,-1,-1],"split_conditions":[1.001833E0,1.4108023E-1,1.5005088E0,1.4056484E-1,3E0,1.4981637E0,1.3894808E-1,-1.2145822E-2,1.6128285E-2,-1.7882815E-2,-1.5069993E-2,5.6531415E-3,-1.1008009E-2,-0E0,1.5952518E-2],"split_indices":[0,9,2,9,15,2,9,0,0,0,0,0,0,0,0],"split_type":[0,0,0,0,0,0,0,0,0,0,0,0,0,0,0],"sum_hessian":[8.029594E2,3.5526422E2,4.4769516E2,1.1699929E2,2.3826491E2,1.636285E2,2.8406668E2,1.1004878E2,6.950508E0,1.9032605E2,4.7938866E1,1.21679924E2,4.194857E1,1E1,2.7406668E2],"tree_param":{"num_deleted":"0","num_feature":"16","num_nodes":"15","size_leaf_vector":"0"}},{"base_weights":[-9.504208E-2,-1.497039E0,1.0178455E0,-1.0248598E0,-1.7238256E0,1.3274083E-1,1.5260147E0,-1.2035195E0,1.6007257E0,-1.7735906E0,-1.4940993E0,-1.820021E0,3.9998665E-1,-0E0,1.58157E0],"categories":[],"categories_nodes":[],"categories_segments":[],"categories_sizes":[],"default_left":[true,true,true,true,true,true,true,false,false,false,false,false,false,false,false],"id":11,"left_children":[1,3,5,7,9,11,13,-1,-1,-1,-1,-1,-1,-1,-1],"loss_changes":[1.2544978E3,3.633075E1,2.0142636E2,5.723179E1,8.093262E-2,8.662568E1,2.413501E1,0E0,0E0,0E0,0E0,0E0,0E0,0E0,0E0],"parents":[2147483647,0,0,1,1,2,2,3,3,4,4,5,5,6,6],"right_children":[2,4,6,8,10,12,14,-1,-1,-1,-1,-1,-1,-1,-1],"split_conditions":[1.001833E0,1.4108023E-1,1.5005088E0,1.4056484E-1,3E0,5.043465E-1,1.3894808E-1,-1.2035195E-2,1.6007256E-2,-1.7735906E-2,-1.4940992E-2,-1.820021E-2,3.9998665E-3,-0E0,1.58157E-2],"split_indices":[0,9,2,9,15,2,9,0,0,0,0,0,0,0,0],"split_type":[0,0,0,0,0,0,0,0,0,0,0,0,0,0,0],"sum_hessian":[8.020521E2,3.5477167E2,4.472805E2,1.16900024E2,2.3787163E2,1.6359676E2,2.8368375E2,1.0995938E2,6.9406404E0,1.8999345E2,4.787818E1,1.8994429E1,1.4460234E2,1E1,2.7368375E2],"tree_param":{"num_deleted":"0","num_feature":"16","num_nodes":"15","size_leaf_vector":"0"}},{"base_weights":[-9.423762E-2,-1.4843782E0,1.0086147E0,-1.0155046E0,-1.7097764E0,1.3132995E-1,1.5130174E0,-1.192635E0,1.5888784E0,-1.7592698E0,-1.4814562E0,5.592915E-1,-1.0942124E0,-0E0,1.5681826E0],"categories":[],"categories_nodes":[],"categories_segments":[],"categories_sizes":[],"default_left":[true,true,true,true,true,true,true,false,false,false,false,false,false,false,false],"id":12,"left_children":[1,3,5,7,9,11,13,-1,-1,-1,-1,-1,-1,-1,-1],"loss_changes":[1.2312191E3,3.580664E1,1.9798343E2,5.6234627E1,8.8256836E-2,8.693889E1,2.3726868E1,0E0,0E0,0E0,0E0,0E0,0E0,0E0,0E0],"parents":[2147483647,0,0,1,1,2,2,3,3,4,4,5,5,6,6],"right_children":[2,4,6,8,10,12,14,-1,-1,-1,-1,-1,-1,-1,-1],"split_conditions":[1.001833E0,1.4108023E-1,1.5005088E0,1.4056484E-1,3E0,1.4981637E0,1.3894808E-1,-1.192635E-2,1.5888784E-2,-1.7592698E-2,-1.4814561E-2,5.5929148E-3,-1.0942124E-2,-0E0,1.5681826E-2],"split_indices":[0,9,2,9,15,2,9,0,0,0,0,0,0,0,0],"split_type":[0,0,0,0,0,0,0,0,0,0,0,0,0,0,0],"sum_hessian":[8.011044E2,3.5424017E2,4.468642E2,1.16792854E2,2.3744733E2,1.6359364E2,2.8327054E2,1.0986288E2,6.929977E0,1.8963454E2,4.7812782E1,1.21655106E2,4.1938538E1,1E1,2.7327054E2],"tree_param":{"num_deleted":"0","num_feature":"16","num_nodes":"15","size_leaf_vector":"0"}},{"base_weights":[-9.344101E-2,-1.471985E0,9.996251E-1,-1.0063006E0,-1.6960626E0,1.3001172E-1,1.5002894E0,-1.1819232E0,1.5772792E0,-1.7453063E0,-1.4690613E0,4.167781E-1,-1.6796806E0,-0E0,1.5550789E0],"categories":[],"categories_nodes":[],"categories_segments":[],"categories_sizes":[],"default_left":[true,true,true,true,true,true,true,false,false,false,false,false,false,false,false],"id":13,"left_children":[1,3,5,7,9,11,13,-1,-1,-1,-1,-1,-1,-1,-1],"loss_changes":[1.2085369E3,3.530298E1,1.9459012E2,5.5258904E1,9.637451E-2,8.609915E1,2.3330688E1,0E0,0E0,0E0,0E0,0E0,0E0,0E0,0E0],"parents":[2147483647,0,0,1,1,2,2,3,3,4,4,5,5,6,6],"right_children":[2,4,6,8,10,12,14,-1,-1,-1,-1,-1,-1,-1,-1],"split_conditions":[1.001833E0,1.4108023E-1,1.5005088E0,1.4056484E-1,3E0,1.4794058E-1,1.3894808E-1,-1.1819231E-2,1.5772792E-2,-1.7453061E-2,-1.4690612E-2,4.1677807E-3,-1.6796805E-2,-0E0,1.55507885E-2],"split_indices":[0,9,2,9,15,9,9,0,0,0,0,0,0,0,0],"split_type":[0,0,0,0,0,0,0,0,0,0,0,0,0,0,0],"sum_hessian":[8.000577E2,3.5367108E2,4.4638663E2,1.166781E2,2.3699297E2,1.6355849E2,2.8282812E2,1.0975956E2,6.918541E0,1.8925015E2,4.774281E1,1.4185039E2,2.170811E1,1E1,2.7282812E2],"tree_param":{"num_deleted":"0","num_feature":"16","num_nodes":"15","size_leaf_vector":"0"}},{"base_weights":[-9.266664E-2,-1.4598503E0,9.907361E-1,-9.9724376E-1,-1.6826721E0,1.2865211E-1,1.4878217E0,-1.1713793E0,1.5659202E0,-1.7316866E0,-1.456907E0,-1.807372E0,3.937246E-1,-0E0,1.5422493E0],"categories":[],"categories_nodes":[],"categories_segments":[],"categories_sizes":[],"default_left":[true,true,true,true,true,true,true,false,false,false,false,false,false,false,false],"id":14,"left_children":[1,3,5,7,9,11,13,-1,-1,-1,-1,-1,-1,-1,-1],"loss_changes":[1.1863534E3,3.4818604E1,1.9131546E2,5.4303993E1,1.0534668E-1,8.514914E1,2.2945923E1,0E0,0E0,0E0,0E0,0E0,0E0,0E0,0E0],"parents":[2147483647,0,0,1,1,2,2,3,3,4,4,5,5,6,6],"right_children":[2,4,6,8,10,12,14,-1,-1,-1,-1,-1,-1,-1,-1],"split_conditions":[1.001833E0,1.4108023E-1,1.5005088E0,1.4056484E-1,3E0,5.043465E-1,1.3894808E-1,-1.1713793E-2,1.5659202E-2,-1.7316865E-2,-1.456907E-2,-1.8073719E-2,3.937246E-3,-0E0,1.5422493E-2],"split_indices":[0,9,2,9,15,2,9,0,0,0,0,0,0,0,0],"split_type":[0,0,0,0,0,0,0,0,0,0,0,0,0,0,0],"sum_hessian":[7.989586E2,3.530655E2,4.458931E2,1.1655597E2,2.3650952E2,1.635357E2,2.823574E2,1.0964961E2,6.906355E0,1.8884111E2,4.7668407E1,1.8993494E1,1.445422E2,1E1,2.723574E2],"tree_param":{"num_deleted":"0","num_feature":"16","num_nodes":"15","size_leaf_vector":"0"}},{"base_weights":[-9.190624E-2,-1.4479649E0,9.8195034E-1,-9.883293E-1,-1.6695936E0,1.2728521E-1,1.475605E0,-1.1609982E0,1.5547938E0,-1.7183986E0,-1.4449848E0,5.5151093E-1,-1.0875006E0,-0E0,1.5296844E0],"categories":[],"categories_nodes":[],"categories_segments":[],"categories_sizes":[],"default_left":[true,true,true,true,true,true,true,false,false,false,false,false,false,false,false],"id":15,"left_children":[1,3,5,7,9,11,13,-1,-1,-1,-1,-1,-1,-1,-1],"loss_changes":[1.1646626E3,3.435266E1,1.8814743E2,5.336933E1,1.149292E-1,8.5388466E1,2.2572083E1,0E0,0E0,0E0,0E0,0E0,0E0,0E0,0E0],"parents":[2147483647,0,0,1,1,2,2,3,3,4,4,5,5,6,6],"right_children":[2,4,6,8,10,12,14,-1,-1,-1,-1,-1,-1,-1,-1],"split_conditions":[1.001833E0,1.4108023E-1,1.5005088E0,1.4056484E-1,3E0,1.4981637E0,1.3894808E-1,-1.1609982E-2,1.5547938E-2,-1.7183986E-2,-1.4449848E-2,5.5151093E-3,-1.0875005E-2,-0E0,1.5296844E-2],"split_indices":[0,9,2,9,15,2,9,0,0,0,0,0,0,0,0],"split_type":[0,0,0,0,0,0,0,0,0,0,0,0,0,0,0],"sum_hessian":[7.9781256E2,3.5242468E2,4.4538785E2,1.1642671E2,2.3599799E2,1.6352853E2,2.8185934E2,1.0953327E2,6.8934402E0,1.8840825E2,4.7589733E1,1.21607086E2,4.1921444E1,1E1,2.7185934E2],"tree_param":{"num_deleted":"0","num_feature":"16","num_nodes":"15","size_leaf_vector":"0"}},{"base_weights":[-9.115219E-2,-1.4363207E0,9.733909E-1,-9.7955334E-1,-1.656816E0,1.2600948E-1,1.463631E0,-1.1507753E0,1.543893E0,-1.7054307E0,-1.4332877E0,4.094143E-1,-1.6632426E0,-0E0,1.5173749E0],"categories":[],"categories_nodes":[],"categories_segments":[],"categories_sizes":[],"default_left":[true,true,true,true,true,true,true,false,false,false,false,false,false,false,false],"id":16,"left_children":[1,3,5,7,9,11,13,-1,-1,-1,-1,-1,-1,-1,-1],"loss_changes":[1.143516E3,3.3904358E1,1.8502005E2,5.2454346E1,1.251831E-1,8.409068E1,2.220874E1,0E0,0E0,0E0,0E0,0E0,0E0,0E0,0E0],"parents":[2147483647,0,0,1,1,2,2,3,3,4,4,5,5,6,6],"right_children":[2,4,6,8,10,12,14,-1,-1,-1,-1,-1,-1,-1,-1],"split_conditions":[1.001833E0,1.4108023E-1,1.5005088E0,1.4056484E-1,3E0,1.4794058E-1,1.3894808E-1,-1.1507753E-2,1.5438929E-2,-1.7054306E-2,-1.43328775E-2,4.094143E-3,-1.6632425E-2,-0E0,1.5173748E-2],"split_indices":[0,9,2,9,15,9,9,0,0,0,0,0,0,0,0],"split_type":[0,0,0,0,0,0,0,0,0,0,0,0,0,0,0],"sum_hessian":[7.965741E2,3.5174982E2,4.4482425E2,1.16290565E2,2.3545926E2,1.6348941E2,2.8133484E2,1.0941074E2,6.8798203E0,1.8795235E2,4.7506912E1,1.4180042E2,2.1688997E1,1E1,2.7133484E2],"tree_param":{"num_deleted":"0","num_feature":"16","num_nodes":"15","size_leaf_vector":"0"}},{"base_weights":[-9.0419136E-2,-1.4249095E0,9.6492296E-1,-9.70912E-1,-1.6443293E0,1.2469379E-1,1.4518918E0,-1.1407063E0,1.5332106E0,-1.6927719E0,-1.421808E0,-1.794973E0,3.8763046E-1,-0E0,1.5053124E0],"categories":[],"categories_nodes":[],"categories_segments":[],"categories_sizes":[],"default_left":[true,true,true,true,true,true,true,false,false,false,false,false,false,false,false],"id":17,"left_children":[1,3,5,7,9,11,13,-1,-1,-1,-1,-1,-1,-1,-1],"loss_changes":[1.1228225E3,3.3472534E1,1.8199826E2,5.1558525E1,1.3604736E-1,8.3707825E1,2.185553E1,0E0,0E0,0E0,0E0,0E0,0E0,0E0,0E0],"parents":[2147483647,0,0,1,1,2,2,3,3,4,4,5,5,6,6],"right_children":[2,4,6,8,10,12,14,-1,-1,-1,-1,-1,-1,-1,-1],"split_conditions":[1.001833E0,1.4108023E-1,1.5005088E0,1.4056484E-1,3E0,5.043465E-1,1.3894808E-1,-1.1407062E-2,1.5332106E-2,-1.692772E-2,-1.421808E-2,-1.794973E-2,3.8763045E-3,-0E0,1.5053124E-2],"split_indices":[0,9,2,9,15,2,9,0,0,0,0,0,0,0,0],"split_type":[0,0,0,0,0,0,0,0,0,0,0,0,0,0,0],"sum_hessian":[7.952882E2,3.51042E2,4.442462E2,1.16147736E2,2.3489424E2,1.6346144E2,2.8078476E2,1.0928223E2,6.865515E0,1.8747415E2,4.7420086E1,1.8990152E1,1.444713E2,1E1,2.7078476E2],"tree_param":{"num_deleted":"0","num_feature":"16","num_nodes":"15","size_leaf_vector":"0"}},{"base_weights":[-8.9698754E-2,-1.4137236E0,9.565441E-1,-9.6240103E-1,-1.6321232E0,1.23369455E-1,1.4403794E0,-1.1307865E0,1.5227402E0,-1.6804113E0,-1.4105387E0,5.4393244E-1,-1.0808406E0,-0E0,1.4934888E0],"categories":[],"categories_nodes":[],"categories_segments":[],"categories_sizes":[],"default_left":[true,true,true,true,true,true,true,false,false,false,false,false,false,false,false],"id":18,"left_children":[1,3,5,7,9,11,13,-1,-1,-1,-1,-1,-1,-1,-1],"loss_changes":[1.1025757E3,3.30567E1,1.7907346E2,5.0681274E1,1.473999E-1,8.387315E1,2.1511902E1,0E0,0E0,0E0,0E0,0E0,0E0,0E0,0E0],"parents":[2147483647,0,0,1,1,2,2,3,3,4,4,5,5,6,6],"right_children":[2,4,6,8,10,12,14,-1,-1,-1,-1,-1,-1,-1,-1],"split_conditions":[1.001833E0,1.4108023E-1,1.5005088E0,1.4056484E-1,3E0,1.4981637E0,1.3894808E-1,-1.1307865E-2,1.5227403E-2,-1.6804112E-2,-1.4105386E-2,5.4393243E-3,-1.08084055E-2,-0E0,1.4934887E-2],"split_indices":[0,9,2,9,15,2,9,0,0,0,0,0,0,0,0],"split_type":[0,0,0,0,0,0,0,0,0,0,0,0,0,0,0],"sum_hessian":[7.939627E2,3.5030237E2,4.4366037E2,1.1599847E2,2.343039E2,1.6345035E2,2.8021002E2,1.0914792E2,6.850546E0,1.869745E2,4.7329403E1,1.2154857E2,4.1901787E1,1E1,2.7021002E2],"tree_param":{"num_deleted":"0","num_feature":"16","num_nodes":"15","size_leaf_vector":"0"}},{"base_weights":[-8.898333E-2,-1.4027553E0,9.4837826E-1,-9.540172E-1,-1.6201882E0,1.2213467E-1,1.4290864E0,-1.1210122E0,1.5124756E0,-1.6683387E0,-1.3994731E0,-1.7832206E0,3.8319725E-1,-0E0,1.4818959E0],"categories":[],"categories_nodes":[],"categories_segments":[],"categories_sizes":[],"default_left":[true,true,true,true,true,true,true,false,false,false,false,false,false,false,false],"id":19,"left_children":[1,3,5,7,9,11,13,-1,-1,-1,-1,-1,-1,-1,-1],"loss_changes":[1.0828263E3,3.2655884E1,1.7618176E2,4.9822166E1,1.5930176E-1,8.2462364E1,2.1177551E1,0E0,0E0,0E0,0E0,0E0,0E0,0E0,0E0],"parents":[2147483647,0,0,1,1,2,2,3,3,4,4,5,5,6,6],"right_children":[2,4,6,8,10,12,14,-1,-1,-1,-1,-1,-1,-1,-1],"split_conditions":[1.001833E0,1.4108023E-1,1.5005088E0,1.4056484E-1,3E0,5.043465E-1,1.3894808E-1,-1.1210122E-2,1.5124756E-2,-1.6683387E-2,-1.399473E-2,-1.7832207E-2,3.8319724E-3,-0E0,1.4818959E-2],"split_indices":[0,9,2,9,15,2,9,0,0,0,0,0,0,0,0],"split_type":[0,0,0,0,0,0,0,0,0,0,0,0,0,0,0],"sum_hessian":[7.9255084E2,3.49532E2,4.4301883E2,1.1584298E2,2.3368904E2,1.6340741E2,2.7961142E2,1.0900805E2,6.834933E0,1.8645407E2,4.723497E1,1.8988674E1,1.4441873E2,1E1,2.6961142E2],"tree_param":{"num_deleted":"0","num_feature":"16","num_nodes":"15","size_leaf_vector":"0"}},{"base_weights":[-8.8287584E-2,-1.3919977E0,9.4025326E-1,-9.4575673E-1,-1.6085154E0,1.208386E-1,1.4180057E0,-1.111379E0,1.5024103E0,-1.6565444E0,-1.3886051E0,5.382887E-1,-1.0743563E0,-0E0,1.4705265E0],"categories":[],"categories_nodes":[],"categories_segments":[],"categories_sizes":[],"default_left":[true,true,true,true,true,true,true,false,false,false,false,false,false,false,false],"id":20,"left_children":[1,3,5,7,9,11,13,-1,-1,-1,-1,-1,-1,-1,-1],"loss_changes":[1.0634708E3,3.226953E1,1.7340305E2,4.8980682E1,1.7175293E-1,8.259965E1,2.0852112E1,0E0,0E0,0E0,0E0,0E0,0E0,0E0,0E0],"parents":[2147483647,0,0,1,1,2,2,3,3,4,4,5,5,6,6],"right_children":[2,4,6,8,10,12,14,-1,-1,-1,-1,-1,-1,-1,-1],"split_conditions":[1.001833E0,1.4108023E-1,1.5005088E0,1.4056484E-1,3E0,1.4981637E0,1.3894808E-1,-1.111379E-2,1.5024102E-2,-1.6565444E-2,-1.3886051E-2,5.382887E-3,-1.0743563E-2,-0E0,1.4705264E-2],"split_indices":[0,9,2,9,15,2,9,0,0,0,0,0,0,0,0],"split_type":[0,0,0,0,0,0,0,0,0,0,0,0,0,0,0],"sum_hessian":[7.9111487E2,3.48732E2,4.423829E2,1.1568147E2,2.3305052E2,1.6339308E2,2.7898984E2,1.0886278E2,6.818696E0,1.8591359E2,4.7136932E1,1.2150441E2,4.1888664E1,1E1,2.6898984E2],"tree_param":{"num_deleted":"0","num_feature":"16","num_nodes":"15","size_leaf_vector":"0"}},{"base_weights":[-8.7596014E-2,-1.3814441E0,9.3233293E-1,-9.376161E-1,-1.5970958E0,1.1963085E-1,1.4071306E0,-1.101883E0,1.4925385E0,-1.6450193E0,-1.3779281E0,3.9915156E-1,-1.6460172E0,-0E0,1.459373E0],"categories":[],"categories_nodes":[],"categories_segments":[],"categories_sizes":[],"default_left":[true,true,true,true,true,true,true,false,false,false,false,false,false,false,false],"id":21,"left_children":[1,3,5,7,9,11,13,-1,-1,-1,-1,-1,-1,-1,-1],"loss_changes":[1.0445851E3,3.189685E1,1.706532E2,4.815635E1,1.8463135E-1,8.176806E1,2.0535278E1,0E0,0E0,0E0,0E0,0E0,0E0,0E0,0E0],"parents":[2147483647,0,0,1,1,2,2,3,3,4,4,5,5,6,6],"right_children":[2,4,6,8,10,12,14,-1,-1,-1,-1,-1,-1,-1,-1],"split_conditions":[1.001833E0,1.4108023E-1,1.5005088E0,1.4056484E-1,3E0,1.4794058E-1,1.3894808E-1,-1.101883E-2,1.4925384E-2,-1.6450193E-2,-1.3779281E-2,3.9915154E-3,-1.6460171E-2,-0E0,1.459373E-2],"split_indices":[0,9,2,9,15,9,9,0,0,0,0,0,0,0,0],"split_type":[0,0,0,0,0,0,0,0,0,0,0,0,0,0,0],"sum_hessian":[7.8959644E2,3.4790332E2,4.4169308E2,1.1551415E2,2.3238918E2,1.6334705E2,2.7834604E2,1.08712296E2,6.801855E0,1.8535376E2,4.7035404E1,1.4168996E2,2.1657082E1,1E1,2.6834604E2],"tree_param":{"num_deleted":"0","num_feature":"16","num_nodes":"15","size_leaf_vector":"0"}},{"base_weights":[-8.692354E-2,-1.3710877E0,9.244852E-1,-9.295922E-1,-1.5859213E0,1.1838239E-1,1.3964541E0,-1.0925207E0,1.4828548E0,-1.6337543E0,-1.3674365E0,-1.7712418E0,3.7736928E-1,-0E0,1.4484285E0],"categories":[],"categories_nodes":[],"categories_segments":[],"categories_sizes":[],"default_left":[true,true,true,true,true,true,true,false,false,false,false,false,false,false,false],"id":22,"left_children":[1,3,5,7,9,11,13,-1,-1,-1,-1,-1,-1,-1,-1],"loss_changes":[1.0260854E3,3.1537354E1,1.6799362E2,4.7348732E1,1.9787598E-1,8.108119E1,2.0226624E1,0E0,0E0,0E0,0E0,0E0,0E0,0E0,0E0],"parents":[2147483647,0,0,1,1,2,2,3,3,4,4,5,5,6,6],"right_children":[2,4,6,8,10,12,14,-1,-1,-1,-1,-1,-1,-1,-1],"split_conditions":[1.001833E0,1.4108023E-1,1.5005088E0,1.4056484E-1,3E0,5.043465E-1,1.3894808E-1,-1.0925207E-2,1.4828548E-2,-1.6337542E-2,-1.3674365E-2,-1.7712418E-2,3.7736928E-3,-0E0,1.4484284E-2],"split_indices":[0,9,2,9,15,2,9,0,0,0,0,0,0,0,0],"split_type":[0,0,0,0,0,0,0,0,0,0,0,0,0,0,0],"sum_hessian":[7.8804083E2,3.4704703E2,4.4099384E2,1.1534123E2,2.317058E2,1.6331299E2,2.7768085E2,1.085568E2,6.7844296E0,1.8477527E2,4.693052E1,1.8981411E1,1.4433157E2,1E1,2.6768085E2],"tree_param":{"num_deleted":"0","num_feature":"16","num_nodes":"15","size_leaf_vector":"0"}},{"base_weights":[-8.626194E-2,-1.3609225E0,9.167126E-1,-9.2168194E-1,-1.574984E0,1.17126435E-1,1.3859702E0,-1.0832888E0,1.4733534E0,-1.622741E0,-1.3571246E0,5.310307E-1,-1.0677719E0,-0E0,1.4376866E0],"categories":[],"categories_nodes":[],"categories_segments":[],"categories_sizes":[],"default_left":[true,true,true,true,true,true,true,false,false,false,false,false,false,false,false],"id":23,"left_children":[1,3,5,7,9,11,13,-1,-1,-1,-1,-1,-1,-1,-1],"loss_changes":[1.0079698E3,3.1190308E1,1.6541492E2,4.6557365E1,2.1154785E-1,8.1142944E1,1.9925903E1,0E0,0E0,0E0,0E0,0E0,0E0,0E0,0E0],"parents":[2147483647,0,0,1,1,2,2,3,3,4,4,5,5,6,6],"right_children":[2,4,6,8,10,12,14,-1,-1,-1,-1,-1,-1,-1,-1],"split_conditions":[1.001833E0,1.4108023E-1,1.5005088E0,1.4056484E-1,3E0,1.4981637E0,1.3894808E-1,-1.0832888E-2,1.4733533E-2,-1.622741E-2,-1.3571246E-2,5.3103073E-3,-1.0677719E-2,-0E0,1.4376866E-2],"split_indices":[0,9,2,9,15,2,9,0,0,0,0,0,0,0,0],"split_type":[0,0,0,0,0,0,0,0,0,0,0,0,0,0,0],"sum_hessian":[7.8645404E2,3.4616406E2,4.4028995E2,1.15162895E2,2.3100117E2,1.6329497E2,2.76995E2,1.08396454E2,6.7664375E0,1.8417879E2,4.6822388E1,1.21429504E2,4.1865467E1,1E1,2.66995E2],"tree_param":{"num_deleted":"0","num_feature":"16","num_nodes":"15","size_leaf_vector":"0"}},{"base_weights":[-8.560351E-2,-1.3509421E0,9.091333E-1,-9.13882E-1,-1.564276E0,1.1595721E-1,1.3756728E0,-1.0741832E0,1.4640294E0,-1.6119711E0,-1.3469864E0,3.9224523E-1,-1.6305225E0,1.574861E0,9.85724E-1],"categories":[],"categories_nodes":[],"categories_segments":[],"categories_sizes":[],"default_left":[true,true,true,true,true,true,true,false,false,false,false,false,false,false,false],"id":24,"left_children":[1,3,5,7,9,11,13,-1,-1,-1,-1,-1,-1,-1,-1],"loss_changes":[9.9028564E2,3.0855164E1,1.6285938E2,4.578189E1,2.255249E-1,7.989312E1,1.9985596E1,0E0,0E0,0E0,0E0,0E0,0E0,0E0,0E0],"parents":[2147483647,0,0,1,1,2,2,3,3,4,4,5,5,6,6],"right_children":[2,4,6,8,10,12,14,-1,-1,-1,-1,-1,-1,-1,-1],"split_conditions":[1.001833E0,1.4108023E-1,1.5005088E0,1.4056484E-1,3E0,1.4794058E-1,1.9998535E0,-1.0741832E-2,1.4640294E-2,-1.6119711E-2,-1.3469864E-2,3.922452E-3,-1.6305225E-2,1.574861E-2,9.857239E-3],"split_indices":[0,9,2,9,15,9,2,0,0,0,0,0,0,0,0],"split_type":[0,0,0,0,0,0,0,0,0,0,0,0,0,0,0],"sum_hessian":[7.8479004E2,3.4525546E2,4.395346E2,1.14979355E2,2.302761E2,1.6324538E2,2.7628925E2,1.0823145E2,6.7478986E0,1.8356497E2,4.671113E1,1.4161732E2,2.1628042E1,1.8086412E2,9.542512E1],"tree_param":{"num_deleted":"0","num_feature":"16","num_nodes":"15","size_leaf_vector":"0"}},{"base_weights":[-8.494617E-2,-1.3411411E0,9.015907E-1,-9.0618956E-1,-1.5537901E0,1.1474837E-1,1.3654634E0,-1.0652009E0,1.4548774E0,-1.6014371E0,-1.3370174E0,-1.7594981E0,3.7169382E-1,1.5637559E0,9.77708E-1],"categories":[],"categories_nodes":[],"categories_segments":[],"categories_sizes":[],"default_left":[true,true,true,true,true,true,true,false,false,false,false,false,false,false,false],"id":25,"left_children":[1,3,5,7,9,11,13,-1,-1,-1,-1,-1,-1,-1,-1],"loss_changes":[9.7295544E2,3.0531555E1,1.6036725E2,4.5021828E1,2.3986816E-1,7.973248E1,1.9737915E1,0E0,0E0,0E0,0E0,0E0,0E0,0E0,0E0],"parents":[2147483647,0,0,1,1,2,2,3,3,4,4,5,5,6,6],"right_children":[2,4,6,8,10,12,14,-1,-1,-1,-1,-1,-1,-1,-1],"split_conditions":[1.001833E0,1.4108023E-1,1.5005088E0,1.4056484E-1,3E0,5.043465E-1,1.9998535E0,-1.0652009E-2,1.4548774E-2,-1.6014371E-2,-1.3370174E-2,-1.759498E-2,3.7169382E-3,1.5637558E-2,9.777079E-3],"split_indices":[0,9,2,9,15,2,2,0,0,0,0,0,0,0,0],"split_type":[0,0,0,0,0,0,0,0,0,0,0,0,0,0,0],"sum_hessian":[7.8312E2,3.4432208E2,4.3879788E2,1.1479078E2,2.2953131E2,1.6320663E2,2.7559125E2,1.0806195E2,6.728829E0,1.8293446E2,4.659685E1,1.897185E1,1.4423479E2,1.8033679E2,9.5254456E1],"tree_param":{"num_deleted":"0","num_feature":"16","num_nodes":"15","size_leaf_vector":"0"}},{"base_weights":[-8.429899E-2,-1.3315138E0,8.941131E-1,-8.986018E-1,-1.5435191E0,1.1353097E-1,1.3554307E0,-1.0563388E0,1.4458926E0,-1.591131E0,-1.327212E0,5.239555E-1,-1.0612404E0,-2.39949E-2,1.4073937E0],"categories":[],"categories_nodes":[],"categories_segments":[],"categories_sizes":[],"default_left":[true,true,true,true,true,true,true,false,false,false,false,false,false,false,false],"id":26,"left_children":[1,3,5,7,9,11,13,-1,-1,-1,-1,-1,-1,-1,-1],"loss_changes":[9.559754E2,3.0218689E1,1.5794989E2,4.4276825E1,2.545166E-1,7.9718704E1,1.9808197E1,0E0,0E0,0E0,0E0,0E0,0E0,0E0,0E0],"parents":[2147483647,0,0,1,1,2,2,3,3,4,4,5,5,6,6],"right_children":[2,4,6,8,10,12,14,-1,-1,-1,-1,-1,-1,-1,-1],"split_conditions":[1.001833E0,1.4108023E-1,1.5005088E0,1.4056484E-1,3E0,1.4981637E0,1.3894808E-1,-1.0563388E-2,1.4458925E-2,-1.5911309E-2,-1.327212E-2,5.239555E-3,-1.0612404E-2,-2.39949E-4,1.4073936E-2],"split_indices":[0,9,2,9,15,2,9,0,0,0,0,0,0,0,0],"split_type":[0,0,0,0,0,0,0,0,0,0,0,0,0,0,0],"sum_hessian":[7.814246E2,3.4336493E2,4.380597E2,1.1459736E2,2.2876756E2,1.6318507E2,2.748746E2,1.07888115E2,6.7092476E0,1.8228789E2,4.647967E1,1.2134523E2,4.1839836E1,9.998175E0,2.6487643E2],"tree_param":{"num_deleted":"0","num_feature":"16","num_nodes":"15","size_leaf_vector":"0"}},{"base_weights":[-8.367119E-2,-1.3220546E0,8.8684505E-1,-8.911158E-1,-1.5334566E0,1.1239898E-1,1.3456519E0,-1.0475935E0,1.4370703E0,-1.5810461E0,-1.3175654E0,-1.7482888E0,3.675397E-1,1.5436615E0,9.5906574E-1],"categories":[],"categories_nodes":[],"categories_segments":[],"categories_sizes":[],"default_left":[true,true,true,true,true,true,true,false,false,false,false,false,false,false,false],"id":27,"left_children":[1,3,5,7,9,11,13,-1,-1,-1,-1,-1,-1,-1,-1],"loss_changes":[9.3939124E2,2.991626E1,1.5556711E2,4.3546486E1,2.6953125E-1,7.856214E1,1.9578949E1,0E0,0E0,0E0,0E0,0E0,0E0,0E0,0E0],"parents":[2147483647,0,0,1,1,2,2,3,3,4,4,5,5,6,6],"right_children":[2,4,6,8,10,12,14,-1,-1,-1,-1,-1,-1,-1,-1],"split_conditions":[1.001833E0,1.4108023E-1,1.5005088E0,1.4056484E-1,3E0,5.043465E-1,1.9998535E0,-1.04759345E-2,1.4370702E-2,-1.581046E-2,-1.3175654E-2,-1.7482888E-2,3.675397E-3,1.5436615E-2,9.590657E-3],"split_indices":[0,9,2,9,15,2,2,0,0,0,0,0,0,0,0],"split_type":[0,0,0,0,0,0,0,0,0,0,0,0,0,0,0],"sum_hessian":[7.7963165E2,3.423848E2,4.372469E2,1.14399284E2,2.279855E2,1.6313203E2,2.7411484E2,1.0771011E2,6.689171E0,1.8162582E2,4.6359695E1,1.8965845E1,1.4416618E2,1.7928957E2,9.482528E1],"tree_param":{"num_deleted":"0","num_feature":"16","num_nodes":"15","size_leaf_vector":"0"}},{"base_weights":[-8.3043605E-2,-1.3127588E0,8.795705E-1,-8.837291E-1,-1.5235958E0,1.1120703E-1,1.335952E0,-1.0389622E0,1.4284061E0,-1.5711755E0,-1.308073E0,5.186549E-1,-1.0548638E0,-3.5556704E-2,1.3879446E0],"categories":[],"categories_nodes":[],"categories_segments":[],"categories_sizes":[],"default_left":[true,true,true,true,true,true,true,false,false,false,false,false,false,false,false],"id":28,"left_children":[1,3,5,7,9,11,13,-1,-1,-1,-1,-1,-1,-1,-1],"loss_changes":[9.2311615E2,2.9623901E1,1.5325818E2,4.2830452E1,2.84729E-1,7.851673E1,1.9613739E1,0E0,0E0,0E0,0E0,0E0,0E0,0E0,0E0],"parents":[2147483647,0,0,1,1,2,2,3,3,4,4,5,5,6,6],"right_children":[2,4,6,8,10,12,14,-1,-1,-1,-1,-1,-1,-1,-1],"split_conditions":[1.001833E0,1.4108023E-1,1.5005088E0,1.4056484E-1,3E0,1.4981637E0,1.3894808E-1,-1.0389622E-2,1.4284061E-2,-1.5711755E-2,-1.308073E-2,5.186549E-3,-1.0548638E-2,-3.5556703E-4,1.3879445E-2],"split_indices":[0,9,2,9,15,2,9,0,0,0,0,0,0,0,0],"split_type":[0,0,0,0,0,0,0,0,0,0,0,0,0,0,0],"sum_hessian":[7.77854E2,3.413826E2,4.3647137E2,1.1419671E2,2.2718588E2,1.631075E2,2.733639E2,1.0752809E2,6.668617E0,1.8094887E2,4.6237022E1,1.2128379E2,4.1823708E1,9.99599E0,2.633679E2],"tree_param":{"num_deleted":"0","num_feature":"16","num_nodes":"15","size_leaf_vector":"0"}},{"base_weights":[-8.2434885E-2,-1.3036212E0,8.724981E-1,-8.764393E-1,-1.5139307E0,1.10099286E-1,1.3264943E0,-1.0304421E0,1.4198954E0,-1.5615124E0,-1.2987305E0,3.8267896E-1,-1.6143675E0,1.5243436E0,9.408905E-1],"categories":[],"categories_nodes":[],"categories_segments":[],"categories_sizes":[],"default_left":[true,true,true,true,true,true,true,false,false,false,false,false,false,false,false],"id":29,"left_children":[1,3,5,7,9,11,13,-1,-1,-1,-1,-1,-1,-1,-1],"loss_changes":[9.072158E2,2.9340942E1,1.5098056E2,4.2128357E1,3.0023193E-1,7.773101E1,1.943689E1,0E0,0E0,0E0,0E0,0E0,0E0,0E0,0E0],"parents":[2147483647,0,0,1,1,2,2,3,3,4,4,5,5,6,6],"right_children":[2,4,6,8,10,12,14,-1,-1,-1,-1,-1,-1,-1,-1],"split_conditions":[1.001833E0,1.4108023E-1,1.5005088E0,1.4056484E-1,3E0,1.4794058E-1,1.9998535E0,-1.0304421E-2,1.4198954E-2,-1.5615123E-2,-1.29873045E-2,3.8267896E-3,-1.6143674E-2,1.5243436E-2,9.408904E-3],"split_indices":[0,9,2,9,15,9,2,0,0,0,0,0,0,0,0],"split_type":[0,0,0,0,0,0,0,0,0,0,0,0,0,0,0],"sum_hessian":[7.7598206E2,3.4035916E2,4.3562286E2,1.1398982E2,2.2636935E2,1.6305165E2,2.725712E2,1.0734222E2,6.6476007E0,1.802576E2,4.6111763E1,1.4146838E2,2.1583261E1,1.7819043E2,9.438077E1],"tree_param":{"num_deleted":"0","num_feature":"16","num_nodes":"15","size_leaf_vector":"0"}},{"base_weights":[-8.182592E-2,-1.294637E0,8.6545235E-1,-8.692434E-1,-1.5044551E0,1.0895147E-1,1.3171076E0,-1.0220301E0,1.4115341E0,-1.5520505E0,-1.289533E0,-1.7369406E0,3.621058E-1,-4.684673E-2,1.3691515E0],"categories":[],"categories_nodes":[],"categories_segments":[],"categories_sizes":[],"default_left":[true,true,true,true,true,true,true,false,false,false,false,false,false,false,false],"id":30,"left_children":[1,3,5,7,9,11,13,-1,-1,-1,-1,-1,-1,-1,-1],"loss_changes":[8.916222E2,2.90672E1,1.4875821E2,4.1439873E1,3.1591797E-1,7.726892E1,1.9428162E1,0E0,0E0,0E0,0E0,0E0,0E0,0E0,0E0],"parents":[2147483647,0,0,1,1,2,2,3,3,4,4,5,5,6,6],"right_children":[2,4,6,8,10,12,14,-1,-1,-1,-1,-1,-1,-1,-1],"split_conditions":[1.001833E0,1.4108023E-1,1.5005088E0,1.4056484E-1,3E0,5.043465E-1,1.3894808E-1,-1.0220301E-2,1.411534E-2,-1.5520505E-2,-1.289533E-2,-1.7369406E-2,3.6210578E-3,-4.6846727E-4,1.3691515E-2],"split_indices":[0,9,2,9,15,2,9,0,0,0,0,0,0,0,0],"split_type":[0,0,0,0,0,0,0,0,0,0,0,0,0,0,0],"sum_hessian":[7.741113E2,3.3931537E2,4.3479596E2,1.1377877E2,2.2553659E2,1.6300748E2,2.7178848E2,1.0715263E2,6.626139E0,1.7955257E2,4.5984016E1,1.895254E1,1.4405495E2,9.993034E0,2.6179544E2],"tree_param":{"num_deleted":"0","num_feature":"16","num_nodes":"15","size_leaf_vector":"0"}},{"base_weights":[-8.12428E-2,-1.2858016E0,8.5848564E-1,-8.621395E-1,-1.4951634E0,1.07796066E-1,1.307952E0,-1.0137237E0,1.4033179E0,-1.5427836E0,-1.2804768E0,5.1186985E-1,-1.0484103E0,1.5057564E0,9.231563E-1],"categories":[],"categories_nodes":[],"categories_segments":[],"categories_sizes":[],"default_left":[true,true,true,true,true,true,true,false,false,false,false,false,false,false,false],"id":31,"left_children":[1,3,5,7,9,11,13,-1,-1,-1,-1,-1,-1,-1,-1],"loss_changes":[8.7633044E2,2.8802185E1,1.4661371E2,4.076464E1,3.3181763E-1,7.714673E1,1.9310394E1,0E0,0E0,0E0,0E0,0E0,0E0,0E0,0E0],"parents":[2147483647,0,0,1,1,2,2,3,3,4,4,5,5,6,6],"right_children":[2,4,6,8,10,12,14,-1,-1,-1,-1,-1,-1,-1,-1],"split_conditions":[1.001833E0,1.4108023E-1,1.5005088E0,1.4056484E-1,3E0,1.4981637E0,1.9998535E0,-1.0137237E-2,1.4033179E-2,-1.5427836E-2,-1.2804768E-2,5.1186983E-3,-1.0484103E-2,1.5057564E-2,9.231563E-3],"split_indices":[0,9,2,9,15,2,2,0,0,0,0,0,0,0,0],"split_type":[0,0,0,0,0,0,0,0,0,0,0,0,0,0,0],"sum_hessian":[7.7219696E2,3.3825198E2,4.3394498E2,1.13563736E2,2.2468823E2,1.6297961E2,2.7096536E2,1.0695949E2,6.604248E0,1.7883437E2,4.5853874E1,1.21184906E2,4.179471E1,1.7704318E2,9.3922195E1],"tree_param":{"num_deleted":"0","num_feature":"16","num_nodes":"15","size_leaf_vector":"0"}},{"base_weights":[-8.064336E-2,-1.2771106E0,8.5166264E-1,-8.55125E-1,-1.48605E0,1.0672339E-1,1.2988604E0,-1.0055203E0,1.3952435E0,-1.533706E0,-1.2715575E0,-1.7260748E0,3.58115E-1,-5.7874408E-2,1.3509763E0],"categories":[],"categories_nodes":[],"categories_segments":[],"categories_sizes":[],"default_left":[true,true,true,true,true,true,true,false,false,false,false,false,false,false,false],"id":32,"left_children":[1,3,5,7,9,11,13,-1,-1,-1,-1,-1,-1,-1,-1],"loss_changes":[8.613897E2,2.8545471E1,1.4446667E2,4.0102386E1,3.4796143E-1,7.614455E1,1.9250763E1,0E0,0E0,0E0,0E0,0E0,0E0,0E0,0E0],"parents":[2147483647,0,0,1,1,2,2,3,3,4,4,5,5,6,6],"right_children":[2,4,6,8,10,12,14,-1,-1,-1,-1,-1,-1,-1,-1],"split_conditions":[1.001833E0,1.4108023E-1,1.5005088E0,1.4056484E-1,3E0,5.043465E-1,1.3894808E-1,-1.0055203E-2,1.3952435E-2,-1.5337059E-2,-1.2715574E-2,-1.7260747E-2,3.5811497E-3,-5.7874405E-4,1.3509763E-2],"split_indices":[0,9,2,9,15,2,9,0,0,0,0,0,0,0,0],"split_type":[0,0,0,0,0,0,0,0,0,0,0,0,0,0,0],"sum_hessian":[7.702437E2,3.371698E2,4.3307394E2,1.1334488E2,2.2382492E2,1.6292056E2,2.7015338E2,1.0676293E2,6.581943E0,1.7810349E2,4.5721443E1,1.8943659E1,1.439769E2,9.989366E0,2.60164E2],"tree_param":{"num_deleted":"0","num_feature":"16","num_nodes":"15","size_leaf_vector":"0"}},{"base_weights":[-8.007731E-2,-1.2685599E0,8.448734E-1,-8.4819794E-1,-1.4771097E0,1.05591804E-1,1.2899896E0,-9.9741745E-1,1.3873063E0,-1.5248121E0,-1.2627712E0,5.067705E-1,-1.0421101E0,1.4878579E0,9.0583956E-1],"categories":[],"categories_nodes":[],"categories_segments":[],"categories_sizes":[],"default_left":[true,true,true,true,true,true,true,false,false,false,false,false,false,false,false],"id":33,"left_children":[1,3,5,7,9,11,13,-1,-1,-1,-1,-1,-1,-1,-1],"loss_changes":[8.4671185E2,2.8296814E1,1.4241269E2,3.9452744E1,3.642273E-1,7.5988525E1,1.9198212E1,0E0,0E0,0E0,0E0,0E0,0E0,0E0,0E0],"parents":[2147483647,0,0,1,1,2,2,3,3,4,4,5,5,6,6],"right_children":[2,4,6,8,10,12,14,-1,-1,-1,-1,-1,-1,-1,-1],"split_conditions":[1.001833E0,1.4108023E-1,1.5005088E0,1.4056484E-1,3E0,1.4981637E0,1.9998535E0,-9.974174E-3,1.3873063E-2,-1.5248121E-2,-1.2627712E-2,5.0677047E-3,-1.0421101E-2,1.4878579E-2,9.058395E-3],"split_indices":[0,9,2,9,15,2,2,0,0,0,0,0,0,0,0],"split_type":[0,0,0,0,0,0,0,0,0,0,0,0,0,0,0],"sum_hessian":[7.682617E2,3.3606955E2,4.3219217E2,1.1312232E2,2.2294724E2,1.6288991E2,2.6930225E2,1.0656309E2,6.5592384E0,1.7736044E2,4.5586796E1,1.2111326E2,4.177664E1,1.7585143E2,9.345083E1],"tree_param":{"num_deleted":"0","num_feature":"16","num_nodes":"15","size_leaf_vector":"0"}},{"base_weights":[-7.949452E-2,-1.2601453E0,8.382233E-1,-8.4135586E-1,-1.4683372E0,1.04542166E-1,1.2811759E0,-9.894125E-1,1.379503E0,-1.5160964E0,-1.2541145E0,3.735142E-1,-1.5987848E0,-6.8647824E-2,1.3333833E0],"categories":[],"categories_nodes":[],"categories_segments":[],"categories_sizes":[],"default_left":[true,true,true,true,true,true,true,false,false,false,false,false,false,false,false],"id":34,"left_children":[1,3,5,7,9,11,13,-1,-1,-1,-1,-1,-1,-1,-1],"loss_changes":[8.32368E2,2.8055786E1,1.4035474E2,3.8815437E1,3.807373E-1,7.565463E1,1.908081E1,0E0,0E0,0E0,0E0,0E0,0E0,0E0,0E0],"parents":[2147483647,0,0,1,1,2,2,3,3,4,4,5,5,6,6],"right_children":[2,4,6,8,10,12,14,-1,-1,-1,-1,-1,-1,-1,-1],"split_conditions":[1.001833E0,1.4108023E-1,1.5005088E0,1.4056484E-1,3E0,1.4794058E-1,1.3894808E-1,-9.894124E-3,1.3795029E-2,-1.5160963E-2,-1.2541145E-2,3.735142E-3,-1.5987847E-2,-6.864782E-4,1.3333833E-2],"split_indices":[0,9,2,9,15,9,9,0,0,0,0,0,0,0,0],"split_type":[0,0,0,0,0,0,0,0,0,0,0,0,0,0,0],"sum_hessian":[7.662436E2,3.349521E2,4.312915E2,1.1289625E2,2.2205583E2,1.6282823E2,2.6846326E2,1.063601E2,6.5361505E0,1.766058E2,4.545004E1,1.4129678E2,2.1531433E1,9.985034E0,2.5847824E2],"tree_param":{"num_deleted":"0","num_feature":"16","num_nodes":"15","size_leaf_vector":"0"}},{"base_weights":[-7.894445E-2,-1.2518629E0,8.316367E-1,-8.345968E-1,-1.4597278E0,1.0345195E-1,1.2725738E0,-9.815031E-1,1.3718302E0,-1.5075539E0,-1.2455834E0,-1.7151059E0,3.5290936E-1,1.4706093E0,8.8891786E-1],"categories":[],"categories_nodes":[],"categories_segments":[],"categories_sizes":[],"default_left":[true,true,true,true,true,true,true,false,false,false,false,false,false,false,false],"id":35,"left_children":[1,3,5,7,9,11,13,-1,-1,-1,-1,-1,-1,-1,-1],"loss_changes":[8.1828564E2,2.7822144E1,1.3837271E2,3.8190186E1,3.9743042E-1,7.4904045E1,1.9099304E1,0E0,0E0,0E0,0E0,0E0,0E0,0E0,0E0],"parents":[2147483647,0,0,1,1,2,2,3,3,4,4,5,5,6,6],"right_children":[2,4,6,8,10,12,14,-1,-1,-1,-1,-1,-1,-1,-1],"split_conditions":[1.001833E0,1.4108023E-1,1.5005088E0,1.4056484E-1,3E0,5.043465E-1,1.9998535E0,-9.815031E-3,1.3718302E-2,-1.5075539E-2,-1.2455834E-2,-1.7151058E-2,3.5290935E-3,1.4706093E-2,8.889179E-3],"split_indices":[0,9,2,9,15,2,2,0,0,0,0,0,0,0,0],"split_type":[0,0,0,0,0,0,0,0,0,0,0,0,0,0,0],"sum_hessian":[7.641834E2,3.3381802E2,4.3036536E2,1.126668E2,2.2115123E2,1.6277895E2,2.6758643E2,1.06154106E2,6.5126925E0,1.7583997E2,4.5311268E1,1.892673E1,1.4385222E2,1.7461862E2,9.29678E1],"tree_param":{"num_deleted":"0","num_feature":"16","num_nodes":"15","size_leaf_vector":"0"}},{"base_weights":[-7.838516E-2,-1.2437088E0,8.2507324E-1,-8.2791907E-1,-1.4512765E0,1.0235471E-1,1.2640221E0,-9.7368735E-1,1.3642842E0,-1.4991792E0,-1.2371746E0,5.0025874E-1,-1.0357358E0,-7.917529E-2,1.3163395E0],"categories":[],"categories_nodes":[],"categories_segments":[],"categories_sizes":[],"default_left":[true,true,true,true,true,true,true,false,false,false,false,false,false,false,false],"id":36,"left_children":[1,3,5,7,9,11,13,-1,-1,-1,-1,-1,-1,-1,-1],"loss_changes":[8.044721E2,2.759552E1,1.3643076E2,3.7576675E1,4.142456E-1,7.4670265E1,1.8917755E1,0E0,0E0,0E0,0E0,0E0,0E0,0E0,0E0],"parents":[2147483647,0,0,1,1,2,2,3,3,4,4,5,5,6,6],"right_children":[2,4,6,8,10,12,14,-1,-1,-1,-1,-1,-1,-1,-1],"split_conditions":[1.001833E0,1.4108023E-1,1.5005088E0,1.4056484E-1,3E0,1.4981637E0,1.3894808E-1,-9.736873E-3,1.3642841E-2,-1.4991792E-2,-1.2371746E-2,5.002587E-3,-1.03573585E-2,-7.9175294E-4,1.3163394E-2],"split_indices":[0,9,2,9,15,2,9,0,0,0,0,0,0,0,0],"split_type":[0,0,0,0,0,0,0,0,0,0,0,0,0,0,0],"sum_hessian":[7.62136E2,3.3266815E2,4.2946783E2,1.12434105E2,2.2023405E2,1.6274516E2,2.667227E2,1.0594523E2,6.4888783E0,1.750635E2,4.517055E1,1.2100079E2,4.174437E1,9.980087E0,2.5674258E2],"tree_param":{"num_deleted":"0","num_feature":"16","num_nodes":"15","size_leaf_vector":"0"}},{"base_weights":[-7.784246E-2,-1.2356793E0,8.186878E-1,-8.2132024E-1,-1.4429787E0,1.0133803E-1,1.2556734E0,-9.6596265E-1,1.3568616E0,-1.4909676E0,-1.2288846E0,3.6726528E-1,-1.5846214E0,1.4539738E0,8.723704E-1],"categories":[],"categories_nodes":[],"categories_segments":[],"categories_sizes":[],"default_left":[true,true,true,true,true,true,true,false,false,false,false,false,false,false,false],"id":37,"left_children":[1,3,5,7,9,11,13,-1,-1,-1,-1,-1,-1,-1,-1],"loss_changes":[7.9096295E2,2.7375671E1,1.3450964E2,3.6974648E1,4.3121338E-1,7.39669E1,1.9012543E1,0E0,0E0,0E0,0E0,0E0,0E0,0E0,0E0],"parents":[2147483647,0,0,1,1,2,2,3,3,4,4,5,5,6,6],"right_children":[2,4,6,8,10,12,14,-1,-1,-1,-1,-1,-1,-1,-1],"split_conditions":[1.001833E0,1.4108023E-1,1.5005088E0,1.4056484E-1,3E0,1.4794058E-1,1.9998535E0,-9.6596265E-3,1.3568616E-2,-1.4909676E-2,-1.2288845E-2,3.6726526E-3,-1.5846213E-2,1.4539737E-2,8.723704E-3],"split_indices":[0,9,2,9,15,9,2,0,0,0,0,0,0,0,0],"split_type":[0,0,0,0,0,0,0,0,0,0,0,0,0,0,0],"sum_hessian":[7.6000586E2,3.3150314E2,4.2850275E2,1.1219832E2,2.1930481E2,1.626805E2,2.6582224E2,1.057336E2,6.464722E0,1.7427682E2,4.502798E1,1.4119232E2,2.1488174E1,1.7334802E2,9.247422E1],"tree_param":{"num_deleted":"0","num_feature":"16","num_nodes":"15","size_leaf_vector":"0"}},{"base_weights":[-7.729803E-2,-1.227771E0,8.123169E-1,-8.147987E-1,-1.4348304E0,1.00281626E-1,1.2473694E0,-9.5832705E-1,1.3495594E0,-1.4829149E0,-1.22071E0,-1.704349E0,3.478346E-1,1.4452282E0,8.656093E-1],"categories":[],"categories_nodes":[],"categories_segments":[],"categories_sizes":[],"default_left":[true,true,true,true,true,true,true,false,false,false,false,false,false,false,false],"id":38,"left_children":[1,3,5,7,9,11,13,-1,-1,-1,-1,-1,-1,-1,-1],"loss_changes":[7.777012E2,2.7162354E1,1.3263208E2,3.6383842E1,4.4830322E-1,7.369195E1,1.8836365E1,0E0,0E0,0E0,0E0,0E0,0E0,0E0,0E0],"parents":[2147483647,0,0,1,1,2,2,3,3,4,4,5,5,6,6],"right_children":[2,4,6,8,10,12,14,-1,-1,-1,-1,-1,-1,-1,-1],"split_conditions":[1.001833E0,1.4108023E-1,1.5005088E0,1.4056484E-1,3E0,5.043465E-1,1.9998535E0,-9.58327E-3,1.3495594E-2,-1.4829149E-2,-1.22071E-2,-1.704349E-2,3.4783457E-3,1.4452281E-2,8.656093E-3],"split_indices":[0,9,2,9,15,2,2,0,0,0,0,0,0,0,0],"split_type":[0,0,0,0,0,0,0,0,0,0,0,0,0,0,0],"sum_hessian":[7.578868E2,3.303236E2,4.2756314E2,1.1195957E2,2.1836404E2,1.6262726E2,2.6493588E2,1.0551933E2,6.4402385E0,1.7348041E2,4.488363E1,1.8907698E1,1.4371956E2,1.7266254E2,9.227335E1],"tree_param":{"num_deleted":"0","num_feature":"16","num_nodes":"15","size_leaf_vector":"0"}},{"base_weights":[-7.6760665E-2,-1.2199804E0,8.059863E-1,-8.083526E-1,-1.4268271E0,9.921746E-2,1.239186E0,-9.507784E-1,1.3423744E0,-1.475016E0,-1.2126479E0,4.9390322E-1,-1.0294142E0,-1.0041412E-1,1.2919306E0],"categories":[],"categories_nodes":[],"categories_segments":[],"categories_sizes":[],"default_left":[true,true,true,true,true,true,true,false,false,false,false,false,false,false,false],"id":39,"left_children":[1,3,5,7,9,11,13,-1,-1,-1,-1,-1,-1,-1,-1],"loss_changes":[7.646848E2,2.695517E1,1.3080511E2,3.5803978E1,4.6557617E-1,7.3380585E1,1.8856415E1,0E0,0E0,0E0,0E0,0E0,0E0,0E0,0E0],"parents":[2147483647,0,0,1,1,2,2,3,3,4,4,5,5,6,6],"right_children":[2,4,6,8,10,12,14,-1,-1,-1,-1,-1,-1,-1,-1],"split_conditions":[1.001833E0,1.4108023E-1,1.5005088E0,1.4056484E-1,3E0,1.4981637E0,1.3894808E-1,-9.507784E-3,1.3423745E-2,-1.4750159E-2,-1.2126479E-2,4.9390323E-3,-1.0294141E-2,-1.0041412E-3,1.2919305E-2],"split_indices":[0,9,2,9,15,2,9,0,0,0,0,0,0,0,0],"split_type":[0,0,0,0,0,0,0,0,0,0,0,0,0,0,0],"sum_hessian":[7.557593E2,3.291303E2,4.26629E2,1.11717995E2,2.1741231E2,1.6259044E2,2.6403854E2,1.0530256E2,6.415438E0,1.7267471E2,4.4737595E1,1.2088055E2,4.1709892E1,9.968001E0,2.5407054E2],"tree_param":{"num_deleted":"0","num_feature":"16","num_nodes":"15","size_leaf_vector":"0"}},{"base_weights":[-7.623934E-2,-1.2123039E0,7.998246E-1,-8.0198E-1,-1.4189645E0,9.82327E-2,1.2311898E0,-1.3734556E0,-2.4215508E-1,-1.4672669E0,-1.2046952E0,1.7575871E0,-1.696886E-1,1.4294649E0,8.495686E-1],"categories":[],"categories_nodes":[],"categories_segments":[],"categories_sizes":[],"default_left":[true,true,true,true,true,true,true,false,false,false,false,false,false,false,false],"id":40,"left_children":[1,3,5,7,9,11,13,-1,-1,-1,-1,-1,-1,-1,-1],"loss_changes":[7.519505E2,2.6754028E1,1.289953E2,3.565071E1,4.8291016E-1,7.299666E1,1.876947E1,0E0,0E0,0E0,0E0,0E0,0E0,0E0,0E0],"parents":[2147483647,0,0,1,1,2,2,3,3,4,4,5,5,6,6],"right_children":[2,4,6,8,10,12,14,-1,-1,-1,-1,-1,-1,-1,-1],"split_conditions":[1.001833E0,1.4108023E-1,1.5005088E0,1.0006769E0,3E0,1.996079E0,1.9998535E0,-1.3734556E-2,-2.4215507E-3,-1.4672669E-2,-1.2046952E-2,1.7575871E-2,-1.6968859E-3,1.42946495E-2,8.495686E-3],"split_indices":[0,9,2,1,15,0,2,0,0,0,0,0,0,0,0],"split_type":[0,0,0,0,0,0,0,0,0,0,0,0,0,0,0],"sum_hessian":[7.535536E2,3.279238E2,4.2562976E2,1.1147372E2,2.1645009E2,1.625229E2,2.6310684E2,5.4443653E1,5.7030067E1,1.7186015E2,4.4589943E1,2.1820272E1,1.4070262E2,1.713398E2,9.176705E1],"tree_param":{"num_deleted":"0","num_feature":"16","num_nodes":"15","size_leaf_vector":"0"}},{"base_weights":[-7.569679E-2,-1.2045934E0,7.9369676E-1,-5.5981123E-1,-1.3340653E0,-1.6925231E0,9.1332626E-1,-1.458027E0,2.386318E0,-4.804892E-1,-1.366696E0,1.0578518E0,-7.4263227E-1],"categories":[],"categories_nodes":[],"categories_segments":[],"categories_sizes":[],"default_left":[true,true,true,true,true,false,true,false,false,false,false,false,false],"id":41,"left_children":[1,3,5,7,9,-1,11,-1,-1,-1,-1,-1,-1],"loss_changes":[7.394446E2,2.6615051E1,1.2815405E2,1.5307697E2,6.925659E0,0E0,9.814157E1,0E0,0E0,0E0,0E0,0E0,0E0],"parents":[2147483647,0,0,1,1,2,2,3,3,4,4,6,6],"right_children":[2,4,6,8,10,-1,12,-1,-1,-1,-1,-1,-1],"split_conditions":[1.001833E0,1.4053947E-1,5.043465E-1,1.3893522E-1,6.5E0,-1.692523E-2,1.4807878E-1,-1.4580269E-2,2.386318E-2,-4.804892E-3,-1.36669595E-2,1.0578518E-2,-7.4263224E-3],"split_indices":[0,9,2,9,3,0,9,0,0,0,0,0,0],"split_type":[0,0,0,0,0,0,0,0,0,0,0,0,0],"sum_hessian":[7.514422E2,3.2676126E2,4.2468097E2,5.5531734E1,2.7122952E2,1.8892675E1,4.057883E2,4.2944057E1,1.2587678E1,1.0565844E1,2.6066367E2,3.735477E2,3.22406E1],"tree_param":{"num_deleted":"0","num_feature":"16","num_nodes":"13","size_leaf_vector":"0"}},{"base_weights":[-7.517192E-2,-1.1967278E0,7.872646E-1,-7.8758067E-1,-1.4039416E0,9.196975E-2,1.2170691E0,-9.2980015E-1,1.3437872E0,-1.4528155E0,-1.1880114E0,4.8294643E-1,-1.0250313E0,-1.19995356E-1,1.270254E0],"categories":[],"categories_nodes":[],"categories_segments":[],"categories_sizes":[],"default_left":[true,true,true,true,true,true,true,false,false,false,false,false,false,false,false],"id":42,"left_children":[1,3,5,7,9,11,13,-1,-1,-1,-1,-1,-1,-1,-1],"loss_changes":[7.2686597E2,2.6586395E1,1.268522E2,3.5225716E1,5.487671E-1,7.1847755E1,1.881726E1,0E0,0E0,0E0,0E0,0E0,0E0,0E0,0E0],"parents":[2147483647,0,0,1,1,2,2,3,3,4,4,5,5,6,6],"right_children":[2,4,6,8,10,12,14,-1,-1,-1,-1,-1,-1,-1,-1],"split_conditions":[1.001833E0,1.4108023E-1,1.5005088E0,1.4056484E-1,3E0,1.4981637E0,1.3894808E-1,-9.298001E-3,1.3437872E-2,-1.4528155E-2,-1.1880114E-2,4.829464E-3,-1.0250313E-2,-1.1999535E-3,1.270254E-2],"split_indices":[0,9,2,9,15,2,9,0,0,0,0,0,0,0,0],"split_type":[0,0,0,0,0,0,0,0,0,0,0,0,0,0,0],"sum_hessian":[7.494867E2,3.256315E2,4.2385522E2,1.1108775E2,2.1454375E2,1.623827E2,2.614725E2,1.0466738E2,6.42037E0,1.7027522E2,4.426852E1,1.2070186E2,4.168085E1,9.9547415E0,2.5151776E2],"tree_param":{"num_deleted":"0","num_feature":"16","num_nodes":"15","size_leaf_vector":"0"}},{"base_weights":[-7.4669875E-2,-1.1893703E0,7.813106E-1,-7.814215E-1,-1.3964726E0,-1.6822765E0,9.0031314E-1,-1.3498203E0,-2.2727586E-1,-1.44548E0,-1.1803832E0,1.0440344E0,-7.408062E-1],"categories":[],"categories_nodes":[],"categories_segments":[],"categories_sizes":[],"default_left":[true,true,true,true,true,false,true,false,false,false,false,false,false],"id":43,"left_children":[1,3,5,7,9,-1,11,-1,-1,-1,-1,-1,-1],"loss_changes":[7.148505E2,2.6400116E1,1.2576938E2,3.4919266E1,5.6588745E-1,0E0,9.6286255E1,0E0,0E0,0E0,0E0,0E0,0E0],"parents":[2147483647,0,0,1,1,2,2,3,3,4,4,6,6],"right_children":[2,4,6,8,10,-1,12,-1,-1,-1,-1,-1,-1],"split_conditions":[1.001833E0,1.4108023E-1,5.043465E-1,1.0006769E0,3E0,-1.6822765E-2,1.4807878E-1,-1.3498202E-2,-2.2727586E-3,-1.44548E-2,-1.1803832E-2,1.0440343E-2,-7.408062E-3],"split_indices":[0,9,2,1,15,0,9,0,0,0,0,0,0],"split_type":[0,0,0,0,0,0,0,0,0,0,0,0,0],"sum_hessian":[7.4721826E2,3.2439087E2,4.228274E2,1.1083735E2,2.1355351E2,1.8878052E1,4.0394934E2,5.40062E1,5.683115E1,1.6943723E2,4.411628E1,3.7175656E2,3.219279E1],"tree_param":{"num_deleted":"0","num_feature":"16","num_nodes":"13","size_leaf_vector":"0"}},{"base_weights":[-7.420563E-2,-1.1819772E0,7.7502143E-1,-5.4014385E-1,-1.3117697E0,8.575163E-2,1.2033794E0,-1.4368522E0,2.3719532E0,-1.474707E0,-1.1159507E0,1.7244107E0,-1.781018E-1,-1.284629E-1,1.2567136E0],"categories":[],"categories_nodes":[],"categories_segments":[],"categories_sizes":[],"default_left":[true,true,true,true,true,true,true,false,false,false,false,false,false,false,false],"id":44,"left_children":[1,3,5,7,9,11,13,-1,-1,-1,-1,-1,-1,-1,-1],"loss_changes":[7.028809E2,2.6298523E1,1.2478392E2,1.5024591E2,6.9358826E0,7.0866936E1,1.8685883E1,0E0,0E0,0E0,0E0,0E0,0E0,0E0,0E0],"parents":[2147483647,0,0,1,1,2,2,3,3,4,4,5,5,6,6],"right_children":[2,4,6,8,10,12,14,-1,-1,-1,-1,-1,-1,-1,-1],"split_conditions":[1.001833E0,1.4053947E-1,1.5005088E0,1.3893522E-1,1.0061753E0,1.996079E0,1.3894808E-1,-1.4368522E-2,2.3719532E-2,-1.474707E-2,-1.1159507E-2,1.7244106E-2,-1.7810179E-3,-1.2846289E-3,1.2567136E-2],"split_indices":[0,9,2,9,1,0,9,0,0,0,0,0,0,0,0],"split_type":[0,0,0,0,0,0,0,0,0,0,0,0,0,0,0],"sum_hessian":[7.451761E2,3.231944E2,4.219817E2,5.523163E1,2.6796277E2,1.6219472E2,2.59787E2,4.2615753E1,1.2615876E1,1.426966E2,1.2526616E2,2.1726572E1,1.4046814E2,9.948488E0,2.498385E2],"tree_param":{"num_deleted":"0","num_feature":"16","num_nodes":"15","size_leaf_vector":"0"}},{"base_weights":[-7.366882E-2,-1.1744837E0,7.6918435E-1,-7.674829E-1,-1.3822562E0,8.501062E-2,1.1958663E0,-9.0937895E-1,1.3437841E0,-1.4317709E0,-1.1648037E0,4.7237355E-1,-1.0205579E0,1.3959384E0,8.128712E-1],"categories":[],"categories_nodes":[],"categories_segments":[],"categories_sizes":[],"default_left":[true,true,true,true,true,true,true,false,false,false,false,false,false,false,false],"id":45,"left_children":[1,3,5,7,9,11,13,-1,-1,-1,-1,-1,-1,-1,-1],"loss_changes":[6.912006E2,2.6255035E1,1.23082596E2,3.460093E1,6.213989E-1,7.035516E1,1.8774078E1,0E0,0E0,0E0,0E0,0E0,0E0,0E0,0E0],"parents":[2147483647,0,0,1,1,2,2,3,3,4,4,5,5,6,6],"right_children":[2,4,6,8,10,12,14,-1,-1,-1,-1,-1,-1,-1,-1],"split_conditions":[1.001833E0,1.4108023E-1,1.5005088E0,1.4056484E-1,3E0,1.4981637E0,1.9998535E0,-9.093789E-3,1.3437841E-2,-1.4317709E-2,-1.16480375E-2,4.723735E-3,-1.0205579E-2,1.3959384E-2,8.128712E-3],"split_indices":[0,9,2,9,15,2,2,0,0,0,0,0,0,0,0],"split_type":[0,0,0,0,0,0,0,0,0,0,0,0,0,0,0],"sum_hessian":[7.429949E2,3.2202203E2,4.209728E2,1.1041887E2,2.1160316E2,1.6215717E2,2.5881564E2,1.0399851E2,6.4203596E0,1.6780823E2,4.3794945E1,1.2050724E2,4.1649925E1,1.6826909E2,9.054656E1],"tree_param":{"num_deleted":"0","num_feature":"16","num_nodes":"15","size_leaf_vector":"0"}},{"base_weights":[-7.3167615E-2,-1.16742E0,7.6340735E-1,-7.6152486E-1,-1.375149E0,-1.6706514E0,8.8173085E-1,-1.3265375E0,-2.1363989E-1,-1.4248176E0,-1.1574689E0,1.0247527E0,-7.4342597E-1],"categories":[],"categories_nodes":[],"categories_segments":[],"categories_sizes":[],"default_left":[true,true,true,true,true,false,true,false,false,false,false,false,false],"id":46,"left_children":[1,3,5,7,9,-1,11,-1,-1,-1,-1,-1,-1],"loss_changes":[6.7985767E2,2.6081696E1,1.2270761E2,3.412848E1,6.3845825E-1,0E0,9.421945E1,0E0,0E0,0E0,0E0,0E0,0E0],"parents":[2147483647,0,0,1,1,2,2,3,3,4,4,6,6],"right_children":[2,4,6,8,10,-1,12,-1,-1,-1,-1,-1,-1],"split_conditions":[1.001833E0,1.4108023E-1,5.043465E-1,1.0006769E0,3E0,-1.6706513E-2,1.4807878E-1,-1.3265375E-2,-2.1363988E-3,-1.4248176E-2,-1.1574689E-2,1.0247527E-2,-7.4342596E-3],"split_indices":[0,9,2,1,15,0,9,0,0,0,0,0,0],"split_type":[0,0,0,0,0,0,0,0,0,0,0,0,0],"sum_hessian":[7.40696E2,3.2075208E2,4.199439E2,1.1016314E2,2.1058894E2,1.8859604E1,4.0108432E2,5.353419E1,5.662895E1,1.6695007E2,4.3638866E1,3.6898157E2,3.210276E1],"tree_param":{"num_deleted":"0","num_feature":"16","num_nodes":"13","size_leaf_vector":"0"}},{"base_weights":[-7.2721116E-2,-1.1603199E0,7.573163E-1,-5.211044E-1,-1.2905262E0,7.899936E-2,1.1826248E0,-1.4166324E0,2.3574383E0,-4.3033636E-1,-1.3237653E0,4.635776E-1,-1.0176233E0,-1.4723136E-1,1.2364411E0],"categories":[],"categories_nodes":[],"categories_segments":[],"categories_sizes":[],"default_left":[true,true,true,true,true,true,true,false,false,false,false,false,false,false,false],"id":47,"left_children":[1,3,5,7,9,11,13,-1,-1,-1,-1,-1,-1,-1,-1],"loss_changes":[6.685509E2,2.6004883E1,1.2109526E2,1.4748773E2,7.0245667E0,6.919678E1,1.8654938E1,0E0,0E0,0E0,0E0,0E0,0E0,0E0,0E0],"parents":[2147483647,0,0,1,1,2,2,3,3,4,4,5,5,6,6],"right_children":[2,4,6,8,10,12,14,-1,-1,-1,-1,-1,-1,-1,-1],"split_conditions":[1.001833E0,1.4053947E-1,1.5005088E0,1.3893522E-1,6.5E0,1.4981637E0,1.3894808E-1,-1.41663235E-2,2.3574382E-2,-4.3033636E-3,-1.3237652E-2,4.635776E-3,-1.0176233E-2,-1.4723135E-3,1.2364411E-2],"split_indices":[0,9,2,9,3,2,9,0,0,0,0,0,0,0,0],"split_type":[0,0,0,0,0,0,0,0,0,0,0,0,0,0,0],"sum_hessian":[7.386E2,3.1952637E2,4.190736E2,5.4918697E1,2.6460767E2,1.6195702E2,2.571166E2,4.2274704E1,1.2643991E1,1.0363312E1,2.5424435E2,1.2033396E2,4.1623047E1,9.932744E0,2.4718385E2],"tree_param":{"num_deleted":"0","num_feature":"16","num_nodes":"15","size_leaf_vector":"0"}},{"base_weights":[-7.222306E-2,-1.1530845E0,7.516806E-1,-7.481054E-1,-1.3615535E0,-1.660656E0,8.6941785E-1,-8.8988614E-1,1.3448124E0,-1.4118567E0,-1.1419907E0,1.0116991E0,-7.414559E-1],"categories":[],"categories_nodes":[],"categories_segments":[],"categories_sizes":[],"default_left":[true,true,true,true,true,false,true,false,false,false,false,false,false],"id":48,"left_children":[1,3,5,7,9,-1,11,-1,-1,-1,-1,-1,-1],"loss_changes":[6.574809E2,2.5940796E1,1.2045064E2,3.40563E1,7.0251465E-1,0E0,9.246658E1,0E0,0E0,0E0,0E0,0E0,0E0],"parents":[2147483647,0,0,1,1,2,2,3,3,4,4,6,6],"right_children":[2,4,6,8,10,-1,12,-1,-1,-1,-1,-1,-1],"split_conditions":[1.001833E0,1.4108023E-1,5.043465E-1,1.4056484E-1,3E0,-1.660656E-2,1.4807878E-1,-8.898861E-3,1.3448124E-2,-1.4118566E-2,-1.1419906E-2,1.0116991E-2,-7.414559E-3],"split_indices":[0,9,2,9,15,0,9,0,0,0,0,0,0],"split_type":[0,0,0,0,0,0,0,0,0,0,0,0,0],"sum_hessian":[7.363332E2,3.1832715E2,4.1800607E2,1.0973695E2,2.085902E2,1.884212E1,3.9916394E2,1.0331302E2,6.4239326E0,1.6529079E2,4.3299408E1,3.6711066E2,3.2053295E1],"tree_param":{"num_deleted":"0","num_feature":"16","num_nodes":"13","size_leaf_vector":"0"}},{"base_weights":[-7.1765386E-2,-1.1462916E0,7.457185E-1,-5.090023E-1,-1.2767477E0,7.313317E-2,1.1697698E0,-1.4024106E0,2.3371243E0,-4.178667E-1,-1.3100972E0,1.6899221E0,-1.8631136E-1,1.3710237E0,7.864733E-1],"categories":[],"categories_nodes":[],"categories_segments":[],"categories_sizes":[],"default_left":[true,true,true,true,true,true,true,false,false,false,false,false,false,false,false],"id":49,"left_children":[1,3,5,7,9,11,13,-1,-1,-1,-1,-1,-1,-1,-1],"loss_changes":[6.4661816E2,2.5790833E1,1.19166626E2,1.4491765E2,6.9951477E0,6.85817E1,1.8698303E1,0E0,0E0,0E0,0E0,0E0,0E0,0E0,0E0],"parents":[2147483647,0,0,1,1,2,2,3,3,4,4,5,5,6,6],"right_children":[2,4,6,8,10,12,14,-1,-1,-1,-1,-1,-1,-1,-1],"split_conditions":[1.001833E0,1.4053947E-1,1.5005088E0,1.3893522E-1,6.5E0,1.996079E0,1.9998535E0,-1.4024106E-2,2.3371244E-2,-4.178667E-3,-1.31009715E-2,1.689922E-2,-1.8631136E-3,1.3710236E-2,7.864732E-3],"split_indices":[0,9,2,9,3,0,2,0,0,0,0,0,0,0,0],"split_type":[0,0,0,0,0,0,0,0,0,0,0,0,0,0,0],"sum_hessian":[7.3415216E2,3.1703253E2,4.1711963E2,5.470341E1,2.6232913E2,1.6174666E2,2.5537299E2,4.2020348E1,1.2683065E1,1.0310994E1,2.5201813E2,2.1603819E1,1.4014284E2,1.657613E2,8.961168E1],"tree_param":{"num_deleted":"0","num_feature":"16","num_nodes":"15","size_leaf_vector":"0"}},{"base_weights":[-7.122948E-2,-1.139253E0,7.4017334E-1,-7.351702E-1,-1.3483844E0,-1.6455643E0,8.569939E-1,-8.767955E-1,1.344628E0,-1.3993386E0,-1.1268827E0,9.985154E-1,-7.381367E-1],"categories":[],"categories_nodes":[],"categories_segments":[],"categories_sizes":[],"default_left":[true,true,true,true,true,false,true,false,false,false,false,false,false],"id":50,"left_children":[1,3,5,7,9,-1,11,-1,-1,-1,-1,-1,-1],"loss_changes":[6.359812E2,2.5781403E1,1.17656784E2,3.365185E1,7.658081E-1,0E0,9.064801E1,0E0,0E0,0E0,0E0,0E0,0E0],"parents":[2147483647,0,0,1,1,2,2,3,3,4,4,6,6],"right_children":[2,4,6,8,10,-1,12,-1,-1,-1,-1,-1,-1],"split_conditions":[1.001833E0,1.4108023E-1,5.043465E-1,1.4056484E-1,3E0,-1.6455643E-2,1.4807878E-1,-8.767954E-3,1.344628E-2,-1.3993386E-2,-1.1268826E-2,9.9851545E-3,-7.381367E-3],"split_indices":[0,9,2,9,15,0,9,0,0,0,0,0,0],"split_type":[0,0,0,0,0,0,0,0,0,0,0,0,0],"sum_hessian":[7.3191016E2,3.158124E2,4.1609778E2,1.09245026E2,2.0656737E2,1.881277E1,3.97285E2,1.0282173E2,6.423293E0,1.636125E2,4.295487E1,3.6525342E2,3.2031605E1],"tree_param":{"num_deleted":"0","num_feature":"16","num_nodes":"13","size_leaf_vector":"0"}},{"base_weights":[-7.0782766E-2,-1.1326293E0,7.343372E-1,-7.295226E-1,-1.3418182E0,6.751657E-2,1.1571573E0,-1.2923007E0,-1.8807738E-1,-1.3929543E0,-1.1199998E0,4.4955674E-1,-1.0191017E0,-1.747369E-1,1.2117846E0],"categories":[],"categories_nodes":[],"categories_segments":[],"categories_sizes":[],"default_left":[true,true,true,true,true,true,true,false,false,false,false,false,false,false,false],"id":51,"left_children":[1,3,5,7,9,11,13,-1,-1,-1,-1,-1,-1,-1,-1],"loss_changes":[6.2551654E2,2.5626099E1,1.17266174E2,3.327004E1,7.824402E-1,6.7942345E1,1.8738373E1,0E0,0E0,0E0,0E0,0E0,0E0,0E0,0E0],"parents":[2147483647,0,0,1,1,2,2,3,3,4,4,5,5,6,6],"right_children":[2,4,6,8,10,12,14,-1,-1,-1,-1,-1,-1,-1,-1],"split_conditions":[1.001833E0,1.4108023E-1,1.5005088E0,1.0006769E0,3E0,1.4981637E0,1.3894808E-1,-1.2923007E-2,-1.8807737E-3,-1.3929543E-2,-1.1199998E-2,4.495567E-3,-1.0191017E-2,-1.747369E-3,1.2117846E-2],"split_indices":[0,9,2,1,15,2,9,0,0,0,0,0,0,0,0],"split_type":[0,0,0,0,0,0,0,0,0,0,0,0,0,0,0],"sum_hessian":[7.2969916E2,3.1450366E2,4.1519547E2,1.0898229E2,2.0552138E2,1.615609E2,2.5363455E2,5.2758427E1,5.6223866E1,1.6272777E2,4.2793606E1,1.1996805E2,4.1592846E1,9.906264E0,2.4372829E2],"tree_param":{"num_deleted":"0","num_feature":"16","num_nodes":"15","size_leaf_vector":"0"}},{"base_weights":[-7.0352964E-2,-1.1259661E0,7.2892964E-1,-4.9094564E-1,-1.2569387E0,6.683842E-2,1.1502199E0,-1.3836608E0,2.3226194E0,-1.4227486E0,-1.0589643E0,1.6675196E0,-1.8922304E-1,1.3525627E0,7.664583E-1],"categories":[],"categories_nodes":[],"categories_segments":[],"categories_sizes":[],"default_left":[true,true,true,true,true,true,true,false,false,false,false,false,false,false,false],"id":52,"left_children":[1,3,5,7,9,11,13,-1,-1,-1,-1,-1,-1,-1,-1],"loss_changes":[6.153495E2,2.5518341E1,1.1570941E2,1.4228963E2,7.0238647E0,6.6912445E1,1.8657501E1,0E0,0E0,0E0,0E0,0E0,0E0,0E0,0E0],"parents":[2147483647,0,0,1,1,2,2,3,3,4,4,5,5,6,6],"right_children":[2,4,6,8,10,12,14,-1,-1,-1,-1,-1,-1,-1,-1],"split_conditions":[1.001833E0,1.4053947E-1,1.5005088E0,1.3893522E-1,1.0061753E0,1.996079E0,1.9998535E0,-1.3836607E-2,2.3226194E-2,-1.4227485E-2,-1.0589642E-2,1.6675195E-2,-1.8922304E-3,1.3525627E-2,7.6645827E-3],"split_indices":[0,9,2,9,1,0,2,0,0,0,0,0,0,0,0],"split_type":[0,0,0,0,0,0,0,0,0,0,0,0,0,0,0],"sum_hessian":[7.2734485E2,3.1323993E2,4.1410492E2,5.4370953E1,2.5886896E2,1.6148192E2,2.5262302E2,4.166067E1,1.2710283E1,1.3751192E2,1.21357056E2,2.1509624E1,1.3997229E2,1.637562E2,8.886681E1],"tree_param":{"num_deleted":"0","num_feature":"16","num_nodes":"15","size_leaf_vector":"0"}},{"base_weights":[-6.984468E-2,-1.1192399E0,7.2355735E-1,-7.16802E-1,-1.3293085E0,-1.634404E0,8.3977383E-1,-8.582103E-1,1.3441097E0,-1.3810337E0,-1.1058552E0,9.807109E-1,-7.402955E-1],"categories":[],"categories_nodes":[],"categories_segments":[],"categories_sizes":[],"default_left":[true,true,true,true,true,false,true,false,false,false,false,false,false],"id":53,"left_children":[1,3,5,7,9,-1,11,-1,-1,-1,-1,-1,-1],"loss_changes":[6.05316E2,2.550711E1,1.1484004E2,3.3069405E1,8.361206E-1,0E0,8.875E1,0E0,0E0,0E0,0E0,0E0,0E0],"parents":[2147483647,0,0,1,1,2,2,3,3,4,4,6,6],"right_children":[2,4,6,8,10,-1,12,-1,-1,-1,-1,-1,-1],"split_conditions":[1.001833E0,1.4108023E-1,5.043465E-1,1.4056484E-1,3E0,-1.6344039E-2,1.4807878E-1,-8.582103E-3,1.3441096E-2,-1.3810337E-2,-1.1058552E-2,9.807109E-3,-7.402955E-3],"split_indices":[0,9,2,9,15,0,9,0,0,0,0,0,0],"split_type":[0,0,0,0,0,0,0,0,0,0,0,0,0],"sum_hessian":[7.250529E2,3.1198907E2,4.1306384E2,1.0851469E2,2.0347438E2,1.8788715E1,3.9427512E2,1.0209319E2,6.4214926E0,1.6102074E2,4.245365E1,3.623353E2,3.1939825E1],"tree_param":{"num_deleted":"0","num_feature":"16","num_nodes":"13","size_leaf_vector":"0"}},{"base_weights":[-6.941285E-2,-1.1128538E0,7.17893E-1,-7.1132475E-1,-1.3230348E0,6.1409015E-2,1.1380451E0,-1.2714785E0,-1.7570192E-1,-1.3749602E0,-1.099209E0,4.4006732E-1,-1.0142612E0,-1.9239663E-1,1.1932013E0],"categories":[],"categories_nodes":[],"categories_segments":[],"categories_sizes":[],"default_left":[true,true,true,true,true,true,true,false,false,false,false,false,false,false,false],"id":54,"left_children":[1,3,5,7,9,11,13,-1,-1,-1,-1,-1,-1,-1,-1],"loss_changes":[5.9541113E2,2.5361267E1,1.1388481E2,3.2554623E1,8.527527E-1,6.654671E1,1.8711578E1,0E0,0E0,0E0,0E0,0E0,0E0,0E0,0E0],"parents":[2147483647,0,0,1,1,2,2,3,3,4,4,5,5,6,6],"right_children":[2,4,6,8,10,12,14,-1,-1,-1,-1,-1,-1,-1,-1],"split_conditions":[1.001833E0,1.4108023E-1,1.5005088E0,1.0006769E0,3E0,1.4981637E0,1.3894808E-1,-1.2714785E-2,-1.7570191E-3,-1.3749601E-2,-1.0992089E-2,4.4006733E-3,-1.0142612E-2,-1.9239662E-3,1.1932013E-2],"split_indices":[0,9,2,1,15,2,9,0,0,0,0,0,0,0,0],"split_type":[0,0,0,0,0,0,0,0,0,0,0,0,0,0,0],"sum_hessian":[7.228066E2,3.1066245E2,4.1214413E2,1.0824875E2,2.0241371E2,1.6128456E2,2.5085956E2,5.224117E1,5.600758E1,1.601236E2,4.229011E1,1.1972852E2,4.155604E1,9.886876E0,2.4097269E2],"tree_param":{"num_deleted":"0","num_feature":"16","num_nodes":"15","size_leaf_vector":"0"}},{"base_weights":[-6.8997785E-2,-1.1064283E0,7.126471E-1,-4.73425E-1,-1.2379944E0,-1.6248887E0,8.28324E-1,-1.3656994E0,2.3080285E0,-3.7020501E-1,-1.272088E0,9.6859366E-1,-7.381662E-1],"categories":[],"categories_nodes":[],"categories_segments":[],"categories_sizes":[],"default_left":[true,true,true,true,true,false,true,false,false,false,false,false,false],"id":55,"left_children":[1,3,5,7,9,-1,11,-1,-1,-1,-1,-1,-1],"loss_changes":[5.8578845E2,2.526297E1,1.12760574E2,1.3972446E2,7.1135254E0,0E0,8.7128876E1,0E0,0E0,0E0,0E0,0E0,0E0],"parents":[2147483647,0,0,1,1,2,2,3,3,4,4,6,6],"right_children":[2,4,6,8,10,-1,12,-1,-1,-1,-1,-1,-1],"split_conditions":[1.001833E0,1.4053947E-1,5.043465E-1,1.3893522E-1,6.5E0,-1.6248886E-2,1.4807878E-1,-1.3656993E-2,2.3080284E-2,-3.70205E-3,-1.272088E-2,9.685936E-3,-7.381662E-3],"split_indices":[0,9,2,9,3,0,9,0,0,0,0,0,0],"split_type":[0,0,0,0,0,0,0,0,0,0,0,0,0],"sum_hessian":[7.2041864E2,3.0938065E2,4.1103796E2,5.4029133E1,2.5535152E2,1.8766575E1,3.922714E2,4.1291916E1,1.2737215E1,1.0101255E1,2.4525027E2,3.6038297E2,3.1888409E1],"tree_param":{"num_deleted":"0","num_feature":"16","num_nodes":"13","size_leaf_vector":"0"}},{"base_weights":[-6.855233E-2,-1.0999022E0,7.07095E-1,-6.990423E-1,-1.3110199E0,5.5993717E-2,1.1261997E0,-8.4043294E-1,1.3446604E0,-1.3636546E0,-1.0850673E0,4.320405E-1,-1.0111151E0,1.4640807E0,8.904072E-1],"categories":[],"categories_nodes":[],"categories_segments":[],"categories_sizes":[],"default_left":[true,true,true,true,true,true,true,false,false,false,false,false,false,false,false],"id":56,"left_children":[1,3,5,7,9,11,13,-1,-1,-1,-1,-1,-1,-1,-1],"loss_changes":[5.7612885E2,2.524353E1,1.121196E2,3.256307E1,9.147949E-1,6.546327E1,1.8618652E1,0E0,0E0,0E0,0E0,0E0,0E0,0E0,0E0],"parents":[2147483647,0,0,1,1,2,2,3,3,4,4,5,5,6,6],"right_children":[2,4,6,8,10,12,14,-1,-1,-1,-1,-1,-1,-1,-1],"split_conditions":[1.001833E0,1.4108023E-1,1.5005088E0,1.4056484E-1,3E0,1.4981637E0,3.9998653E0,-8.404329E-3,1.3446604E-2,-1.3636546E-2,-1.0850673E-2,4.320405E-3,-1.011115E-2,1.4640806E-2,8.9040715E-3],"split_indices":[0,9,2,9,15,2,1,0,0,0,0,0,0,0,0],"split_type":[0,0,0,0,0,0,0,0,0,0,0,0,0,0,0],"sum_hessian":[7.182215E2,3.0811465E2,4.101068E2,1.077795E2,2.0033516E2,1.6104637E2,2.4906044E2,1.01356094E2,6.423405E0,1.5840118E2,4.193398E1,1.19522156E2,4.152422E1,1.0022828E2,1.4883215E2],"tree_param":{"num_deleted":"0","num_feature":"16","num_nodes":"15","size_leaf_vector":"0"}},{"base_weights":[-6.810105E-2,-1.0937357E0,7.0192164E-1,-6.93725E-1,-1.3050175E0,-1.615483E0,8.170574E-1,-8.34104E-1,1.3375535E0,-1.3578688E0,-1.0786448E0,9.566535E-1,-7.3589647E-1],"categories":[],"categories_nodes":[],"categories_segments":[],"categories_sizes":[],"default_left":[true,true,true,true,true,false,true,false,false,false,false,false,false],"id":57,"left_children":[1,3,5,7,9,-1,11,-1,-1,-1,-1,-1,-1],"loss_changes":[5.668714E2,2.510617E1,1.10722336E2,3.205748E1,9.3130493E-1,0E0,8.552939E1,0E0,0E0,0E0,0E0,0E0,0E0],"parents":[2147483647,0,0,1,1,2,2,3,3,4,4,6,6],"right_children":[2,4,6,8,10,-1,12,-1,-1,-1,-1,-1,-1],"split_conditions":[1.001833E0,1.4108023E-1,5.043465E-1,1.4056484E-1,3E0,-1.615483E-2,1.4807878E-1,-8.3410395E-3,1.3375535E-2,-1.3578688E-2,-1.0786448E-2,9.566534E-3,-7.3589645E-3],"split_indices":[0,9,2,9,15,0,9,0,0,0,0,0,0],"split_type":[0,0,0,0,0,0,0,0,0,0,0,0,0],"sum_hessian":[7.15803E2,3.067739E2,4.0902905E2,1.0751112E2,1.9926279E2,1.8743176E1,3.902859E2,1.01112724E2,6.398399E0,1.5749417E2,4.1768616E1,3.5844867E2,3.1837217E1],"tree_param":{"num_deleted":"0","num_feature":"16","num_nodes":"13","size_leaf_vector":"0"}},{"base_weights":[-6.768748E-2,-1.0876405E0,6.96478E-1,-4.5517763E-1,-1.2201262E0,5.070626E-2,1.1144983E0,-1.3481934E0,2.2995174E0,-3.498844E-1,-1.2545654E0,1.6308769E0,-2.0076708E-1,-2.1929535E-1,1.1705439E0],"categories":[],"categories_nodes":[],"categories_segments":[],"categories_sizes":[],"default_left":[true,true,true,true,true,true,true,false,false,false,false,false,false,false,false],"id":58,"left_children":[1,3,5,7,9,11,13,-1,-1,-1,-1,-1,-1,-1,-1],"loss_changes":[5.576607E2,2.5120972E1,1.1037491E2,1.375805E2,7.136444E0,6.462197E1,1.8817047E1,0E0,0E0,0E0,0E0,0E0,0E0,0E0,0E0],"parents":[2147483647,0,0,1,1,2,2,3,3,4,4,5,5,6,6],"right_children":[2,4,6,8,10,12,14,-1,-1,-1,-1,-1,-1,-1,-1],"split_conditions":[1.001833E0,1.4053947E-1,1.5005088E0,1.3893522E-1,6.5E0,1.996079E0,1.3894808E-1,-1.3481934E-2,2.2995174E-2,-3.4988439E-3,-1.2545654E-2,1.6308768E-2,-2.0076707E-3,-2.1929534E-3,1.1705439E-2],"split_indices":[0,9,2,9,3,0,9,0,0,0,0,0,0,0,0],"split_type":[0,0,0,0,0,0,0,0,0,0,0,0,0,0,0],"sum_hessian":[7.135163E2,3.0542874E2,4.0808755E2,5.3667103E1,2.5176163E2,1.6079987E2,2.472877E2,4.0914154E1,1.2752948E1,1.0008835E1,2.4175279E2,2.1323727E1,1.3947614E2,9.854484E0,2.3743323E2],"tree_param":{"num_deleted":"0","num_feature":"16","num_nodes":"15","size_leaf_vector":"0"}},{"base_weights":[-6.721317E-2,-1.0813422E0,6.9143015E-1,-6.819505E-1,-1.2935162E0,5.0307177E-2,1.108046E0,-1.2408714E0,-1.5215836E-1,-1.347104E0,-1.0649332E0,4.2309526E-1,-1.0061547E0,1.3141552E0,7.204847E-1],"categories":[],"categories_nodes":[],"categories_segments":[],"categories_sizes":[],"default_left":[true,true,true,true,true,true,true,false,false,false,false,false,false,false,false],"id":59,"left_children":[1,3,5,7,9,11,13,-1,-1,-1,-1,-1,-1,-1,-1],"loss_changes":[5.486437E2,2.4976105E1,1.0892117E2,3.1785675E1,9.9282837E-1,6.412759E1,1.8803497E1,0E0,0E0,0E0,0E0,0E0,0E0,0E0,0E0],"parents":[2147483647,0,0,1,1,2,2,3,3,4,4,5,5,6,6],"right_children":[2,4,6,8,10,12,14,-1,-1,-1,-1,-1,-1,-1,-1],"split_conditions":[1.001833E0,1.4108023E-1,1.5005088E0,1.0006769E0,3E0,1.4981637E0,1.9998535E0,-1.2408714E-2,-1.5215836E-3,-1.3471039E-2,-1.0649332E-2,4.2309524E-3,-1.0061546E-2,1.3141552E-2,7.2048465E-3],"split_indices":[0,9,2,1,15,2,2,0,0,0,0,0,0,0,0],"split_type":[0,0,0,0,0,0,0,0,0,0,0,0,0,0,0],"sum_hessian":[7.111431E2,3.041458E2,4.069973E2,1.0698108E2,1.9716475E2,1.607471E2,2.462502E2,5.1406246E1,5.5574833E1,1.5575665E2,4.1408092E1,1.1926294E2,4.148416E1,1.5919684E2,8.705337E1],"tree_param":{"num_deleted":"0","num_feature":"16","num_nodes":"15","size_leaf_vector":"0"}},{"base_weights":[-6.6803135E-2,-1.0752724E0,6.864231E-1,-6.7666155E-1,-1.2877649E0,-1.6046202E0,8.010086E-1,-8.1705874E-1,1.3379171E0,-1.3415854E0,-1.0587181E0,9.401084E-1,-7.376538E-1],"categories":[],"categories_nodes":[],"categories_segments":[],"categories_sizes":[],"default_left":[true,true,true,true,true,false,true,false,false,false,false,false,false],"id":60,"left_children":[1,3,5,7,9,-1,11,-1,-1,-1,-1,-1,-1],"loss_changes":[5.398577E2,2.4864655E1,1.0810315E2,3.157193E1,1.0091858E0,0E0,8.377455E1,0E0,0E0,0E0,0E0,0E0,0E0],"parents":[2147483647,0,0,1,1,2,2,3,3,4,4,6,6],"right_children":[2,4,6,8,10,-1,12,-1,-1,-1,-1,-1,-1],"split_conditions":[1.001833E0,1.4108023E-1,5.043465E-1,1.4056484E-1,3E0,-1.6046202E-2,1.4807878E-1,-8.170587E-3,1.3379171E-2,-1.34158535E-2,-1.0587181E-2,9.401084E-3,-7.3765377E-3],"split_indices":[0,9,2,9,15,0,9,0,0,0,0,0,0],"split_type":[0,0,0,0,0,0,0,0,0,0,0,0,0],"sum_hessian":[7.087363E2,3.0284277E2,4.0589355E2,1.06759315E2,1.9608345E2,1.8714226E1,3.8717932E2,1.0035962E2,6.399695E0,1.5484209E2,4.1241375E1,3.5543585E2,3.1743484E1],"tree_param":{"num_deleted":"0","num_feature":"16","num_nodes":"13","size_leaf_vector":"0"}},{"base_weights":[-6.640251E-2,-1.0693759E0,6.8112975E-1,-4.386485E-1,-1.2025578E0,4.518814E-2,1.0967699E0,-1.3316461E0,2.2846036E0,-3.3050624E-1,-1.2373253E0,1.6111536E0,-2.0305867E-1,1.4396133E0,8.582338E-1],"categories":[],"categories_nodes":[],"categories_segments":[],"categories_sizes":[],"default_left":[true,true,true,true,true,true,true,false,false,false,false,false,false,false,false],"id":61,"left_children":[1,3,5,7,9,11,13,-1,-1,-1,-1,-1,-1,-1,-1],"loss_changes":[5.311264E2,2.4881958E1,1.0724982E2,1.3511835E2,7.145874E0,6.31065E1,1.8837402E1,0E0,0E0,0E0,0E0,0E0,0E0,0E0,0E0],"parents":[2147483647,0,0,1,1,2,2,3,3,4,4,5,5,6,6],"right_children":[2,4,6,8,10,12,14,-1,-1,-1,-1,-1,-1,-1,-1],"split_conditions":[1.001833E0,1.4053947E-1,1.5005088E0,1.3893522E-1,6.5E0,1.996079E0,3.9998653E0,-1.3316461E-2,2.2846036E-2,-3.3050622E-3,-1.2373253E-2,1.6111536E-2,-2.0305866E-3,1.4396133E-2,8.582338E-3],"split_indices":[0,9,2,9,3,0,1,0,0,0,0,0,0,0,0],"split_type":[0,0,0,0,0,0,0,0,0,0,0,0,0,0,0],"sum_hessian":[7.064285E2,3.014879E2,4.049406E2,5.331077E1,2.4817714E2,1.6049194E2,2.4444867E2,4.0531013E1,1.2779755E1,9.917944E0,2.382592E2,2.1209595E1,1.3928235E2,9.822974E1,1.4621893E2],"tree_param":{"num_deleted":"0","num_feature":"16","num_nodes":"15","size_leaf_vector":"0"}},{"base_weights":[-6.5918386E-2,-1.0632912E0,6.7619765E-1,-6.6522884E-1,-1.2767415E0,4.4842247E-2,1.0903966E0,-1.2227199E0,-1.4015189E-1,-1.331325E0,-1.0454059E0,4.1443753E-1,-1.0011368E0,-2.4654984E-1,1.1473886E0],"categories":[],"categories_nodes":[],"categories_segments":[],"categories_sizes":[],"default_left":[true,true,true,true,true,true,true,false,false,false,false,false,false,false,false],"id":62,"left_children":[1,3,5,7,9,11,13,-1,-1,-1,-1,-1,-1,-1,-1],"loss_changes":[5.225864E2,2.4741852E1,1.0582912E2,3.1214504E1,1.0701599E0,6.2824215E1,1.8908081E1,0E0,0E0,0E0,0E0,0E0,0E0,0E0,0E0],"parents":[2147483647,0,0,1,1,2,2,3,3,4,4,5,5,6,6],"right_children":[2,4,6,8,10,12,14,-1,-1,-1,-1,-1,-1,-1,-1],"split_conditions":[1.001833E0,1.4108023E-1,1.5005088E0,1.0006769E0,3E0,1.4981637E0,1.3894808E-1,-1.2227199E-2,-1.4015188E-3,-1.3313251E-2,-1.0454059E-2,4.144375E-3,-1.00113675E-2,-2.4654984E-3,1.1473886E-2],"split_indices":[0,9,2,1,15,2,9,0,0,0,0,0,0,0,0],"split_type":[0,0,0,0,0,0,0,0,0,0,0,0,0,0,0],"sum_hessian":[7.040677E2,3.0019092E2,4.0387677E2,1.0621941E2,1.9397151E2,1.6043582E2,2.4344095E2,5.087507E1,5.534434E1,1.5309404E2,4.087747E1,1.1899344E2,4.144239E1,9.817231E0,2.3362372E2],"tree_param":{"num_deleted":"0","num_feature":"16","num_nodes":"15","size_leaf_vector":"0"}},{"base_weights":[-6.553856E-2,-1.0574157E0,6.713401E-1,-6.6009593E-1,-1.2712235E0,-1.5938861E0,7.853913E-1,-8.0053675E-1,1.3381252E0,-1.3260553E0,-1.0393832E0,9.241255E-1,-7.4120635E-1],"categories":[],"categories_nodes":[],"categories_segments":[],"categories_sizes":[],"default_left":[true,true,true,true,true,false,true,false,false,false,false,false,false],"id":63,"left_children":[1,3,5,7,9,-1,11,-1,-1,-1,-1,-1,-1],"loss_changes":[5.1425055E2,2.463565E1,1.0555916E2,3.109748E1,1.0863953E0,0E0,8.223697E1,0E0,0E0,0E0,0E0,0E0,0E0],"parents":[2147483647,0,0,1,1,2,2,3,3,4,4,6,6],"right_children":[2,4,6,8,10,-1,12,-1,-1,-1,-1,-1,-1],"split_conditions":[1.001833E0,1.4108023E-1,5.043465E-1,1.4056484E-1,3E0,-1.5938861E-2,1.4807878E-1,-8.005368E-3,1.3381252E-2,-1.3260553E-2,-1.0393832E-2,9.241255E-3,-7.4120634E-3],"split_indices":[0,9,2,9,15,0,9,0,0,0,0,0,0],"split_type":[0,0,0,0,0,0,0,0,0,0,0,0,0],"sum_hessian":[7.016208E2,2.9887903E2,4.0274176E2,1.059952E2,1.9288383E2,1.8683538E1,3.840582E2,9.9594765E1,6.400437E0,1.52174E2,4.0709827E1,3.5242514E2,3.163306E1],"tree_param":{"num_deleted":"0","num_feature":"16","num_nodes":"13","size_leaf_vector":"0"}},{"base_weights":[-6.5149896E-2,-1.0517032E0,6.661892E-1,-4.2257556E-1,-1.185631E0,3.9886598E-2,1.0795182E0,-1.3157424E0,2.2696662E0,-1.3573109E0,-9.827471E-1,4.0700698E-1,-9.978873E-1,1.4252075E0,8.396179E-1],"categories":[],"categories_nodes":[],"categories_segments":[],"categories_sizes":[],"default_left":[true,true,true,true,true,true,true,false,false,false,false,false,false,false,false],"id":64,"left_children":[1,3,5,7,9,11,13,-1,-1,-1,-1,-1,-1,-1,-1],"loss_changes":[5.0596875E2,2.4651337E1,1.0422414E2,1.327111E2,7.219574E0,6.181095E1,1.8923035E1,0E0,0E0,0E0,0E0,0E0,0E0,0E0,0E0],"parents":[2147483647,0,0,1,1,2,2,3,3,4,4,5,5,6,6],"right_children":[2,4,6,8,10,12,14,-1,-1,-1,-1,-1,-1,-1,-1],"split_conditions":[1.001833E0,1.4053947E-1,1.5005088E0,1.3893522E-1,1.0061753E0,1.4981637E0,3.9998653E0,-1.3157424E-2,2.269666E-2,-1.3573108E-2,-9.82747E-3,4.0700696E-3,-9.978873E-3,1.4252075E-2,8.3961785E-3],"split_indices":[0,9,2,9,1,2,1,0,0,0,0,0,0,0,0],"split_type":[0,0,0,0,0,0,0,0,0,0,0,0,0,0,0],"sum_hessian":[6.9929736E2,2.9751755E2,4.0177985E2,5.294813E1,2.4456943E2,1.6017256E2,2.4160727E2,4.0142056E1,1.2806075E1,1.2938992E2,1.15179504E2,1.18766E2,4.1406567E1,9.695585E1,1.4465143E2],"tree_param":{"num_deleted":"0","num_feature":"16","num_nodes":"15","size_leaf_vector":"0"}},{"base_weights":[-6.4722344E-2,-1.0458672E0,6.613939E-1,-6.489595E-1,-1.2606972E0,-4.6494865E-1,8.901533E-1,-7.891976E-1,1.3362578E0,-1.3162323E0,-1.0268846E0,1.4576577E0,-7.22219E-1,9.9487406E-1,-4.118132E-1],"categories":[],"categories_nodes":[],"categories_segments":[],"categories_sizes":[],"default_left":[true,true,true,true,true,true,true,false,false,false,false,false,false,false,false],"id":65,"left_children":[1,3,5,7,9,11,13,-1,-1,-1,-1,-1,-1,-1,-1],"loss_changes":[4.9787933E2,2.4523712E1,1.039106E2,3.0685772E1,1.1384888E0,3.491775E1,4.597711E1,0E0,0E0,0E0,0E0,0E0,0E0,0E0,0E0],"parents":[2147483647,0,0,1,1,2,2,3,3,4,4,5,5,6,6],"right_children":[2,4,6,8,10,12,14,-1,-1,-1,-1,-1,-1,-1,-1],"split_conditions":[1.001833E0,1.4108023E-1,1.0013764E0,1.4056484E-1,3E0,1.996079E0,1.4807878E-1,-7.891976E-3,1.3362578E-2,-1.3162323E-2,-1.0268846E-2,1.4576577E-2,-7.2221896E-3,9.948741E-3,-4.118132E-3],"split_indices":[0,9,2,9,15,0,9,0,0,0,0,0,0,0,0],"split_type":[0,0,0,0,0,0,0,0,0,0,0,0,0,0,0],"sum_hessian":[6.9688043E2,2.9620334E2,4.006771E2,1.054327E2,1.9077065E2,6.7465385E1,3.3321173E2,9.903894E1,6.3937645E0,1.5041478E2,4.0355858E1,7.411637E0,6.005375E1,3.0862408E2,2.4587624E1],"tree_param":{"num_deleted":"0","num_feature":"16","num_nodes":"15","size_leaf_vector":"0"}},{"base_weights":[-6.429962E-2,-1.0402706E0,6.563877E-1,-4.1241652E-1,-1.1746477E0,-1.5793848E0,7.6958656E-1,-1.304353E0,2.2503827E0,-2.935975E-1,-1.2101685E0,9.0718275E-1,-7.338836E-1],"categories":[],"categories_nodes":[],"categories_segments":[],"categories_sizes":[],"default_left":[true,true,true,true,true,false,true,false,false,false,false,false,false],"id":66,"left_children":[1,3,5,7,9,-1,11,-1,-1,-1,-1,-1,-1],"loss_changes":[4.899188E2,2.447525E1,1.02632675E2,1.3046541E2,7.2540283E0,0E0,7.970784E1,0E0,0E0,0E0,0E0,0E0,0E0],"parents":[2147483647,0,0,1,1,2,2,3,3,4,4,6,6],"right_children":[2,4,6,8,10,-1,12,-1,-1,-1,-1,-1,-1],"split_conditions":[1.001833E0,1.4053947E-1,5.043465E-1,1.3893522E-1,6.5E0,-1.5793847E-2,1.4807878E-1,