{"learner":{"attributes":{"best_iteration":"676","best_ntree_limit":"677","scikit_learn":"{\"use_label_encoder\": false, \"n_estimators\": 677, \"objective\": \"binary:logistic\", \"max_depth\": 3, \"learning_rate\": 0.01, \"verbosity\": null, \"booster\": \"gbtree\", \"tree_method\": null, \"gamma\": null, \"min_child_weight\": null, \"max_delta_step\": null, \"subsample\": null, \"colsample_bytree\": null, \"colsample_bylevel\": null, \"colsample_bynode\": null, \"reg_alpha\": null, \"reg_lambda\": null, \"scale_pos_weight\": null, \"base_score\": 0.5, \"missing\": NaN, \"num_parallel_tree\": null, \"random_state\": null, \"n_jobs\": -1, \"monotone_constraints\": null, \"interaction_constraints\": null, \"importance_type\": null, \"gpu_id\": null, \"validate_parameters\": null, \"predictor\": null, \"enable_categorical\": false, \"kwargs\": {\"eval_metric\": \"logloss\"}, \"classes_\": [0, 1], \"n_classes_\": 2, \"evals_result_\": {\"validation_0\": {\"logloss\": [0.686196, 0.679379, 0.672698, 0.666145, 0.659719, 0.653416, 0.647229, 0.641163, 0.635205, 0.62943, 0.623689, 0.618117, 0.612582, 0.607208, 0.601866, 0.596682, 0.591525, 0.586521, 0.581542, 0.576712, 0.571964, 0.567233, 0.562645, 0.558071, 0.553636, 0.549212, 0.544925, 0.540709, 0.536498, 0.53242, 0.528344, 0.524398, 0.520517, 0.516635, 0.512876, 0.509181, 0.505615, 0.50203, 0.498572, 0.495097, 0.491809, 0.488371, 0.485183, 0.481914, 0.478752, 0.475708, 0.472581, 0.469558, 0.466523, 0.463656, 0.460638, 0.457857, 0.454996, 0.452222, 0.449562, 0.446822, 0.444164, 0.441503, 0.438994, 0.436334, 0.433897, 0.431494, 0.428941, 0.426606, 0.424198, 0.421854, 0.419617, 0.417307, 0.415057, 0.412811, 0.410699, 0.408618, 0.406383, 0.404358, 0.402362, 0.400214, 0.398273, 0.39636, 0.394292, 0.392429, 0.390595, 0.388606, 0.38682, 0.385059, 0.383325, 0.381432, 0.379742, 0.378077, 0.376254, 0.374632, 0.373032, 0.371275, 0.369716, 0.368179, 0.366484, 0.364939, 0.363459, 0.361905, 0.360325, 0.358818, 0.35732, 0.355886, 0.354426, 0.352981, 0.3516, 0.350108, 0.348804, 0.347399, 0.346044, 0.344656, 0.343293, 0.342064, 0.340735, 0.339497, 0.338208, 0.336939, 0.335688, 0.334456, 0.333242, 0.332045, 0.330865, 0.329702, 0.328556, 0.327458, 0.326374, 0.325275, 0.324222, 0.323183, 0.322159, 0.321118, 0.320122, 0.318963, 0.317994, 0.317008, 0.316064, 0.315134, 0.314216, 0.313137, 0.312215, 0.311334, 0.310436, 0.309578, 0.308732, 0.307869, 0.307045, 0.306231, 0.305256, 0.304462, 0.303652, 0.302852, 0.302088, 0.301335, 0.300564, 0.299804, 0.298909, 0.298168, 0.297436, 0.296714, 0.296022, 0.29534, 0.29441, 0.29372, 0.293039, 0.292133, 0.291467, 0.290809, 0.289927, 0.289284, 0.288649, 0.28779, 0.287168, 0.286554, 0.285717, 0.285116, 0.284523, 0.283708, 0.283127, 0.282319, 0.281529, 0.280966, 0.280313, 0.279543, 0.278904, 0.278274, 0.277525, 0.276994, 0.276382, 0.275652, 0.275052, 0.27446, 0.273956, 0.273249, 0.272672, 0.271979, 0.271414, 0.270735, 0.270044, 0.269493, 0.268867, 0.268249, 0.26764, 0.267105, 0.266506, 0.265857, 0.265272, 0.264694, 0.264179, 0.263612, 0.263052, 0.262436, 0.261889, 0.261393, 0.260855, 0.260323, 0.259839, 0.259317, 0.258737, 0.258226, 0.257732, 0.257228, 0.256729, 0.256234, 0.255682, 0.255197, 0.254757, 0.254219, 0.25371, 0.25324, 0.252716, 0.252218, 0.251703, 0.251215, 0.250762, 0.250261, 0.249783, 0.24929, 0.248852, 0.248385, 0.247884, 0.247456, 0.247001, 0.246531, 0.246083, 0.245602, 0.24519, 0.244737, 0.244301, 0.243833, 0.243433, 0.243111, 0.242685, 0.242368, 0.242056, 0.241639, 0.241331, 0.241028, 0.240672, 0.240375, 0.239939, 0.239647, 0.239244, 0.238958, 0.238674, 0.238333, 0.238055, 0.237673, 0.237383, 0.237078, 0.236808, 0.236525, 0.236227, 0.235847, 0.235586, 0.235222, 0.234948, 0.23466, 0.234406, 0.234138, 0.233784, 0.233504, 0.233246, 0.2329, 0.23264, 0.232396, 0.232124, 0.231876, 0.231537, 0.2313, 0.231049, 0.230718, 0.230478, 0.230216, 0.229892, 0.22952, 0.229279, 0.229025, 0.228661, 0.228345, 0.228116, 0.227868, 0.227513, 0.227204, 0.226854, 0.226551, 0.226322, 0.226083, 0.225805, 0.225507, 0.225273, 0.224935, 0.224644, 0.224429, 0.22416, 0.223933, 0.223649, 0.223393, 0.223184, 0.222984, 0.222764, 0.222558, 0.222281, 0.222033, 0.22184, 0.221639, 0.221424, 0.22118, 0.220992, 0.220795, 0.220526, 0.220288, 0.22008, 0.219897, 0.219662, 0.219468, 0.219208, 0.218977, 0.218799, 0.218609, 0.218408, 0.218181, 0.218007, 0.217821, 0.217598, 0.217371, 0.217175, 0.216992, 0.216773, 0.216551, 0.216229, 0.216062, 0.215883, 0.215566, 0.21535, 0.215188, 0.214974, 0.214662, 0.214452, 0.214276, 0.214118, 0.213908, 0.213601, 0.213397, 0.213225, 0.212923, 0.212769, 0.212569, 0.212365, 0.212068, 0.211873, 0.211704, 0.211412, 0.211262, 0.211097, 0.21095, 0.210751, 0.210462, 0.210274, 0.210088, 0.209804, 0.209642, 0.2095, 0.209305, 0.209025, 0.208845, 0.208685, 0.2084, 0.208209, 0.208071, 0.207791, 0.207636, 0.207448, 0.207313, 0.20704, 0.206866, 0.206714, 0.206529, 0.206354, 0.206183, 0.205914, 0.205741, 0.205574, 0.205446, 0.205177, 0.205008, 0.204845, 0.204678, 0.204531, 0.204368, 0.204204, 0.204045, 0.203783, 0.203621, 0.203465, 0.20332, 0.203103, 0.202898, 0.202777, 0.202617, 0.202397, 0.202256, 0.202103, 0.201848, 0.201638, 0.201489, 0.201273, 0.201157, 0.200965, 0.200827, 0.200674, 0.200426, 0.200222, 0.200015, 0.199865, 0.199612, 0.199371, 0.199223, 0.199021, 0.198785, 0.198646, 0.198449, 0.198316, 0.198116, 0.197971, 0.197775, 0.197533, 0.197305, 0.197163, 0.196971, 0.196747, 0.196569, 0.19638, 0.196238, 0.19605, 0.195831, 0.195691, 0.195506, 0.195275, 0.195137, 0.194954, 0.194825, 0.194688, 0.194507, 0.194281, 0.194147, 0.193968, 0.193834, 0.193709, 0.193532, 0.193311, 0.193136, 0.193004, 0.192787, 0.192658, 0.192483, 0.192357, 0.192227, 0.192056, 0.191938, 0.191768, 0.191555, 0.191438, 0.191272, 0.191062, 0.190936, 0.190769, 0.190563, 0.190443, 0.190318, 0.190183, 0.190065, 0.189899, 0.189782, 0.189659, 0.189458, 0.189342, 0.189183, 0.189063, 0.188902, 0.188795, 0.188597, 0.188437, 0.188242, 0.18813, 0.187952, 0.187812, 0.187702, 0.187527, 0.18737, 0.187244, 0.187136, 0.186964, 0.18684, 0.186668, 0.1865, 0.186312, 0.186206, 0.186055, 0.185888, 0.18579, 0.185687, 0.185522, 0.185378, 0.185276, 0.185126, 0.184983, 0.184822, 0.184656, 0.184561, 0.184461, 0.184324, 0.184165, 0.184067, 0.183929, 0.183836, 0.18368, 0.183547, 0.18345, 0.183315, 0.183162, 0.183068, 0.182917, 0.182802, 0.182672, 0.182581, 0.182435, 0.182298, 0.182224, 0.182094, 0.181948, 0.181858, 0.181733, 0.181588, 0.1815, 0.181367, 0.181244, 0.181173, 0.18103, 0.180907, 0.18077, 0.180684, 0.180565, 0.180427, 0.180324, 0.180163, 0.180046, 0.17991, 0.179781, 0.179713, 0.179578, 0.179495, 0.179381, 0.179248, 0.179121, 0.179022, 0.178866, 0.178735, 0.17862, 0.178555, 0.178426, 0.178315, 0.178235, 0.178109, 0.178029, 0.177906, 0.177794, 0.177668, 0.177574, 0.177424, 0.17734, 0.177278, 0.177153, 0.177047, 0.176958, 0.176835, 0.176714, 0.176642, 0.176523, 0.176376, 0.176289, 0.176185, 0.176065, 0.175979, 0.175909, 0.175804, 0.175685, 0.175601, 0.1755, 0.175382, 0.175283, 0.175166, 0.175087, 0.175019, 0.174907, 0.174825, 0.174723, 0.174642, 0.174556, 0.174459, 0.174343, 0.174277, 0.174166, 0.174026, 0.173958, 0.173848, 0.173703, 0.173607, 0.173529, 0.173452, 0.173349, 0.173296, 0.173186, 0.173038, 0.172961, 0.17285, 0.172714, 0.172623, 0.172478, 0.172369, 0.172295, 0.17222, 0.172078, 0.172017, 0.17191, 0.171816, 0.17164, 0.171567, 0.171426, 0.171354, 0.17121, 0.171075, 0.170903, 0.170811, 0.170726, 0.170619, 0.170528, 0.170454, 0.170285, 0.170196, 0.170126, 0.17002, 0.169931, 0.169848, 0.169683, 0.169591, 0.169524, 0.169425, 0.169356, 0.169269, 0.169151, 0.169072, 0.168974, 0.16888, 0.168821, 0.16866, 0.168574, 0.168459, 0.168394]}, \"validation_1\": {\"logloss\": [0.686377, 0.679737, 0.673226, 0.666839, 0.660573, 0.654383, 0.648308, 0.642387, 0.636532, 0.630638, 0.624992, 0.619304, 0.613856, 0.608365, 0.603106, 0.597759, 0.592724, 0.587556, 0.582695, 0.577699, 0.572787, 0.568294, 0.563541, 0.559153, 0.554598, 0.550356, 0.545947, 0.541566, 0.537528, 0.533331, 0.529424, 0.525311, 0.521312, 0.517591, 0.513668, 0.509856, 0.506394, 0.502644, 0.499284, 0.495641, 0.492131, 0.488838, 0.485426, 0.481988, 0.47891, 0.47564, 0.472344, 0.469416, 0.466211, 0.463118, 0.460228, 0.457217, 0.454187, 0.451478, 0.44861, 0.445702, 0.443103, 0.440272, 0.437533, 0.434988, 0.432344, 0.429712, 0.42727, 0.424705, 0.422128, 0.41983, 0.417389, 0.414912, 0.412704, 0.410281, 0.407938, 0.405627, 0.403485, 0.401258, 0.399033, 0.396983, 0.394812, 0.3927, 0.39072, 0.388628, 0.386565, 0.38466, 0.382646, 0.380658, 0.378726, 0.376915, 0.374998, 0.373107, 0.371374, 0.369622, 0.367828, 0.366085, 0.364394, 0.362726, 0.361045, 0.3595, 0.357828, 0.356097, 0.354578, 0.353029, 0.351356, 0.349949, 0.348224, 0.346709, 0.345322, 0.34375, 0.342333, 0.340884, 0.339486, 0.338147, 0.336609, 0.335274, 0.333773, 0.332525, 0.331151, 0.329796, 0.328461, 0.327104, 0.325805, 0.324484, 0.323221, 0.321935, 0.320667, 0.319379, 0.318068, 0.316884, 0.315605, 0.314396, 0.313149, 0.312027, 0.310825, 0.309317, 0.308129, 0.307172, 0.306064, 0.304916, 0.303832, 0.302379, 0.301487, 0.300425, 0.299421, 0.298438, 0.297518, 0.296584, 0.295544, 0.294608, 0.293284, 0.292311, 0.291513, 0.290612, 0.289669, 0.288737, 0.287916, 0.287056, 0.28581, 0.285102, 0.284282, 0.283531, 0.282661, 0.281794, 0.280702, 0.280025, 0.279278, 0.278214, 0.27752, 0.276743, 0.275708, 0.275003, 0.274319, 0.273311, 0.272719, 0.272038, 0.271055, 0.270337, 0.269715, 0.268757, 0.26811, 0.26691, 0.265982, 0.265427, 0.264629, 0.263724, 0.26294, 0.262165, 0.261284, 0.260688, 0.259932, 0.259074, 0.258331, 0.257597, 0.257065, 0.256232, 0.255588, 0.254772, 0.25414, 0.25334, 0.252435, 0.251745, 0.250876, 0.25002, 0.249177, 0.248576, 0.24775, 0.2469, 0.246093, 0.245298, 0.244717, 0.243936, 0.243168, 0.242366, 0.241616, 0.241052, 0.240316, 0.23959, 0.239039, 0.238326, 0.23757, 0.236874, 0.23633, 0.23563, 0.234951, 0.234262, 0.233538, 0.232859, 0.232335, 0.231628, 0.230914, 0.230252, 0.229508, 0.228809, 0.228079, 0.227392, 0.22675, 0.226009, 0.225337, 0.224634, 0.224007, 0.223351, 0.222671, 0.222057, 0.221415, 0.220739, 0.220186, 0.21949, 0.218894, 0.218215, 0.217599, 0.217006, 0.216423, 0.216015, 0.215491, 0.215075, 0.214664, 0.214064, 0.213674, 0.213275, 0.213007, 0.212614, 0.212012, 0.211638, 0.211131, 0.210751, 0.210375, 0.21012, 0.209751, 0.209241, 0.208847, 0.208593, 0.208306, 0.20792, 0.207673, 0.207192, 0.206843, 0.206355, 0.205981, 0.205743, 0.205495, 0.205128, 0.204653, 0.204421, 0.20403, 0.203563, 0.203207, 0.202901, 0.202677, 0.2023, 0.201845, 0.201547, 0.201202, 0.200756, 0.200392, 0.200179, 0.199741, 0.199268, 0.198934, 0.198727, 0.198261, 0.197833, 0.197486, 0.197285, 0.196843, 0.196424, 0.195956, 0.195543, 0.195223, 0.195029, 0.194792, 0.194361, 0.194151, 0.193696, 0.193299, 0.193098, 0.192868, 0.192658, 0.192268, 0.192008, 0.191694, 0.191412, 0.19124, 0.191051, 0.190645, 0.190325, 0.190033, 0.189849, 0.189549, 0.189299, 0.189012, 0.188834, 0.188488, 0.188243, 0.18798, 0.187722, 0.187416, 0.187244, 0.186886, 0.186648, 0.186396, 0.186229, 0.185974, 0.185741, 0.185493, 0.185332, 0.185037, 0.184805, 0.184572, 0.184415, 0.184111, 0.183885, 0.18355, 0.183312, 0.183159, 0.182859, 0.182663, 0.182406, 0.182122, 0.181798, 0.181608, 0.18146, 0.181209, 0.180929, 0.180612, 0.180428, 0.180284, 0.180001, 0.179755, 0.179576, 0.179303, 0.178996, 0.178798, 0.178659, 0.178322, 0.178107, 0.177972, 0.177759, 0.177492, 0.177223, 0.177032, 0.176869, 0.176577, 0.176446, 0.176215, 0.175981, 0.175694, 0.175511, 0.175384, 0.174944, 0.174713, 0.174513, 0.17408, 0.173958, 0.173702, 0.173505, 0.173226, 0.173075, 0.172956, 0.172731, 0.172519, 0.172346, 0.172099, 0.171889, 0.171745, 0.171613, 0.171194, 0.170989, 0.170847, 0.170644, 0.170506, 0.170342, 0.170179, 0.170043, 0.169778, 0.16958, 0.169421, 0.169287, 0.168966, 0.16882, 0.168672, 0.168465, 0.168328, 0.168198, 0.168069, 0.167811, 0.167497, 0.167371, 0.167236, 0.167094, 0.166953, 0.166827, 0.166626, 0.166306, 0.166, 0.165869, 0.165671, 0.165319, 0.165009, 0.164824, 0.164699, 0.164395, 0.164259, 0.163962, 0.163842, 0.163714, 0.163534, 0.163412, 0.163075, 0.162783, 0.162606, 0.162487, 0.1622, 0.161941, 0.161611, 0.161469, 0.1613, 0.161019, 0.16088, 0.160767, 0.160447, 0.160286, 0.160009, 0.159892, 0.159757, 0.159647, 0.159333, 0.159177, 0.158905, 0.158773, 0.158662, 0.158555, 0.158248, 0.157982, 0.157854, 0.157553, 0.157402, 0.157215, 0.157066, 0.15694, 0.156639, 0.156534, 0.156432, 0.156136, 0.156034, 0.155779, 0.15549, 0.155369, 0.155271, 0.154984, 0.154842, 0.154724, 0.154608, 0.154468, 0.154288, 0.154157, 0.154032, 0.153751, 0.153614, 0.15333, 0.153217, 0.153119, 0.153027, 0.152753, 0.152577, 0.152306, 0.152173, 0.151967, 0.151804, 0.151673, 0.15147, 0.151297, 0.151188, 0.151059, 0.150859, 0.150752, 0.150508, 0.150275, 0.150011, 0.149884, 0.149794, 0.1496, 0.149479, 0.149354, 0.149163, 0.14898, 0.148863, 0.148708, 0.148527, 0.14834, 0.148067, 0.147949, 0.147833, 0.147663, 0.147477, 0.147394, 0.147219, 0.147103, 0.146919, 0.146753, 0.14664, 0.146546, 0.146366, 0.146276, 0.146098, 0.146011, 0.145848, 0.14576, 0.145581, 0.145499, 0.145391, 0.145224, 0.145013, 0.144907, 0.14475, 0.144579, 0.144474, 0.144396, 0.14424, 0.144135, 0.143967, 0.143808, 0.143639, 0.143535, 0.143384, 0.143182, 0.143135, 0.142911, 0.142763, 0.14263, 0.142542, 0.14244, 0.14228, 0.142179, 0.142033, 0.141904, 0.141819, 0.141775, 0.141555, 0.141361, 0.141211, 0.141112, 0.140986, 0.140845, 0.140746, 0.140594, 0.140496, 0.140413, 0.140268, 0.140118, 0.140009, 0.139794, 0.139694, 0.139604, 0.139444, 0.139308, 0.139211, 0.139093, 0.139012, 0.138915, 0.138771, 0.13856, 0.138465, 0.138332, 0.138188, 0.138095, 0.138006, 0.137868, 0.137714, 0.137622, 0.137492, 0.137414, 0.13731, 0.137171, 0.137076, 0.13699, 0.136853, 0.136763, 0.136629, 0.136541, 0.136504, 0.136378, 0.136307, 0.136222, 0.136111, 0.135907, 0.135822, 0.135684, 0.135493, 0.135369, 0.135284, 0.135191, 0.135111, 0.135031, 0.134926, 0.134714, 0.13463, 0.134559, 0.134361, 0.134265, 0.134057, 0.133928, 0.133845, 0.133757, 0.133553, 0.133474, 0.133347, 0.133223, 0.13303, 0.132949, 0.132756, 0.132676, 0.132537, 0.132334, 0.132145, 0.132023, 0.131933, 0.131791, 0.131686, 0.131598, 0.131412, 0.131308, 0.13123, 0.13109, 0.130972, 0.130884, 0.1307, 0.13065, 0.130569, 0.130471, 0.130393, 0.130289, 0.130037, 0.129952, 0.129844, 0.129764, 0.129689, 0.129508, 0.129461, 0.129208, 0.12913]}}, \"_estimator_type\": \"classifier\"}"},"feature_names":["partners_cnt","orders_cnt","perc","month","day","hour","weekday","day_of_year","day_freq","weekday_freq","days_until_holiday","days_since_holiday","is_holiday","is_weekend","days_until_nonworking","days_since_nonworking"],"feature_types":["float","float","float","int","int","int","int","int","float","float","int","int","int","int","int","int"],"gradient_booster":{"model":{"gbtree_model_param":{"num_trees":"677","size_leaf_vector":"0"},"tree_info":[0,0,0,0,0,0,0,0,0,0,0,0,0,0,0,0,0,0,0,0,0,0,0,0,0,0,0,0,0,0,0,0,0,0,0,0,0,0,0,0,0,0,0,0,0,0,0,0,0,0,0,0,0,0,0,0,0,0,0,0,0,0,0,0,0,0,0,0,0,0,0,0,0,0,0,0,0,0,0,0,0,0,0,0,0,0,0,0,0,0,0,0,0,0,0,0,0,0,0,0,0,0,0,0,0,0,0,0,0,0,0,0,0,0,0,0,0,0,0,0,0,0,0,0,0,0,0,0,0,0,0,0,0,0,0,0,0,0,0,0,0,0,0,0,0,0,0,0,0,0,0,0,0,0,0,0,0,0,0,0,0,0,0,0,0,0,0,0,0,0,0,0,0,0,0,0,0,0,0,0,0,0,0,0,0,0,0,0,0,0,0,0,0,0,0,0,0,0,0,0,0,0,0,0,0,0,0,0,0,0,0,0,0,0,0,0,0,0,0,0,0,0,0,0,0,0,0,0,0,0,0,0,0,0,0,0,0,0,0,0,0,0,0,0,0,0,0,0,0,0,0,0,0,0,0,0,0,0,0,0,0,0,0,0,0,0,0,0,0,0,0,0,0,0,0,0,0,0,0,0,0,0,0,0,0,0,0,0,0,0,0,0,0,0,0,0,0,0,0,0,0,0,0,0,0,0,0,0,0,0,0,0,0,0,0,0,0,0,0,0,0,0,0,0,0,0,0,0,0,0,0,0,0,0,0,0,0,0,0,0,0,0,0,0,0,0,0,0,0,0,0,0,0,0,0,0,0,0,0,0,0,0,0,0,0,0,0,0,0,0,0,0,0,0,0,0,0,0,0,0,0,0,0,0,0,0,0,0,0,0,0,0,0,0,0,0,0,0,0,0,0,0,0,0,0,0,0,0,0,0,0,0,0,0,0,0,0,0,0,0,0,0,0,0,0,0,0,0,0,0,0,0,0,0,0,0,0,0,0,0,0,0,0,0,0,0,0,0,0,0,0,0,0,0,0,0,0,0,0,0,0,0,0,0,0,0,0,0,0,0,0,0,0,0,0,0,0,0,0,0,0,0,0,0,0,0,0,0,0,0,0,0,0,0,0,0,0,0,0,0,0,0,0,0,0,0,0,0,0,0,0,0,0,0,0,0,0,0,0,0,0,0,0,0,0,0,0,0,0,0,0,0,0,0,0,0,0,0,0,0,0,0,0,0,0,0,0,0,0,0,0,0,0,0,0,0,0,0,0,0,0,0,0,0,0,0,0,0,0,0,0,0,0,0,0,0,0,0,0,0,0,0,0,0,0,0,0,0,0,0,0,0,0,0,0,0,0,0,0,0,0,0,0,0,0,0,0,0,0,0,0,0,0,0,0,0,0,0,0,0,0,0,0,0,0,0,0,0,0,0,0,0,0,0,0,0,0,0,0,0,0,0,0,0,0,0,0,0,0,0,0,0,0,0,0,0,0,0,0,0,0,0,0,0,0,0,0,0,0,0,0,0,0,0,0,0,0],"trees":[{"base_weights":[-1.04936354E-1,-1.589109E0,1.385954E0,-1.8263565E0,-6.424242E-1,5.5016184E-1,1.5797546E0,-7.906977E-1,-1.8561151E0,1.9012346E0,-1.4466404E0,1.9349593E0,-3.5789475E-1,1.6246057E0,-0E0],"categories":[],"categories_nodes":[],"categories_segments":[],"categories_sizes":[],"default_left":[true,true,true,true,true,true,true,false,false,false,false,false,false,false,false],"id":0,"left_children":[1,3,5,7,9,11,13,-1,-1,-1,-1,-1,-1,-1,-1],"loss_changes":[1.7840103E3,8.9564514E1,6.428613E1,8.471802E0,1.7151663E2,9.783241E1,2.3098328E1,0E0,0E0,0E0,0E0,0E0,0E0,0E0,0E0],"parents":[2147483647,0,0,1,1,2,2,3,3,4,4,5,5,6,6],"right_children":[2,4,6,8,10,12,14,-1,-1,-1,-1,-1,-1,-1,-1],"split_conditions":[3.0208168E0,2.0006652E0,4.005841E0,2.9904615E-2,2.998103E0,3.9898903E0,1.95E1,-7.906977E-3,-1.856115E-2,1.9012345E-2,-1.4466403E-2,1.9349592E-2,-3.5789474E-3,1.6246056E-2,-0E0],"split_indices":[1,1,1,8,1,1,5,0,0,0,0,0,0,0,0],"split_type":[0,0,0,0,0,0,0,0,0,0,0,0,0,0,0],"sum_hessian":[8.0425E2,4.03E2,4.0125E2,3.215E2,8.15E1,7.625E1,3.25E2,9.75E0,3.1175E2,1.925E1,6.225E1,2.975E1,4.65E1,3.16E2,9E0],"tree_param":{"num_deleted":"0","num_feature":"16","num_nodes":"15","size_leaf_vector":"0"}},{"base_weights":[-1.0388165E-1,-1.573397E0,1.3722556E0,-1.808327E0,-6.3598335E-1,5.448852E-1,1.5641074E0,-7.835373E-1,-1.8377715E0,1.8833234E0,-1.4324765E0,1.916413E0,-3.543923E-1,1.6085172E0,-0E0],"categories":[],"categories_nodes":[],"categories_segments":[],"categories_sizes":[],"default_left":[true,true,true,true,true,true,true,false,false,false,false,false,false,false,false],"id":1,"left_children":[1,3,5,7,9,11,13,-1,-1,-1,-1,-1,-1,-1,-1],"loss_changes":[1.7487915E3,8.781445E1,6.299408E1,8.290405E0,1.6823315E2,9.595446E1,2.2643066E1,0E0,0E0,0E0,0E0,0E0,0E0,0E0,0E0],"parents":[2147483647,0,0,1,1,2,2,3,3,4,4,5,5,6,6],"right_children":[2,4,6,8,10,12,14,-1,-1,-1,-1,-1,-1,-1,-1],"split_conditions":[3.0208168E0,2.0006652E0,4.005841E0,2.9904615E-2,2.998103E0,3.9898903E0,1.95E1,-7.835373E-3,-1.8377716E-2,1.8833233E-2,-1.4324765E-2,1.9164128E-2,-3.543923E-3,1.6085172E-2,-0E0],"split_indices":[1,1,1,8,1,1,5,0,0,0,0,0,0,0,0],"split_type":[0,0,0,0,0,0,0,0,0,0,0,0,0,0,0],"sum_hessian":[8.041942E2,4.02968E2,4.0122623E2,3.21473E2,8.1495E1,7.624706E1,3.2497916E2,9.749847E0,3.1172314E2,1.924826E1,6.2246742E1,2.9747215E1,4.649985E1,3.1597916E2,9E0],"tree_param":{"num_deleted":"0","num_feature":"16","num_nodes":"15","size_leaf_vector":"0"}},{"base_weights":[-1.0285172E-1,-1.5580838E0,1.358851E0,-1.7907708E0,-6.296822E-1,5.397002E-1,1.5488102E0,-7.764638E-1,-1.8199171E0,1.8658972E0,-1.4185957E0,1.8983837E0,-3.509263E-1,1.5927942E0,-0E0],"categories":[],"categories_nodes":[],"categories_segments":[],"categories_sizes":[],"default_left":[true,true,true,true,true,true,true,false,false,false,false,false,false,false,false],"id":2,"left_children":[1,3,5,7,9,11,13,-1,-1,-1,-1,-1,-1,-1,-1],"loss_changes":[1.7145079E3,8.6119934E1,6.174164E1,8.117798E0,1.6503369E2,9.4130775E1,2.2202393E1,0E0,0E0,0E0,0E0,0E0,0E0,0E0,0E0],"parents":[2147483647,0,0,1,1,2,2,3,3,4,4,5,5,6,6],"right_children":[2,4,6,8,10,12,14,-1,-1,-1,-1,-1,-1,-1,-1],"split_conditions":[3.0208168E0,2.0006652E0,4.005841E0,2.9904615E-2,2.998103E0,3.9898903E0,1.95E1,-7.764638E-3,-1.819917E-2,1.8658971E-2,-1.4185957E-2,1.8983837E-2,-3.509263E-3,1.592794E-2,-0E0],"split_indices":[1,1,1,8,1,1,5,0,0,0,0,0,0,0,0],"split_type":[0,0,0,0,0,0,0,0,0,0,0,0,0,0,0],"sum_hessian":[8.040291E2,4.028733E2,4.011558E2,3.213931E2,8.148021E1,7.623838E1,3.2491742E2,9.749396E0,3.116437E2,1.9243109E1,6.22371E1,2.973897E1,4.649941E1,3.1591742E2,9E0],"tree_param":{"num_deleted":"0","num_feature":"16","num_nodes":"15","size_leaf_vector":"0"}},{"base_weights":[-1.0184556E-1,-1.5431535E0,1.3457296E0,-1.7736692E0,-6.2351537E-1,5.346038E-1,1.5338502E0,-7.6947457E-1,-1.8025322E0,1.8489368E0,-1.4049878E0,1.8808501E0,-3.4749618E-1,1.5774233E0,-0E0],"categories":[],"categories_nodes":[],"categories_segments":[],"categories_sizes":[],"default_left":[true,true,true,true,true,true,true,false,false,false,false,false,false,false,false],"id":3,"left_children":[1,3,5,7,9,11,13,-1,-1,-1,-1,-1,-1,-1,-1],"loss_changes":[1.6811248E3,8.44787E1,6.05271E1,7.953491E0,1.6191519E2,9.235906E1,2.1775757E1,0E0,0E0,0E0,0E0,0E0,0E0,0E0,0E0],"parents":[2147483647,0,0,1,1,2,2,3,3,4,4,5,5,6,6],"right_children":[2,4,6,8,10,12,14,-1,-1,-1,-1,-1,-1,-1,-1],"split_conditions":[3.0208168E0,2.0006652E0,4.005841E0,2.9904615E-2,2.998103E0,3.9898903E0,1.95E1,-7.6947454E-3,-1.8025322E-2,1.8489368E-2,-1.4049877E-2,1.88085E-2,-3.4749617E-3,1.5774233E-2,-0E0],"split_indices":[1,1,1,8,1,1,5,0,0,0,0,0,0,0,0],"split_type":[0,0,0,0,0,0,0,0,0,0,0,0,0,0,0],"sum_hessian":[8.0375793E2,4.0271774E2,4.0104022E2,3.2126184E2,8.14559E1,7.622411E1,3.248161E2,9.748653E0,3.1151318E2,1.9234644E1,6.222126E1,2.9725424E1,4.6498688E1,3.158161E2,9E0],"tree_param":{"num_deleted":"0","num_feature":"16","num_nodes":"15","size_leaf_vector":"0"}},{"base_weights":[-1.0086228E-1,-1.528591E0,1.3328813E0,-1.7570043E0,-6.1747783E-1,5.295935E-1,1.5192151E0,-7.625692E-1,-1.7855982E0,1.8324243E0,-1.391643E0,1.8637928E0,-3.441017E-1,1.5623914E0,-0E0],"categories":[],"categories_nodes":[],"categories_segments":[],"categories_sizes":[],"default_left":[true,true,true,true,true,true,true,false,false,false,false,false,false,false,false],"id":4,"left_children":[1,3,5,7,9,11,13,-1,-1,-1,-1,-1,-1,-1,-1],"loss_changes":[1.6486088E3,8.288837E1,5.9348755E1,7.796631E0,1.5887476E2,9.063725E1,2.1362488E1,0E0,0E0,0E0,0E0,0E0,0E0,0E0,0E0],"parents":[2147483647,0,0,1,1,2,2,3,3,4,4,5,5,6,6],"right_children":[2,4,6,8,10,12,14,-1,-1,-1,-1,-1,-1,-1,-1],"split_conditions":[3.0208168E0,2.0006652E0,4.005841E0,2.9904615E-2,2.998103E0,3.9898903E0,1.95E1,-7.6256916E-3,-1.7855981E-2,1.8324243E-2,-1.391643E-2,1.8637927E-2,-3.441017E-3,1.5623914E-2,-0E0],"split_indices":[1,1,1,8,1,1,5,0,0,0,0,0,0,0,0],"split_type":[0,0,0,0,0,0,0,0,0,0,0,0,0,0,0],"sum_hessian":[8.033839E2,4.0250317E2,4.008807E2,3.2108078E2,8.142238E1,7.620442E1,3.246763E2,9.747626E0,3.1133316E2,1.922296E1,6.219942E1,2.9706736E1,4.6497684E1,3.156763E2,9E0],"tree_param":{"num_deleted":"0","num_feature":"16","num_nodes":"15","size_leaf_vector":"0"}},{"base_weights":[-9.990088E-2,-1.514382E0,1.3202968E0,-1.7407583E0,-6.1156535E-1,5.246668E-1,1.5048932E0,-1.8751254E0,-1.4952072E0,1.8163426E0,-1.3785534E0,1.8471932E0,-3.407422E-1,1.5476865E0,-0E0],"categories":[],"categories_nodes":[],"categories_segments":[],"categories_sizes":[],"default_left":[true,true,true,true,true,true,true,false,false,false,false,false,false,false,false],"id":5,"left_children":[1,3,5,7,9,11,13,-1,-1,-1,-1,-1,-1,-1,-1],"loss_changes":[1.6169286E3,8.1346375E1,5.82052E1,7.8154907E0,1.559098E2,8.896335E1,2.0961914E1,0E0,0E0,0E0,0E0,0E0,0E0,0E0,0E0],"parents":[2147483647,0,0,1,1,2,2,3,3,4,4,5,5,6,6],"right_children":[2,4,6,8,10,12,14,-1,-1,-1,-1,-1,-1,-1,-1],"split_conditions":[3.0208168E0,2.0006652E0,4.005841E0,7.95E1,2.998103E0,3.9898903E0,1.95E1,-1.8751254E-2,-1.4952072E-2,1.8163426E-2,-1.3785534E-2,1.8471932E-2,-3.407422E-3,1.5476864E-2,-0E0],"split_indices":[1,1,1,11,1,1,5,0,0,0,0,0,0,0,0],"split_type":[0,0,0,0,0,0,0,0,0,0,0,0,0,0,0],"sum_hessian":[8.0291016E2,4.0223145E2,4.006787E2,3.2085156E2,8.137989E1,7.6179474E1,3.2449924E2,2.0308546E2,1.177661E2,1.9208153E1,6.217174E1,2.9683056E1,4.6496418E1,3.1549924E2,9E0],"tree_param":{"num_deleted":"0","num_feature":"16","num_nodes":"15","size_leaf_vector":"0"}},{"base_weights":[-9.897094E-2,-1.5005245E0,1.3079664E0,-1.7249277E0,-6.0577375E-1,5.19821E-1,1.490873E0,-1.858196E0,-1.4814376E0,1.8006754E0,-1.3657104E0,1.8310337E0,-3.3741713E-1,1.5332961E0,-0E0],"categories":[],"categories_nodes":[],"categories_segments":[],"categories_sizes":[],"default_left":[true,true,true,true,true,true,true,false,false,false,false,false,false,false,false],"id":6,"left_children":[1,3,5,7,9,11,13,-1,-1,-1,-1,-1,-1,-1,-1],"loss_changes":[1.586072E3,7.985266E1,5.7094788E1,7.682312E0,1.5301775E2,8.733544E1,2.0573547E1,0E0,0E0,0E0,0E0,0E0,0E0,0E0,0E0],"parents":[2147483647,0,0,1,1,2,2,3,3,4,4,5,5,6,6],"right_children":[2,4,6,8,10,12,14,-1,-1,-1,-1,-1,-1,-1,-1],"split_conditions":[3.0208168E0,2.0006652E0,4.005841E0,7.95E1,2.998103E0,3.9898903E0,1.95E1,-1.858196E-2,-1.4814375E-2,1.8006753E-2,-1.3657103E-2,1.8310336E-2,-3.3741712E-3,1.53329605E-2,-0E0],"split_indices":[1,1,1,11,1,1,5,0,0,0,0,0,0,0,0],"split_type":[0,0,0,0,0,0,0,0,0,0,0,0,0,0,0],"sum_hessian":[8.023424E2,4.0190692E2,4.0043552E2,3.205782E2,8.132872E1,7.614943E1,3.242861E2,2.0289638E2,1.1768181E2,1.9190313E1,6.2138405E1,2.9654533E1,4.6494896E1,3.152861E2,9E0],"tree_param":{"num_deleted":"0","num_feature":"16","num_nodes":"15","size_leaf_vector":"0"}},{"base_weights":[-9.8061234E-2,-1.4869941E0,1.2958815E0,-1.7094845E0,-6.000984E-1,5.150538E-1,1.4771441E0,-7.26717E-1,-1.7378709E0,1.7854071E0,-1.3531052E0,1.8152976E0,-3.3412668E-1,1.5192096E0,-0E0],"categories":[],"categories_nodes":[],"categories_segments":[],"categories_sizes":[],"default_left":[true,true,true,true,true,true,true,false,false,false,false,false,false,false,false],"id":7,"left_children":[1,3,5,7,9,11,13,-1,-1,-1,-1,-1,-1,-1,-1],"loss_changes":[1.5559921E3,7.840338E1,5.6016235E1,7.699341E0,1.5019603E2,8.57518E1,2.0196838E1,0E0,0E0,0E0,0E0,0E0,0E0,0E0,0E0],"parents":[2147483647,0,0,1,1,2,2,3,3,4,4,5,5,6,6],"right_children":[2,4,6,8,10,12,14,-1,-1,-1,-1,-1,-1,-1,-1],"split_conditions":[3.0208168E0,2.0006652E0,4.005841E0,2.9904615E-2,2.998103E0,3.9898903E0,1.95E1,-7.2671697E-3,-1.7378708E-2,1.785407E-2,-1.3531052E-2,1.8152976E-2,-3.3412667E-3,1.5192096E-2,-0E0],"split_indices":[1,1,1,8,1,1,5,0,0,0,0,0,0,0,0],"split_type":[0,0,0,0,0,0,0,0,0,0,0,0,0,0,0],"sum_hessian":[8.016811E2,4.0152872E2,4.0015237E2,3.2025958E2,8.1269135E1,7.611444E1,3.2403793E2,9.7375145E0,3.1052206E2,1.9169533E1,6.2099598E1,2.9621319E1,4.6493122E1,3.1503793E2,9E0],"tree_param":{"num_deleted":"0","num_feature":"16","num_nodes":"15","size_leaf_vector":"0"}},{"base_weights":[-9.7160846E-2,-1.4737645E0,1.2840337E0,-1.6943976E0,-5.945356E-1,5.1036286E-1,1.4636959E0,-1.8267548E0,-1.4527881E0,1.7705232E0,-1.3407308E0,1.7999684E0,-3.3087003E-1,1.5054157E0,-0E0],"categories":[],"categories_nodes":[],"categories_segments":[],"categories_sizes":[],"default_left":[true,true,true,true,true,true,true,false,false,false,false,false,false,false,false],"id":8,"left_children":[1,3,5,7,9,11,13,-1,-1,-1,-1,-1,-1,-1,-1],"loss_changes":[1.5266425E3,7.699408E1,5.49682E1,7.607971E0,1.4744241E2,8.421065E1,1.9831238E1,0E0,0E0,0E0,0E0,0E0,0E0,0E0,0E0],"parents":[2147483647,0,0,1,1,2,2,3,3,4,4,5,5,6,6],"right_children":[2,4,6,8,10,12,14,-1,-1,-1,-1,-1,-1,-1,-1],"split_conditions":[3.0208168E0,2.0006652E0,4.005841E0,7.95E1,2.998103E0,3.9898903E0,1.95E1,-1.8267548E-2,-1.4527881E-2,1.7705232E-2,-1.3407308E-2,1.7999683E-2,-3.3087002E-3,1.5054156E-2,-0E0],"split_indices":[1,1,1,11,1,1,5,0,0,0,0,0,0,0,0],"split_type":[0,0,0,0,0,0,0,0,0,0,0,0,0,0,0],"sum_hessian":[8.009271E2,4.0109662E2,3.998305E2,3.1989526E2,8.120138E1,7.607465E1,3.2375586E2,2.0243668E2,1.1745857E2,1.9145899E1,6.205548E1,2.958355E1,4.64911E1,3.1475586E2,9E0],"tree_param":{"num_deleted":"0","num_feature":"16","num_nodes":"15","size_leaf_vector":"0"}},{"base_weights":[-9.628945E-2,-1.4608512E0,1.272415E0,-1.679684E0,-5.890813E-1,7.537065E-1,1.5378406E0,-7.062777E-1,-1.7078826E0,1.7560093E0,-1.3285793E0,1.2700549E0,-1.2985143E-1,1.5774876E0,-1.4285715E-1],"categories":[],"categories_nodes":[],"categories_segments":[],"categories_sizes":[],"default_left":[true,true,true,true,true,true,true,false,false,false,false,false,false,false,false],"id":9,"left_children":[1,3,5,7,9,11,13,-1,-1,-1,-1,-1,-1,-1,-1],"loss_changes":[1.4980355E3,7.5627625E1,5.3977234E1,7.5908203E0,1.4475456E2,6.2904205E1,1.781372E1,0E0,0E0,0E0,0E0,0E0,0E0,0E0,0E0],"parents":[2147483647,0,0,1,1,2,2,3,3,4,4,5,5,6,6],"right_children":[2,4,6,8,10,12,14,-1,-1,-1,-1,-1,-1,-1,-1],"split_conditions":[3.0208168E0,2.0006652E0,2.0001864E0,2.9904615E-2,2.998103E0,3.2778144E-2,1.95E1,-7.062777E-3,-1.7078826E-2,1.7560093E-2,-1.3285792E-2,1.2700549E-2,-1.2985143E-3,1.5774876E-2,-1.4285714E-3],"split_indices":[1,1,2,8,1,8,5,0,0,0,0,0,0,0,0],"split_type":[0,0,0,0,0,0,0,0,0,0,0,0,0,0,0],"sum_hessian":[8.000875E2,4.006164E2,3.9947113E2,3.194907E2,8.11257E1,1.3651868E2,2.6295245E2,9.728083E0,3.097626E2,1.9119497E1,6.2006207E1,8.588836E1,5.0630318E1,2.5695245E2,6E0],"tree_param":{"num_deleted":"0","num_feature":"16","num_nodes":"15","size_leaf_vector":"0"}},{"base_weights":[-9.5426984E-2,-1.4482163E0,1.2609037E0,-1.6653001E0,-5.83732E-1,4.9884778E-1,1.438065E0,-1.7969044E0,-1.4253104E0,1.7418526E0,-1.3166436E0,1.7754382E0,-3.3181202E-1,1.4791545E0,-5.0318515E-4],"categories":[],"categories_nodes":[],"categories_segments":[],"categories_sizes":[],"default_left":[true,true,true,true,true,true,true,false,false,false,false,false,false,false,false],"id":10,"left_children":[1,3,5,7,9,11,13,-1,-1,-1,-1,-1,-1,-1,-1],"loss_changes":[1.4700457E3,7.429779E1,5.330005E1,7.546997E0,1.4213036E2,8.224323E1,1.915863E1,0E0,0E0,0E0,0E0,0E0,0E0,0E0,0E0],"parents":[2147483647,0,0,1,1,2,2,3,3,4,4,5,5,6,6],"right_children":[2,4,6,8,10,12,14,-1,-1,-1,-1,-1,-1,-1,-1],"split_conditions":[3.0208168E0,2.0006652E0,4.005841E0,7.95E1,2.998103E0,3.9898903E0,1.95E1,-1.7969044E-2,-1.4253103E-2,1.7418526E-2,-1.3166436E-2,1.7754382E-2,-3.3181203E-3,1.47915445E-2,-5.0318513E-6],"split_indices":[1,1,1,11,1,1,5,0,0,0,0,0,0,0,0],"split_type":[0,0,0,0,0,0,0,0,0,0,0,0,0,0,0],"sum_hessian":[7.99194E2,4.0008542E2,3.9910855E2,3.1904303E2,8.1042366E1,7.600224E1,3.231063E2,2.0186043E2,1.1718262E2,1.9090412E1,6.1951954E1,2.9511082E1,4.649116E1,3.1410635E2,8.999946E0],"tree_param":{"num_deleted":"0","num_feature":"16","num_nodes":"15","size_leaf_vector":"0"}},{"base_weights":[-9.459103E-2,-1.4358761E0,1.2497118E0,-1.6512635E0,-5.7848436E-1,7.3855627E-1,1.5115689E0,-6.86419E-1,-1.6793046E0,1.72804E0,-1.3049173E0,1.2486081E0,-1.3308038E-1,1.5506653E0,-1.4162824E-1],"categories":[],"categories_nodes":[],"categories_segments":[],"categories_sizes":[],"default_left":[true,true,true,true,true,true,true,false,false,false,false,false,false,false,false],"id":11,"left_children":[1,3,5,7,9,11,13,-1,-1,-1,-1,-1,-1,-1,-1],"loss_changes":[1.442809E3,7.300745E1,5.238086E1,7.492981E0,1.3956775E2,6.12278E1,1.7239868E1,0E0,0E0,0E0,0E0,0E0,0E0,0E0,0E0],"parents":[2147483647,0,0,1,1,2,2,3,3,4,4,5,5,6,6],"right_children":[2,4,6,8,10,12,14,-1,-1,-1,-1,-1,-1,-1,-1],"split_conditions":[3.0208168E0,2.0006652E0,2.0001864E0,2.9904615E-2,2.998103E0,3.2778144E-2,1.95E1,-6.86419E-3,-1.6793046E-2,1.72804E-2,-1.3049173E-2,1.2486081E-2,-1.3308037E-3,1.5506652E-2,-1.4162824E-3],"split_indices":[1,1,2,8,1,8,5,0,0,0,0,0,0,0,0],"split_type":[0,0,0,0,0,0,0,0,0,0,0,0,0,0,0],"sum_hessian":[7.9819025E2,3.995095E2,3.986808E2,3.185579E2,8.095159E1,1.3634683E2,2.6233395E2,9.716306E0,3.0884158E2,1.9058725E1,6.1892868E1,8.574141E1,5.060542E1,2.5633395E2,5.999997E0],"tree_param":{"num_deleted":"0","num_feature":"16","num_nodes":"15","size_leaf_vector":"0"}},{"base_weights":[-9.376293E-2,-1.4237942E0,1.2386129E0,-1.6375325E0,-5.7333463E-1,4.876667E-1,1.4134214E0,-1.7685307E0,-1.3989215E0,1.7145596E0,-1.2933934E0,1.7519877E0,-3.326506E-1,1.4539204E0,-9.766399E-4],"categories":[],"categories_nodes":[],"categories_segments":[],"categories_sizes":[],"default_left":[true,true,true,true,true,true,true,false,false,false,false,false,false,false,false],"id":12,"left_children":[1,3,5,7,9,11,13,-1,-1,-1,-1,-1,-1,-1,-1],"loss_changes":[1.4161455E3,7.175073E1,5.1721375E1,7.498169E0,1.3706476E2,8.035672E1,1.8522583E1,0E0,0E0,0E0,0E0,0E0,0E0,0E0,0E0],"parents":[2147483647,0,0,1,1,2,2,3,3,4,4,5,5,6,6],"right_children":[2,4,6,8,10,12,14,-1,-1,-1,-1,-1,-1,-1,-1],"split_conditions":[3.0208168E0,2.0006652E0,4.005841E0,7.95E1,2.998103E0,3.9898903E0,1.95E1,-1.7685307E-2,-1.3989215E-2,1.7145595E-2,-1.2933933E-2,1.7519876E-2,-3.326506E-3,1.4539204E-2,-9.766399E-6],"split_indices":[1,1,1,11,1,1,5,0,0,0,0,0,0,0,0],"split_type":[0,0,0,0,0,0,0,0,0,0,0,0,0,0,0],"sum_hessian":[7.971383E2,3.988858E2,3.982525E2,3.1803217E2,8.085363E1,7.591689E1,3.223356E2,2.0117484E2,1.1685733E2,1.9024519E1,6.1829113E1,2.9426817E1,4.6490074E1,3.1333582E2,8.999786E0],"tree_param":{"num_deleted":"0","num_feature":"16","num_nodes":"15","size_leaf_vector":"0"}},{"base_weights":[-9.296E-2,-1.4119868E0,1.2278208E0,-1.624125E0,-5.682799E-1,7.238426E-1,1.4863503E0,-6.6710645E-1,-1.6520365E0,1.7013993E0,-1.2820655E0,1.2278755E0,-1.3617419E-1,1.5249337E0,-1.404061E-1],"categories":[],"categories_nodes":[],"categories_segments":[],"categories_sizes":[],"default_left":[true,true,true,true,true,true,true,false,false,false,false,false,false,false,false],"id":13,"left_children":[1,3,5,7,9,11,13,-1,-1,-1,-1,-1,-1,-1,-1],"loss_changes":[1.39019E3,7.0530396E1,5.0879883E1,7.404907E0,1.3461946E2,5.9618423E1,1.6697144E1,0E0,0E0,0E0,0E0,0E0,0E0,0E0,0E0],"parents":[2147483647,0,0,1,1,2,2,3,3,4,4,5,5,6,6],"right_children":[2,4,6,8,10,12,14,-1,-1,-1,-1,-1,-1,-1,-1],"split_conditions":[3.0208168E0,2.0006652E0,2.0001864E0,2.9904615E-2,2.998103E0,3.2778144E-2,1.95E1,-6.6710645E-3,-1.6520364E-2,1.7013993E-2,-1.2820655E-2,1.2278754E-2,-1.3617418E-3,1.5249337E-2,-1.404061E-3],"split_indices":[1,1,2,8,1,8,5,0,0,0,0,0,0,0,0],"split_type":[0,0,0,0,0,0,0,0,0,0,0,0,0,0,0],"sum_hessian":[7.959807E2,3.9822025E2,3.977605E2,3.1747153E2,8.07487E1,1.3614972E2,2.6161078E2,9.702347E0,3.077692E2,1.8987871E1,6.176083E1,8.5571075E1,5.0578648E1,2.5561078E2,5.9999876E0],"tree_param":{"num_deleted":"0","num_feature":"16","num_nodes":"15","size_leaf_vector":"0"}},{"base_weights":[-9.2163704E-2,-1.4004196E0,1.2171088E0,-1.6110013E0,-5.63317E-1,4.7680423E-1,1.3897011E0,-1.7415297E0,-1.3735454E0,1.6885489E0,-1.270928E0,1.7295514E0,-3.3339038E-1,1.4296463E0,-1.42148E-3],"categories":[],"categories_nodes":[],"categories_segments":[],"categories_sizes":[],"default_left":[true,true,true,true,true,true,true,false,false,false,false,false,false,false,false],"id":14,"left_children":[1,3,5,7,9,11,13,-1,-1,-1,-1,-1,-1,-1,-1],"loss_changes":[1.3647675E3,6.934119E1,5.0224792E1,7.460266E0,1.3223015E2,7.854584E1,1.7920166E1,0E0,0E0,0E0,0E0,0E0,0E0,0E0,0E0],"parents":[2147483647,0,0,1,1,2,2,3,3,4,4,5,5,6,6],"right_children":[2,4,6,8,10,12,14,-1,-1,-1,-1,-1,-1,-1,-1],"split_conditions":[3.0208168E0,2.0006652E0,4.005841E0,7.95E1,2.998103E0,3.9898903E0,1.95E1,-1.7415296E-2,-1.3735454E-2,1.688549E-2,-1.270928E-2,1.7295513E-2,-3.3339038E-3,1.4296462E-2,-1.4214799E-5],"split_indices":[1,1,1,11,1,1,5,0,0,0,0,0,0,0,0],"split_type":[0,0,0,0,0,0,0,0,0,0,0,0,0,0,0],"sum_hessian":[7.947803E2,3.9750967E2,3.9727063E2,3.1687265E2,8.0637024E1,7.581931E1,3.214513E2,2.0038672E2,1.1648594E2,1.8948858E1,6.1688164E1,2.9331436E1,4.648788E1,3.1245178E2,8.999528E0],"tree_param":{"num_deleted":"0","num_feature":"16","num_nodes":"15","size_leaf_vector":"0"}},{"base_weights":[-9.139157E-2,-1.3891089E0,1.2066919E0,-1.5981792E0,-5.5844307E-1,7.095435E-1,1.4621156E0,-1.7280428E0,-1.3620915E0,1.6759971E0,-1.2599751E0,1.2078152E0,-1.3913837E-1,1.5002211E0,-1.3919072E-1],"categories":[],"categories_nodes":[],"categories_segments":[],"categories_sizes":[],"default_left":[true,true,true,true,true,true,true,false,false,false,false,false,false,false,false],"id":15,"left_children":[1,3,5,7,9,11,13,-1,-1,-1,-1,-1,-1,-1,-1],"loss_changes":[1.3400114E3,6.818561E1,4.946631E1,7.3726196E0,1.2989499E2,5.807174E1,1.61828E1,0E0,0E0,0E0,0E0,0E0,0E0,0E0,0E0],"parents":[2147483647,0,0,1,1,2,2,3,3,4,4,5,5,6,6],"right_children":[2,4,6,8,10,12,14,-1,-1,-1,-1,-1,-1,-1,-1],"split_conditions":[3.0208168E0,2.0006652E0,2.0001864E0,7.95E1,2.998103E0,3.2778144E-2,1.95E1,-1.7280428E-2,-1.3620915E-2,1.6759971E-2,-1.259975E-2,1.2078151E-2,-1.3913837E-3,1.5002211E-2,-1.3919071E-3],"split_indices":[1,1,2,11,1,8,5,0,0,0,0,0,0,0,0],"split_type":[0,0,0,0,0,0,0,0,0,0,0,0,0,0,0],"sum_hessian":[7.934786E2,3.967602E2,3.9671838E2,3.1624136E2,8.051881E1,1.3592888E2,2.6078952E2,1.9994121E2,1.1630017E2,1.8907557E1,6.161125E1,8.537878E1,5.0550106E1,2.5478954E2,5.999973E0],"tree_param":{"num_deleted":"0","num_feature":"16","num_nodes":"15","size_leaf_vector":"0"}},{"base_weights":[-9.063518E-2,-1.3780342E0,1.1963432E0,-1.5856359E0,-5.536551E-1,4.6624625E-1,1.3668449E0,-6.354329E-1,-1.613517E0,1.6637341E0,-1.2492007E0,1.7080683E0,-3.3403486E-1,1.40627E0,-1.8393667E-3],"categories":[],"categories_nodes":[],"categories_segments":[],"categories_sizes":[],"default_left":[true,true,true,true,true,true,true,false,false,false,false,false,false,false,false],"id":16,"left_children":[1,3,5,7,9,11,13,-1,-1,-1,-1,-1,-1,-1,-1],"loss_changes":[1.3157687E3,6.706061E1,4.880365E1,7.3617554E0,1.2761239E2,7.6805695E1,1.7348816E1,0E0,0E0,0E0,0E0,0E0,0E0,0E0,0E0],"parents":[2147483647,0,0,1,1,2,2,3,3,4,4,5,5,6,6],"right_children":[2,4,6,8,10,12,14,-1,-1,-1,-1,-1,-1,-1,-1],"split_conditions":[3.0208168E0,2.0006652E0,4.005841E0,2.9904615E-2,2.998103E0,3.9898903E0,1.95E1,-6.3543287E-3,-1.613517E-2,1.663734E-2,-1.2492007E-2,1.7080681E-2,-3.3403486E-3,1.40627E-2,-1.8393666E-5],"split_indices":[1,1,1,8,1,1,5,0,0,0,0,0,0,0,0],"split_type":[0,0,0,0,0,0,0,0,0,0,0,0,0,0,0],"sum_hessian":[7.921414E2,3.9597058E2,3.961708E2,3.155763E2,8.0394295E1,7.571023E1,3.2046057E2,9.673987E0,3.059023E2,1.8864038E1,6.153026E1,2.9225595E1,4.6484634E1,3.114614E2,8.999173E0],"tree_param":{"num_deleted":"0","num_feature":"16","num_nodes":"15","size_leaf_vector":"0"}},{"base_weights":[-8.988172E-2,-1.3671736E0,1.1862783E0,-1.5733446E0,-5.489503E-1,6.9563806E-1,1.4388014E0,-1.702944E0,-1.3380814E0,1.6517502E0,-1.2385997E0,1.1883883E0,-1.4197828E-1,1.4764612E0,-1.379825E-1],"categories":[],"categories_nodes":[],"categories_segments":[],"categories_sizes":[],"default_left":[true,true,true,true,true,true,true,false,false,false,false,false,false,false,false],"id":17,"left_children":[1,3,5,7,9,11,13,-1,-1,-1,-1,-1,-1,-1,-1],"loss_changes":[1.2921199E3,6.596283E1,4.8132324E1,7.352417E0,1.25380684E2,5.658383E1,1.5694946E1,0E0,0E0,0E0,0E0,0E0,0E0,0E0,0E0],"parents":[2147483647,0,0,1,1,2,2,3,3,4,4,5,5,6,6],"right_children":[2,4,6,8,10,12,14,-1,-1,-1,-1,-1,-1,-1,-1],"split_conditions":[3.0208168E0,2.0006652E0,2.0001864E0,7.95E1,2.998103E0,3.2778144E-2,1.95E1,-1.702944E-2,-1.3380813E-2,1.6517501E-2,-1.2385996E-2,1.1883883E-2,-1.4197828E-3,1.4764612E-2,-1.379825E-3],"split_indices":[1,1,2,11,1,8,5,0,0,0,0,0,0,0,0],"split_type":[0,0,0,0,0,0,0,0,0,0,0,0,0,0,0],"sum_hessian":[7.9070264E2,3.9514044E2,3.9556216E2,3.1487677E2,8.026367E1,1.3568578E2,2.598764E2,1.9900978E2,1.1586698E2,1.8818375E1,6.1445297E1,8.5165886E1,5.0519894E1,2.5387643E2,5.9999514E0],"tree_param":{"num_deleted":"0","num_feature":"16","num_nodes":"15","size_leaf_vector":"0"}},{"base_weights":[-8.9153334E-2,-1.3565466E0,1.176271E0,-1.5613284E0,-5.4432636E-1,4.559793E-1,1.3447981E0,-6.1740476E-1,-1.5891392E0,1.6400366E0,-1.2281672E0,1.6874824E0,-3.3458805E-1,1.3837347E0,-2.230937E-3],"categories":[],"categories_nodes":[],"categories_segments":[],"categories_sizes":[],"default_left":[true,true,true,true,true,true,true,false,false,false,false,false,false,false,false],"id":18,"left_children":[1,3,5,7,9,11,13,-1,-1,-1,-1,-1,-1,-1,-1],"loss_changes":[1.2689679E3,6.4895386E1,4.7451904E1,7.291931E0,1.23198425E2,7.513186E1,1.6806152E1,0E0,0E0,0E0,0E0,0E0,0E0,0E0,0E0],"parents":[2147483647,0,0,1,1,2,2,3,3,4,4,5,5,6,6],"right_children":[2,4,6,8,10,12,14,-1,-1,-1,-1,-1,-1,-1,-1],"split_conditions":[3.0208168E0,2.0006652E0,4.005841E0,2.9904615E-2,2.998103E0,3.9898903E0,1.95E1,-6.1740475E-3,-1.5891392E-2,1.6400365E-2,-1.2281671E-2,1.6874824E-2,-3.3458804E-3,1.3837347E-2,-2.2309368E-5],"split_indices":[1,1,1,8,1,1,5,0,0,0,0,0,0,0,0],"split_type":[0,0,0,0,0,0,0,0,0,0,0,0,0,0,0],"sum_hessian":[7.8923566E2,3.9427505E2,3.9496057E2,3.1414792E2,8.0127144E1,7.559029E1,3.1937027E2,9.654814E0,3.044931E2,1.8770638E1,6.1356506E1,2.9109915E1,4.6480373E1,3.1037155E2,8.998728E0],"tree_param":{"num_deleted":"0","num_feature":"16","num_nodes":"15","size_leaf_vector":"0"}},{"base_weights":[-8.8426776E-2,-1.3461188E0,1.1665376E0,-1.549547E0,-5.3978056E-1,6.8210715E-1,1.416349E0,-1.6789966E0,-1.3149236E0,1.6285837E0,-1.2178978E0,1.169559E0,-1.4469859E-1,1.4535931E0,-1.3678119E-1],"categories":[],"categories_nodes":[],"categories_segments":[],"categories_sizes":[],"default_left":[true,true,true,true,true,true,true,false,false,false,false,false,false,false,false],"id":19,"left_children":[1,3,5,7,9,11,13,-1,-1,-1,-1,-1,-1,-1,-1],"loss_changes":[1.2463756E3,6.385309E1,4.687152E1,7.3408203E0,1.2106409E2,5.5151028E1,1.5231445E1,0E0,0E0,0E0,0E0,0E0,0E0,0E0,0E0],"parents":[2147483647,0,0,1,1,2,2,3,3,4,4,5,5,6,6],"right_children":[2,4,6,8,10,12,14,-1,-1,-1,-1,-1,-1,-1,-1],"split_conditions":[3.0208168E0,2.0006652E0,2.0001864E0,7.95E1,2.998103E0,3.2778144E-2,1.95E1,-1.6789965E-2,-1.3149236E-2,1.6285837E-2,-1.2178977E-2,1.169559E-2,-1.4469859E-3,1.4535931E-2,-1.3678118E-3],"split_indices":[1,1,2,11,1,8,5,0,0,0,0,0,0,0,0],"split_type":[0,0,0,0,0,0,0,0,0,0,0,0,0,0,0],"sum_hessian":[7.876708E2,3.933716E2,3.942992E2,3.133867E2,7.998491E1,1.3542178E2,2.588774E2,1.9799174E2,1.1539495E2,1.8720896E1,6.126401E1,8.49337E1,5.048809E1,2.5287749E2,5.9999247E0],"tree_param":{"num_deleted":"0","num_feature":"16","num_nodes":"15","size_leaf_vector":"0"}},{"base_weights":[-8.772452E-2,-1.3359102E0,1.1568512E0,-1.5380231E0,-5.3531075E-1,6.759089E-1,1.4051843E0,-1.666998E0,-1.3044701E0,1.6173832E0,-1.2077873E0,1.1595138E0,-1.4327398E-1,1.4422112E0,-1.3560943E-1],"categories":[],"categories_nodes":[],"categories_segments":[],"categories_sizes":[],"default_left":[true,true,true,true,true,true,true,false,false,false,false,false,false,false,false],"id":20,"left_children":[1,3,5,7,9,11,13,-1,-1,-1,-1,-1,-1,-1,-1],"loss_changes":[1.2242482E3,6.283905E1,4.618445E1,7.2717896E0,1.1897626E2,5.4167683E1,1.4990845E1,0E0,0E0,0E0,0E0,0E0,0E0,0E0,0E0],"parents":[2147483647,0,0,1,1,2,2,3,3,4,4,5,5,6,6],"right_children":[2,4,6,8,10,12,14,-1,-1,-1,-1,-1,-1,-1,-1],"split_conditions":[3.0208168E0,2.0006652E0,2.0001864E0,7.95E1,2.998103E0,3.2778144E-2,1.95E1,-1.666998E-2,-1.30447E-2,1.6173832E-2,-1.2077873E-2,1.1595138E-2,-1.4327398E-3,1.4422111E-2,-1.3560943E-3],"split_indices":[1,1,2,11,1,8,5,0,0,0,0,0,0,0,0],"split_type":[0,0,0,0,0,0,0,0,0,0,0,0,0,0,0],"sum_hessian":[7.860826E2,3.924355E2,3.9364713E2,3.125983E2,7.9837166E1,1.353122E2,2.5833493E2,1.9743265E2,1.1516565E2,1.8669212E1,6.1167953E1,8.482203E1,5.049016E1,2.5233505E2,5.999893E0],"tree_param":{"num_deleted":"0","num_feature":"16","num_nodes":"15","size_leaf_vector":"0"}},{"base_weights":[-8.7034635E-2,-1.3259012E0,1.1473215E0,-1.5267342E0,-5.3091425E-1,4.4000006E-1,1.3133589E0,-5.876252E-1,-1.5545903E0,1.6064278E0,-1.1978307E0,1.6603614E0,-3.3875844E-1,1.3639821E0,2.818721E-1],"categories":[],"categories_nodes":[],"categories_segments":[],"categories_sizes":[],"default_left":[true,true,true,true,true,true,true,false,false,false,false,false,false,false,false],"id":21,"left_children":[1,3,5,7,9,11,13,-1,-1,-1,-1,-1,-1,-1,-1],"loss_changes":[1.2026116E3,6.1850403E1,4.5690735E1,7.268799E0,1.1693365E2,7.317325E1,1.6250244E1,0E0,0E0,0E0,0E0,0E0,0E0,0E0,0E0],"parents":[2147483647,0,0,1,1,2,2,3,3,4,4,5,5,6,6],"right_children":[2,4,6,8,10,12,14,-1,-1,-1,-1,-1,-1,-1,-1],"split_conditions":[3.0208168E0,2.0006652E0,4.005841E0,2.9904615E-2,2.998103E0,3.9898903E0,1.442221E-1,-5.876252E-3,-1.5545903E-2,1.6064277E-2,-1.1978307E-2,1.6603613E-2,-3.3875844E-3,1.3639821E-2,2.8187209E-3],"split_indices":[1,1,1,8,1,1,9,0,0,0,0,0,0,0,0],"split_type":[0,0,0,0,0,0,0,0,0,0,0,0,0,0,0],"sum_hessian":[7.8443585E2,3.9146564E2,3.9297025E2,3.1178152E2,7.96841E1,7.540291E1,3.1756732E2,9.618215E0,3.0216333E2,1.861566E1,6.106844E1,2.8932259E1,4.647065E1,3.0240363E2,1.5163693E1],"tree_param":{"num_deleted":"0","num_feature":"16","num_nodes":"15","size_leaf_vector":"0"}},{"base_weights":[-8.6339794E-2,-1.3160698E0,1.1380024E0,-1.5156544E0,-5.2658916E-1,6.629218E-1,1.3838525E0,-1.6446536E0,-1.2824655E0,1.5957085E0,-1.1880236E0,1.1416829E0,-1.4607403E-1,1.4208056E0,-1.453639E-1],"categories":[],"categories_nodes":[],"categories_segments":[],"categories_sizes":[],"default_left":[true,true,true,true,true,true,true,false,false,false,false,false,false,false,false],"id":22,"left_children":[1,3,5,7,9,11,13,-1,-1,-1,-1,-1,-1,-1,-1],"loss_changes":[1.1814695E3,6.088379E1,4.501425E1,7.27417E0,1.1493482E2,5.285193E1,1.4798828E1,0E0,0E0,0E0,0E0,0E0,0E0,0E0,0E0],"parents":[2147483647,0,0,1,1,2,2,3,3,4,4,5,5,6,6],"right_children":[2,4,6,8,10,12,14,-1,-1,-1,-1,-1,-1,-1,-1],"split_conditions":[3.0208168E0,2.0006652E0,2.0001864E0,7.95E1,2.998103E0,3.2778144E-2,1.95E1,-1.6446535E-2,-1.2824655E-2,1.5957085E-2,-1.1880236E-2,1.1416828E-2,-1.4607402E-3,1.4208055E-2,-1.4536389E-3],"split_indices":[1,1,2,11,1,8,5,0,0,0,0,0,0,0,0],"split_type":[0,0,0,0,0,0,0,0,0,0,0,0,0,0,0],"sum_hessian":[7.8271655E2,3.9046167E2,3.9225485E2,3.109358E2,7.9525894E1,1.3502638E2,2.572285E2,1.9629391E2,1.1464185E2,1.8560297E1,6.0965595E1,8.456805E1,5.0458332E1,2.5122852E2,5.999974E0],"tree_param":{"num_deleted":"0","num_feature":"16","num_nodes":"15","size_leaf_vector":"0"}},{"base_weights":[-8.5673936E-2,-1.3064398E0,1.1287644E0,-1.5048112E0,-5.223331E-1,4.304068E-1,1.2930615E0,-1.6334385E0,-1.2725333E0,1.5852188E0,-1.1783619E0,1.6417423E0,-3.3907983E-1,1.3434575E0,2.6884714E-1],"categories":[],"categories_nodes":[],"categories_segments":[],"categories_sizes":[],"default_left":[true,true,true,true,true,true,true,false,false,false,false,false,false,false,false],"id":23,"left_children":[1,3,5,7,9,11,13,-1,-1,-1,-1,-1,-1,-1,-1],"loss_changes":[1.1607673E3,5.9942932E1,4.4481964E1,7.21521E0,1.1297865E2,7.163811E1,1.601532E1,0E0,0E0,0E0,0E0,0E0,0E0,0E0,0E0],"parents":[2147483647,0,0,1,1,2,2,3,3,4,4,5,5,6,6],"right_children":[2,4,6,8,10,12,14,-1,-1,-1,-1,-1,-1,-1,-1],"split_conditions":[3.0208168E0,2.0006652E0,4.005841E0,7.95E1,2.998103E0,3.9898903E0,1.442221E-1,-1.6334385E-2,-1.2725333E-2,1.5852187E-2,-1.17836185E-2,1.6417423E-2,-3.390798E-3,1.3434574E-2,2.6884712E-3],"split_indices":[1,1,1,11,1,1,9,0,0,0,0,0,0,0,0],"split_type":[0,0,0,0,0,0,0,0,0,0,0,0,0,0,0],"sum_hessian":[7.8096136E2,3.8942828E2,3.9153305E2,3.1006555E2,7.936273E1,7.52589E1,3.1627417E2,1.9567523E2,1.1439034E2,1.8503185E1,6.0859543E1,2.8795347E1,4.6463554E1,3.0114478E2,1.5129371E1],"tree_param":{"num_deleted":"0","num_feature":"16","num_nodes":"15","size_leaf_vector":"0"}},{"base_weights":[-8.5012354E-2,-1.2969904E0,1.1197307E0,-1.4941804E0,-5.1814413E-1,6.5026647E-1,1.3632522E0,-5.5887717E-1,-1.5221206E0,1.5749512E0,-1.1688415E0,1.1243647E0,-1.4875932E-1,1.4001495E0,-1.5487252E-1],"categories":[],"categories_nodes":[],"categories_segments":[],"categories_sizes":[],"default_left":[true,true,true,true,true,true,true,false,false,false,false,false,false,false,false],"id":24,"left_children":[1,3,5,7,9,11,13,-1,-1,-1,-1,-1,-1,-1,-1],"loss_changes":[1.1405494E3,5.902472E1,4.3902893E1,7.254822E0,1.1106389E2,5.158141E1,1.46154175E1,0E0,0E0,0E0,0E0,0E0,0E0,0E0,0E0],"parents":[2147483647,0,0,1,1,2,2,3,3,4,4,5,5,6,6],"right_children":[2,4,6,8,10,12,14,-1,-1,-1,-1,-1,-1,-1,-1],"split_conditions":[3.0208168E0,2.0006652E0,2.0001864E0,2.9904615E-2,2.998103E0,3.2778144E-2,1.95E1,-5.588772E-3,-1.5221206E-2,1.5749512E-2,-1.1688415E-2,1.1243647E-2,-1.4875932E-3,1.4001494E-2,-1.5487252E-3],"split_indices":[1,1,2,8,1,8,5,0,0,0,0,0,0,0,0],"split_type":[0,0,0,0,0,0,0,0,0,0,0,0,0,0,0],"sum_hessian":[7.791383E2,3.8836472E2,3.907736E2,3.0916992E2,7.9194786E1,1.34723E2,2.560506E2,9.577083E0,2.9959283E2,1.8444391E1,6.0750397E1,8.429801E1,5.0425003E1,2.5005093E2,5.9996524E0],"tree_param":{"num_deleted":"0","num_feature":"16","num_nodes":"15","size_leaf_vector":"0"}},{"base_weights":[-8.435867E-2,-1.2877003E0,1.1107682E0,-1.4837366E0,-5.1402026E-1,4.2106432E-1,1.2734123E0,-1.6125466E0,-1.2515751E0,1.5648986E0,-1.1594583E0,1.6238571E0,-3.3932087E-1,1.3236078E0,2.5610682E-1],"categories":[],"categories_nodes":[],"categories_segments":[],"categories_sizes":[],"default_left":[true,true,true,true,true,true,true,false,false,false,false,false,false,false,false],"id":25,"left_children":[1,3,5,7,9,11,13,-1,-1,-1,-1,-1,-1,-1,-1],"loss_changes":[1.1207114E3,5.81261E1,4.3325897E1,7.2297363E0,1.0918935E2,7.01566E1,1.5792297E1,0E0,0E0,0E0,0E0,0E0,0E0,0E0,0E0],"parents":[2147483647,0,0,1,1,2,2,3,3,4,4,5,5,6,6],"right_children":[2,4,6,8,10,12,14,-1,-1,-1,-1,-1,-1,-1,-1],"split_conditions":[3.0208168E0,2.0006652E0,4.005841E0,7.95E1,2.998103E0,3.9898903E0,1.442221E-1,-1.6125465E-2,-1.2515751E-2,1.5648985E-2,-1.1594582E-2,1.623857E-2,-3.3932086E-3,1.32360775E-2,2.5610682E-3],"split_indices":[1,1,1,11,1,1,9,0,0,0,0,0,0,0,0],"split_type":[0,0,0,0,0,0,0,0,0,0,0,0,0,0,0],"sum_hessian":[7.772806E2,3.872706E2,3.9001E2,3.0824835E2,7.902224E1,7.510613E1,3.1490387E2,1.9442819E2,1.1382016E2,1.8383968E1,6.063827E1,2.8650545E1,4.645559E1,2.998097E2,1.5094172E1],"tree_param":{"num_deleted":"0","num_feature":"16","num_nodes":"15","size_leaf_vector":"0"}},{"base_weights":[-8.371895E-2,-1.2785952E0,1.1020035E0,-1.4735103E0,-5.099597E-1,6.379282E-1,1.3433397E0,-5.4257977E-1,-1.5014564E0,1.5550549E0,-1.1502087E0,1.1075326E0,-1.5133463E-1,1.380198E0,-1.6414349E-1],"categories":[],"categories_nodes":[],"categories_segments":[],"categories_sizes":[],"default_left":[true,true,true,true,true,true,true,false,false,false,false,false,false,false,false],"id":26,"left_children":[1,3,5,7,9,11,13,-1,-1,-1,-1,-1,-1,-1,-1],"loss_changes":[1.1013488E3,5.7250916E1,4.2845825E1,7.2061157E0,1.0735391E2,5.0353657E1,1.4439972E1,0E0,0E0,0E0,0E0,0E0,0E0,0E0,0E0],"parents":[2147483647,0,0,1,1,2,2,3,3,4,4,5,5,6,6],"right_children":[2,4,6,8,10,12,14,-1,-1,-1,-1,-1,-1,-1,-1],"split_conditions":[3.0208168E0,2.0006652E0,2.0001864E0,2.9904615E-2,2.998103E0,3.2778144E-2,1.95E1,-5.425798E-3,-1.5014564E-2,1.5550549E-2,-1.1502087E-2,1.1075326E-2,-1.5133462E-3,1.380198E-2,-1.6414349E-3],"split_indices":[1,1,2,8,1,8,5,0,0,0,0,0,0,0,0],"split_type":[0,0,0,0,0,0,0,0,0,0,0,0,0,0,0],"sum_hessian":[7.753596E2,3.8615012E2,3.892095E2,3.0730487E2,7.8845245E1,1.3440324E2,2.5480627E2,9.551271E0,2.977536E2,1.832198E1,6.0523266E1,8.4013E1,5.039025E1,2.4880731E2,5.998958E0],"tree_param":{"num_deleted":"0","num_feature":"16","num_nodes":"15","size_leaf_vector":"0"}},{"base_weights":[-8.308639E-2,-1.2696384E0,1.0933012E0,-1.4634582E0,-5.0596035E-1,6.3225937E-1,1.3334467E0,-1.5925395E0,-1.2312741E0,1.5454136E0,-1.1410888E0,1.0983822E0,-1.4984378E-1,1.3701266E0,-1.6273373E-1],"categories":[],"categories_nodes":[],"categories_segments":[],"categories_sizes":[],"default_left":[true,true,true,true,true,true,true,false,false,false,false,false,false,false,false],"id":27,"left_children":[1,3,5,7,9,11,13,-1,-1,-1,-1,-1,-1,-1,-1],"loss_changes":[1.0823419E3,5.639386E1,4.2270966E1,7.250244E0,1.0555653E2,4.9477165E1,1.4224976E1,0E0,0E0,0E0,0E0,0E0,0E0,0E0,0E0],"parents":[2147483647,0,0,1,1,2,2,3,3,4,4,5,5,6,6],"right_children":[2,4,6,8,10,12,14,-1,-1,-1,-1,-1,-1,-1,-1],"split_conditions":[3.0208168E0,2.0006652E0,2.0001864E0,7.95E1,2.998103E0,3.2778144E-2,1.95E1,-1.5925394E-2,-1.2312741E-2,1.5454136E-2,-1.1410888E-2,1.0983822E-2,-1.4984378E-3,1.3701266E-2,-1.6273373E-3],"split_indices":[1,1,2,11,1,8,5,0,0,0,0,0,0,0,0],"split_type":[0,0,0,0,0,0,0,0,0,0,0,0,0,0,0],"sum_hessian":[7.734082E2,3.850012E2,3.8840704E2,3.0633722E2,7.866397E1,1.3426744E2,2.5413959E2,1.9311629E2,1.1322092E2,1.8258478E1,6.0405495E1,8.38748E1,5.039264E1,2.4814052E2,5.999076E0],"tree_param":{"num_deleted":"0","num_feature":"16","num_nodes":"15","size_leaf_vector":"0"}},{"base_weights":[-8.247403E-2,-1.2608563E0,1.0847268E0,-1.453611E0,-5.020206E-1,4.0644756E-1,1.2453173E0,-1.582467E0,-1.2221167E0,1.5359684E0,-1.1320953E0,1.6003609E0,-3.4293905E-1,1.2954395E0,2.3355798E-1],"categories":[],"categories_nodes":[],"categories_segments":[],"categories_sizes":[],"default_left":[true,true,true,true,true,true,true,false,false,false,false,false,false,false,false],"id":28,"left_children":[1,3,5,7,9,11,13,-1,-1,-1,-1,-1,-1,-1,-1],"loss_changes":[1.0637516E3,5.5558716E1,4.1820587E1,7.2042847E0,1.0379614E2,6.843351E1,1.5606201E1,0E0,0E0,0E0,0E0,0E0,0E0,0E0,0E0],"parents":[2147483647,0,0,1,1,2,2,3,3,4,4,5,5,6,6],"right_children":[2,4,6,8,10,12,14,-1,-1,-1,-1,-1,-1,-1,-1],"split_conditions":[3.0208168E0,2.0006652E0,4.005841E0,7.95E1,2.998103E0,3.9898903E0,1.442221E-1,-1.582467E-2,-1.2221167E-2,1.5359684E-2,-1.1320953E-2,1.6003609E-2,-3.4293905E-3,1.2954394E-2,2.3355798E-3],"split_indices":[1,1,1,11,1,1,9,0,0,0,0,0,0,0,0],"split_type":[0,0,0,0,0,0,0,0,0,0,0,0,0,0,0],"sum_hessian":[7.7141315E2,3.83828E2,3.8758517E2,3.0534943E2,7.847858E1,7.487401E1,3.1271115E2,1.9241193E2,1.129375E2,1.8193521E1,6.0285053E1,2.8435448E1,4.6438557E1,2.9768365E2,1.5027503E1],"tree_param":{"num_deleted":"0","num_feature":"16","num_nodes":"15","size_leaf_vector":"0"}},{"base_weights":[-8.18645E-2,-1.2522286E0,1.0763346E0,-1.4439455E0,-4.9813873E-1,6.203678E-1,1.3144938E0,-5.1533926E-1,-1.4720359E0,1.5267136E0,-1.1232247E0,1.0822341E0,-1.5227088E-1,1.3511599E0,-1.7170711E-1],"categories":[],"categories_nodes":[],"categories_segments":[],"categories_sizes":[],"default_left":[true,true,true,true,true,true,true,false,false,false,false,false,false,false,false],"id":29,"left_children":[1,3,5,7,9,11,13,-1,-1,-1,-1,-1,-1,-1,-1],"loss_changes":[1.0455818E3,5.4742798E1,4.1289154E1,7.2061768E0,1.0207175E2,4.8314064E1,1.4062622E1,0E0,0E0,0E0,0E0,0E0,0E0,0E0,0E0],"parents":[2147483647,0,0,1,1,2,2,3,3,4,4,5,5,6,6],"right_children":[2,4,6,8,10,12,14,-1,-1,-1,-1,-1,-1,-1,-1],"split_conditions":[3.0208168E0,2.0006652E0,2.0001864E0,2.9904615E-2,2.998103E0,3.2778144E-2,1.95E1,-5.1533924E-3,-1.4720359E-2,1.5267136E-2,-1.1232247E-2,1.0822341E-2,-1.5227088E-3,1.3511599E-2,-1.717071E-3],"split_indices":[1,1,2,8,1,8,5,0,0,0,0,0,0,0,0],"split_type":[0,0,0,0,0,0,0,0,0,0,0,0,0,0,0],"sum_hessian":[7.693598E2,3.8262985E2,3.8672995E2,3.0434064E2,7.8289215E1,1.3392639E2,2.5280354E2,9.504017E0,2.948366E2,1.8127165E1,6.0162052E1,8.356962E1,5.0356773E1,2.4680545E2,5.9980955E0],"tree_param":{"num_deleted":"0","num_feature":"16","num_nodes":"15","size_leaf_vector":"0"}},{"base_weights":[-8.126115E-2,-1.2437341E0,1.0679995E0,-1.4344358E0,-4.9431297E-1,3.9768848E-1,1.2271296E0,-1.563701E0,-1.2027086E0,1.5176437E0,-1.1144736E0,1.5840927E0,-3.4297445E-1,1.2771082E0,2.2152115E-1],"categories":[],"categories_nodes":[],"categories_segments":[],"categories_sizes":[],"default_left":[true,true,true,true,true,true,true,false,false,false,false,false,false,false,false],"id":30,"left_children":[1,3,5,7,9,11,13,-1,-1,-1,-1,-1,-1,-1,-1],"loss_changes":[1.0277382E3,5.394287E1,4.0778503E1,7.234741E0,1.00382385E2,6.706459E1,1.5406494E1,0E0,0E0,0E0,0E0,0E0,0E0,0E0,0E0],"parents":[2147483647,0,0,1,1,2,2,3,3,4,4,5,5,6,6],"right_children":[2,4,6,8,10,12,14,-1,-1,-1,-1,-1,-1,-1,-1],"split_conditions":[3.0208168E0,2.0006652E0,4.005841E0,7.95E1,2.998103E0,3.9898903E0,1.442221E-1,-1.563701E-2,-1.2027086E-2,1.5176437E-2,-1.1144736E-2,1.5840927E-2,-3.4297444E-3,1.2771081E-2,2.2152115E-3],"split_indices":[1,1,1,11,1,1,9,0,0,0,0,0,0,0,0],"split_type":[0,0,0,0,0,0,0,0,0,0,0,0,0,0,0],"sum_hessian":[7.6727985E2,3.8140643E2,3.858734E2,3.0331036E2,7.8096054E1,7.470199E1,3.1117142E2,1.9101036E2,1.1230001E2,1.8059458E1,6.0036594E1,2.8273829E1,4.642816E1,2.9618127E2,1.4990141E1],"tree_param":{"num_deleted":"0","num_feature":"16","num_nodes":"15","size_leaf_vector":"0"}},{"base_weights":[-8.0670446E-2,-1.2354009E0,1.0598414E0,-1.425116E0,-4.9054202E-1,6.087601E-1,1.2961327E0,-1.5542364E0,-1.1939586E0,1.5087531E0,-1.1058391E0,1.0665118E0,-1.5459757E-1,1.3327996E0,-1.8045986E-1],"categories":[],"categories_nodes":[],"categories_segments":[],"categories_sizes":[],"default_left":[true,true,true,true,true,true,true,false,false,false,false,false,false,false,false],"id":31,"left_children":[1,3,5,7,9,11,13,-1,-1,-1,-1,-1,-1,-1,-1],"loss_changes":[1.01031067E3,5.3163208E1,4.0351685E1,7.195801E0,9.872714E1,4.7187992E1,1.3906616E1,0E0,0E0,0E0,0E0,0E0,0E0,0E0,0E0],"parents":[2147483647,0,0,1,1,2,2,3,3,4,4,5,5,6,6],"right_children":[2,4,6,8,10,12,14,-1,-1,-1,-1,-1,-1,-1,-1],"split_conditions":[3.0208168E0,2.0006652E0,2.0001864E0,7.95E1,2.998103E0,3.2778144E-2,1.95E1,-1.5542364E-2,-1.1939586E-2,1.508753E-2,-1.1058391E-2,1.0665117E-2,-1.5459756E-3,1.3327995E-2,-1.8045985E-3],"split_indices":[1,1,2,11,1,8,5,0,0,0,0,0,0,0,0],"split_type":[0,0,0,0,0,0,0,0,0,0,0,0,0,0,0],"sum_hessian":[7.6514557E2,3.8016147E2,3.849841E2,3.0226224E2,7.789922E1,1.3357156E2,2.5141252E2,1.9026163E2,1.1200062E2,1.7990458E1,5.9908768E1,8.3251945E1,5.0319622E1,2.4541573E2,5.996799E0],"tree_param":{"num_deleted":"0","num_feature":"16","num_nodes":"15","size_leaf_vector":"0"}},{"base_weights":[-8.009568E-2,-1.2272089E0,1.0517325E0,-1.4159617E0,-4.8682415E-1,6.034231E-1,1.2869976E0,-4.8892832E-1,-1.4442278E0,1.5000368E0,-1.0973179E0,1.05791E0,-1.5307407E-1,1.3235087E0,-1.789072E-1],"categories":[],"categories_nodes":[],"categories_segments":[],"categories_sizes":[],"default_left":[true,true,true,true,true,true,true,false,false,false,false,false,false,false,false],"id":32,"left_children":[1,3,5,7,9,11,13,-1,-1,-1,-1,-1,-1,-1,-1],"loss_changes":[9.9320544E2,5.2400757E1,3.9839996E1,7.2125244E0,9.710509E1,4.6378178E1,1.3706909E1,0E0,0E0,0E0,0E0,0E0,0E0,0E0,0E0],"parents":[2147483647,0,0,1,1,2,2,3,3,4,4,5,5,6,6],"right_children":[2,4,6,8,10,12,14,-1,-1,-1,-1,-1,-1,-1,-1],"split_conditions":[3.0208168E0,2.0006652E0,2.0001864E0,2.9904615E-2,2.998103E0,3.2778144E-2,1.95E1,-4.889283E-3,-1.4442278E-2,1.50003685E-2,-1.0973179E-2,1.05791E-2,-1.5307406E-3,1.32350875E-2,-1.789072E-3],"split_indices":[1,1,2,8,1,8,5,0,0,0,0,0,0,0,0],"split_type":[0,0,0,0,0,0,0,0,0,0,0,0,0,0,0],"sum_hessian":[7.629898E2,3.7889435E2,3.840955E2,3.0119547E2,7.7698875E1,1.3342064E2,2.5067484E2,9.4534025E0,2.9174207E2,1.7920208E1,5.9778667E1,8.309847E1,5.032217E1,2.4467781E2,5.997031E0],"tree_param":{"num_deleted":"0","num_feature":"16","num_nodes":"15","size_leaf_vector":"0"}},{"base_weights":[-7.951904E-2,-1.2191358E0,1.0437353E0,-1.4069462E0,-4.8315778E-1,3.8393363E-1,1.2010707E0,-1.5366031E0,-1.1753653E0,1.4914896E0,-1.088907E0,1.5627778E0,-3.4623474E-1,1.2510498E0,2.0001268E-1],"categories":[],"categories_nodes":[],"categories_segments":[],"categories_sizes":[],"default_left":[true,true,true,true,true,true,true,false,false,false,false,false,false,false,false],"id":33,"left_children":[1,3,5,7,9,11,13,-1,-1,-1,-1,-1,-1,-1,-1],"loss_changes":[9.7643164E2,5.165265E1,3.9421783E1,7.2351074E0,9.5515366E1,6.5479645E1,1.524704E1,0E0,0E0,0E0,0E0,0E0,0E0,0E0,0E0],"parents":[2147483647,0,0,1,1,2,2,3,3,4,4,5,5,6,6],"right_children":[2,4,6,8,10,12,14,-1,-1,-1,-1,-1,-1,-1,-1],"split_conditions":[3.0208168E0,2.0006652E0,4.005841E0,7.95E1,2.998103E0,3.9898903E0,1.442221E-1,-1.5366031E-2,-1.1753653E-2,1.4914896E-2,-1.088907E-2,1.5627777E-2,-3.4623472E-3,1.2510497E-2,2.0001268E-3],"split_indices":[1,1,1,11,1,1,9,0,0,0,0,0,0,0,0],"split_type":[0,0,0,0,0,0,0,0,0,0,0,0,0,0,0],"sum_hessian":[7.6079584E2,3.7760498E2,3.831909E2,3.0010983E2,7.7495155E1,7.444375E1,3.0874713E2,1.8878058E2,1.1132925E2,1.7848763E1,5.964639E1,2.803746E1,4.640629E1,2.9382767E2,1.4919461E1],"tree_param":{"num_deleted":"0","num_feature":"16","num_nodes":"15","size_leaf_vector":"0"}},{"base_weights":[-7.895436E-2,-1.2112126E0,1.0359021E0,-1.3981073E0,-4.795418E-1,5.9221685E-1,1.2694645E0,-1.527694E0,-1.1669881E0,1.4831067E0,-1.0806038E0,1.0427881E0,-1.5526606E-1,1.305998E0,-1.8738507E-1],"categories":[],"categories_nodes":[],"categories_segments":[],"categories_sizes":[],"default_left":[true,true,true,true,true,true,true,false,false,false,false,false,false,false,false],"id":34,"left_children":[1,3,5,7,9,11,13,-1,-1,-1,-1,-1,-1,-1,-1],"loss_changes":[9.6004266E2,5.0923096E1,3.8964386E1,7.2023926E0,9.395714E1,4.5308567E1,1.3561737E1,0E0,0E0,0E0,0E0,0E0,0E0,0E0,0E0],"parents":[2147483647,0,0,1,1,2,2,3,3,4,4,5,5,6,6],"right_children":[2,4,6,8,10,12,14,-1,-1,-1,-1,-1,-1,-1,-1],"split_conditions":[3.0208168E0,2.0006652E0,2.0001864E0,7.95E1,2.998103E0,3.2778144E-2,1.95E1,-1.527694E-2,-1.1669881E-2,1.4831067E-2,-1.0806038E-2,1.0427881E-2,-1.5526606E-3,1.3059979E-2,-1.8738506E-3],"split_indices":[1,1,2,11,1,8,5,0,0,0,0,0,0,0,0],"split_type":[0,0,0,0,0,0,0,0,0,0,0,0,0,0,0],"sum_hessian":[7.5855304E2,3.762965E2,3.8225653E2,2.9900833E2,7.7288185E1,1.3304813E2,2.4920842E2,1.8799246E2,1.1101588E2,1.7776167E1,5.951202E1,8.276411E1,5.0284016E1,2.4321292E2,5.995506E0],"tree_param":{"num_deleted":"0","num_feature":"16","num_nodes":"15","size_leaf_vector":"0"}},{"base_weights":[-7.840496E-2,-1.2034185E0,1.0281136E0,-1.3894199E0,-4.7597453E-1,5.870628E-1,1.2607354E0,-4.632853E-1,-1.4178914E0,1.4748837E0,-1.0724053E0,1.0344882E0,-1.5373588E-1,1.2971253E0,-1.8577132E-1],"categories":[],"categories_nodes":[],"categories_segments":[],"categories_sizes":[],"default_left":[true,true,true,true,true,true,true,false,false,false,false,false,false,false,false],"id":35,"left_children":[1,3,5,7,9,11,13,-1,-1,-1,-1,-1,-1,-1,-1],"loss_changes":[9.439511E2,5.020935E1,3.8485504E1,7.224304E0,9.2429596E1,4.4536926E1,1.3370789E1,0E0,0E0,0E0,0E0,0E0,0E0,0E0,0E0],"parents":[2147483647,0,0,1,1,2,2,3,3,4,4,5,5,6,6],"right_children":[2,4,6,8,10,12,14,-1,-1,-1,-1,-1,-1,-1,-1],"split_conditions":[3.0208168E0,2.0006652E0,2.0001864E0,2.9904615E-2,2.998103E0,3.2778144E-2,1.95E1,-4.632853E-3,-1.4178913E-2,1.4748837E-2,-1.0724053E-2,1.0344882E-2,-1.5373587E-3,1.2971253E-2,-1.8577131E-3],"split_indices":[1,1,2,8,1,8,5,0,0,0,0,0,0,0,0],"split_type":[0,0,0,0,0,0,0,0,0,0,0,0,0,0,0],"sum_hessian":[7.562921E2,3.7496857E2,3.8132358E2,2.9789044E2,7.707811E1,1.3288928E2,2.484343E2,9.3998165E0,2.8849063E2,1.770247E1,5.9375645E1,8.26027E1,5.0286587E1,2.424385E2,5.9957914E0],"tree_param":{"num_deleted":"0","num_feature":"16","num_nodes":"15","size_leaf_vector":"0"}},{"base_weights":[-7.7853054E-2,-1.1957307E0,1.0204277E0,-1.4403733E0,-6.440218E-1,3.7065566E-1,1.176103E0,-2.7976763E-1,-1.4816735E0,-1.4560828E0,-2.0356779E-1,1.542621E0,-3.4929204E-1,1.2261206E0,1.7909628E-1],"categories":[],"categories_nodes":[],"categories_segments":[],"categories_sizes":[],"default_left":[true,true,true,true,true,true,true,false,false,false,false,false,false,false,false],"id":36,"left_children":[1,3,5,7,9,11,13,-1,-1,-1,-1,-1,-1,-1,-1],"loss_changes":[9.2816364E2,4.9635498E1,3.8141632E1,1.1987183E1,4.151368E1,6.3965393E1,1.5100037E1,0E0,0E0,0E0,0E0,0E0,0E0,0E0,0E0],"parents":[2147483647,0,0,1,1,2,2,3,3,4,4,5,5,6,6],"right_children":[2,4,6,8,10,12,14,-1,-1,-1,-1,-1,-1,-1,-1],"split_conditions":[3.0208168E0,9.75E1,4.005841E0,2.9904615E-2,1.0177114E0,3.9898903E0,1.442221E-1,-2.7976763E-3,-1.4816734E-2,-1.4560828E-2,-2.035678E-3,1.542621E-2,-3.4929204E-3,1.2261205E-2,1.7909628E-3],"split_indices":[1,11,1,8,2,1,9,0,0,0,0,0,0,0,0],"split_type":[0,0,0,0,0,0,0,0,0,0,0,0,0,0,0],"sum_hessian":[7.539976E2,3.7362112E2,3.8037646E2,2.577272E2,1.15893906E2,7.41719E1,3.062046E2,9.123233E0,2.4860399E2,3.994388E1,7.595003E1,2.77905E1,4.6381393E1,2.91358E2,1.4846567E1],"tree_param":{"num_deleted":"0","num_feature":"16","num_nodes":"15","size_leaf_vector":"0"}},{"base_weights":[-7.731073E-2,-1.1876708E0,1.0128947E0,-1.3728226E0,-4.662762E-1,5.762343E-1,1.2439613E0,-1.5030146E0,-1.1415426E0,1.468845E0,-1.0585526E0,1.0199233E0,-1.558002E-1,1.2803932E0,-1.9398618E-1],"categories":[],"categories_nodes":[],"categories_segments":[],"categories_sizes":[],"default_left":[true,true,true,true,true,true,true,false,false,false,false,false,false,false,false],"id":37,"left_children":[1,3,5,7,9,11,13,-1,-1,-1,-1,-1,-1,-1,-1],"loss_changes":[9.125194E2,4.9237732E1,3.7664886E1,7.2164307E0,9.0703705E1,4.351946E1,1.3235199E1,0E0,0E0,0E0,0E0,0E0,0E0,0E0,0E0],"parents":[2147483647,0,0,1,1,2,2,3,3,4,4,5,5,6,6],"right_children":[2,4,6,8,10,12,14,-1,-1,-1,-1,-1,-1,-1,-1],"split_conditions":[3.0208168E0,2.0006652E0,2.0001864E0,7.95E1,2.998103E0,3.2778144E-2,1.95E1,-1.5030146E-2,-1.1415426E-2,1.468845E-2,-1.0585526E-2,1.0199233E-2,-1.5580019E-3,1.2803932E-2,-1.9398617E-3],"split_indices":[1,1,2,11,1,8,5,0,0,0,0,0,0,0,0],"split_type":[0,0,0,0,0,0,0,0,0,0,0,0,0,0,0],"sum_hessian":[7.5183014E2,3.7242783E2,3.794023E2,2.956451E2,7.678273E1,1.3250102E2,2.4690129E2,1.8564397E2,1.1000113E2,1.7646622E1,5.9136105E1,8.225354E1,5.0247482E1,2.4090723E2,5.994063E0],"tree_param":{"num_deleted":"0","num_feature":"16","num_nodes":"15","size_leaf_vector":"0"}},{"base_weights":[-7.678416E-2,-1.1802347E0,1.005402E0,-1.4238429E0,-6.3281167E-1,3.627211E-1,1.1598594E0,-2.6763278E-1,-1.4652355E0,-1.44038E0,-1.963359E-1,1.5285203E0,-3.4902555E-1,1.2098066E0,1.6807972E-1],"categories":[],"categories_nodes":[],"categories_segments":[],"categories_sizes":[],"default_left":[true,true,true,true,true,true,true,false,false,false,false,false,false,false,false],"id":38,"left_children":[1,3,5,7,9,11,13,-1,-1,-1,-1,-1,-1,-1,-1],"loss_changes":[8.973629E2,4.8714233E1,3.724417E1,1.1891785E1,4.0738308E1,6.2744526E1,1.4927826E1,0E0,0E0,0E0,0E0,0E0,0E0,0E0,0E0],"parents":[2147483647,0,0,1,1,2,2,3,3,4,4,5,5,6,6],"right_children":[2,4,6,8,10,12,14,-1,-1,-1,-1,-1,-1,-1,-1],"split_conditions":[3.0208168E0,9.75E1,4.005841E0,2.9904615E-2,1.0177114E0,3.9898903E0,1.442221E-1,-2.6763277E-3,-1.4652355E-2,-1.44038E-2,-1.9633588E-3,1.5285203E-2,-3.4902554E-3,1.2098066E-2,1.6807972E-3],"split_indices":[1,11,1,8,2,1,9,0,0,0,0,0,0,0,0],"split_type":[0,0,0,0,0,0,0,0,0,0,0,0,0,0,0],"sum_hessian":[7.494791E2,3.7104883E2,3.784303E2,2.556716E2,1.1537721E2,7.39753E1,3.04455E2,9.094776E0,2.4657683E2,3.9673397E1,7.570381E1,2.7607792E1,4.6367508E1,2.8964816E2,1.480683E1],"tree_param":{"num_deleted":"0","num_feature":"16","num_nodes":"15","size_leaf_vector":"0"}},{"base_weights":[-7.6256506E-2,-1.1724049E0,9.9805874E-1,-1.356791E0,-4.5679805E-1,5.6564665E-1,1.2276585E0,-1.4870031E0,-1.1262075E0,1.4628679E0,-1.0450255E0,1.0057069E0,-1.5777752E-1,1.2641433E0,-2.0200284E-1],"categories":[],"categories_nodes":[],"categories_segments":[],"categories_sizes":[],"default_left":[true,true,true,true,true,true,true,false,false,false,false,false,false,false,false],"id":39,"left_children":[1,3,5,7,9,11,13,-1,-1,-1,-1,-1,-1,-1,-1],"loss_changes":[8.8232294E2,4.8309753E1,3.6876923E1,7.162964E0,8.901947E1,4.2531895E1,1.3104126E1,0E0,0E0,0E0,0E0,0E0,0E0,0E0,0E0],"parents":[2147483647,0,0,1,1,2,2,3,3,4,4,5,5,6,6],"right_children":[2,4,6,8,10,12,14,-1,-1,-1,-1,-1,-1,-1,-1],"split_conditions":[3.0208168E0,2.0006652E0,2.0001864E0,7.95E1,2.998103E0,3.2778144E-2,1.95E1,-1.4870031E-2,-1.1262074E-2,1.4628679E-2,-1.0450254E-2,1.0057068E-2,-1.5777751E-3,1.2641434E-2,-2.0200284E-3],"split_indices":[1,1,2,11,1,8,5,0,0,0,0,0,0,0,0],"split_type":[0,0,0,0,0,0,0,0,0,0,0,0,0,0,0],"sum_hessian":[7.472559E2,3.698244E2,3.7743155E2,2.9334415E2,7.6480255E1,1.3210252E2,2.4532903E2,1.8399315E2,1.0935098E2,1.7589722E1,5.8890537E1,8.189527E1,5.020725E1,2.3933694E2,5.9920893E0],"tree_param":{"num_deleted":"0","num_feature":"16","num_nodes":"15","size_leaf_vector":"0"}},{"base_weights":[-7.574424E-2,-1.1651896E0,9.9074906E-1,-1.4078867E0,-6.218468E-1,5.6077546E-1,1.2195308E0,-2.5572336E-1,-1.4493926E0,-1.4251943E0,-1.8925963E-1,9.978572E-1,-1.5622236E-1,1.2558897E0,-2.0025986E-1],"categories":[],"categories_nodes":[],"categories_segments":[],"categories_sizes":[],"default_left":[true,true,true,true,true,true,true,false,false,false,false,false,false,false,false],"id":40,"left_children":[1,3,5,7,9,11,13,-1,-1,-1,-1,-1,-1,-1,-1],"loss_changes":[8.677498E2,4.783853E1,3.644461E1,1.18029785E1,3.999077E1,4.1815247E1,1.2924896E1,0E0,0E0,0E0,0E0,0E0,0E0,0E0,0E0],"parents":[2147483647,0,0,1,1,2,2,3,3,4,4,5,5,6,6],"right_children":[2,4,6,8,10,12,14,-1,-1,-1,-1,-1,-1,-1,-1],"split_conditions":[3.0208168E0,9.75E1,2.0001864E0,2.9904615E-2,1.0177114E0,3.2778144E-2,1.95E1,-2.5572334E-3,-1.44939255E-2,-1.4251943E-2,-1.8925963E-3,9.978572E-3,-1.5622235E-3,1.2558896E-2,-2.0025985E-3],"split_indices":[1,11,2,8,2,8,5,0,0,0,0,0,0,0,0],"split_type":[0,0,0,0,0,0,0,0,0,0,0,0,0,0,0],"sum_hessian":[7.448523E2,3.6841553E2,3.7643674E2,2.5356392E2,1.148516E2,1.3193277E2,2.4450397E2,9.065837E0,2.444981E2,3.9395874E1,7.545573E1,8.172283E1,5.0209938E1,2.3851147E2,5.9924994E0],"tree_param":{"num_deleted":"0","num_feature":"16","num_nodes":"15","size_leaf_vector":"0"}},{"base_weights":[-7.523736E-2,-1.1575774E0,9.8353004E-1,-1.3412728E0,-4.475319E-1,3.5018757E-1,1.1365194E0,-1.4715966E0,-1.1112539E0,1.456952E0,-1.0318092E0,1.5101415E0,-3.5176563E-1,1.1865629E0,1.4806272E-1],"categories":[],"categories_nodes":[],"categories_segments":[],"categories_sizes":[],"default_left":[true,true,true,true,true,true,true,false,false,false,false,false,false,false,false],"id":41,"left_children":[1,3,5,7,9,11,13,-1,-1,-1,-1,-1,-1,-1,-1],"loss_changes":[8.532565E2,4.7420013E1,3.607611E1,7.117676E0,8.737529E1,6.1341404E1,1.4799927E1,0E0,0E0,0E0,0E0,0E0,0E0,0E0,0E0],"parents":[2147483647,0,0,1,1,2,2,3,3,4,4,5,5,6,6],"right_children":[2,4,6,8,10,12,14,-1,-1,-1,-1,-1,-1,-1,-1],"split_conditions":[3.0208168E0,2.0006652E0,4.005841E0,7.95E1,2.998103E0,3.9898903E0,1.442221E-1,-1.4715966E-2,-1.1112538E-2,1.4569519E-2,-1.0318092E-2,1.5101414E-2,-3.5176564E-3,1.1865629E-2,1.4806272E-3],"split_indices":[1,1,1,11,1,1,9,0,0,0,0,0,0,0,0],"split_type":[0,0,0,0,0,0,0,0,0,0,0,0,0,0,0],"sum_hessian":[7.4259326E2,3.6716266E2,3.7543057E2,2.9099146E2,7.61712E1,7.368398E1,3.017466E2,1.8230412E2,1.0868733E2,1.7531786E1,5.8639416E1,2.7345362E1,4.6338623E1,2.8701523E2,1.4731385E1],"tree_param":{"num_deleted":"0","num_feature":"16","num_nodes":"15","size_leaf_vector":"0"}},{"base_weights":[-7.4731454E-2,-1.1505712E0,9.7645086E-1,-1.3924729E0,-6.1111736E-1,5.505301E-1,1.2038887E0,-2.4403156E-1,-1.4341121E0,-1.4104992E0,-1.8233423E-1,9.841338E-1,-1.5808336E-1,1.2403173E0,-2.0803194E-1],"categories":[],"categories_nodes":[],"categories_segments":[],"categories_sizes":[],"default_left":[true,true,true,true,true,true,true,false,false,false,false,false,false,false,false],"id":42,"left_children":[1,3,5,7,9,11,13,-1,-1,-1,-1,-1,-1,-1,-1],"loss_changes":[8.392663E2,4.7004974E1,3.5702393E1,1.1720245E1,3.9269333E1,4.0873775E1,1.2801758E1,0E0,0E0,0E0,0E0,0E0,0E0,0E0,0E0],"parents":[2147483647,0,0,1,1,2,2,3,3,4,4,5,5,6,6],"right_children":[2,4,6,8,10,12,14,-1,-1,-1,-1,-1,-1,-1,-1],"split_conditions":[3.0208168E0,9.75E1,2.0001864E0,2.9904615E-2,1.0177114E0,3.2778144E-2,1.95E1,-2.4403157E-3,-1.4341121E-2,-1.4104992E-2,-1.8233423E-3,9.841338E-3,-1.5808336E-3,1.2403173E-2,-2.0803192E-3],"split_indices":[1,11,2,8,2,8,5,0,0,0,0,0,0,0,0],"split_type":[0,0,0,0,0,0,0,0,0,0,0,0,0,0,0],"sum_hessian":[7.401266E2,3.6572662E2,3.744E2,2.5140877E2,1.1431786E2,1.3152145E2,2.4287852E2,9.036467E0,2.423723E2,3.9111885E1,7.520597E1,8.1352615E1,5.0168842E1,2.3688815E2,5.990366E0],"tree_param":{"num_deleted":"0","num_feature":"16","num_nodes":"15","size_leaf_vector":"0"}},{"base_weights":[-7.4237905E-2,-1.1431651E0,9.694014E-1,-1.3262397E0,-4.3846953E-1,5.4581594E-1,1.1960851E0,-1.4567626E0,-1.0966617E0,1.4510974E0,-1.0188897E0,9.765337E-1,-1.565251E-1,1.2323972E0,-2.0623533E-1],"categories":[],"categories_nodes":[],"categories_segments":[],"categories_sizes":[],"default_left":[true,true,true,true,true,true,true,false,false,false,false,false,false,false,false],"id":43,"left_children":[1,3,5,7,9,11,13,-1,-1,-1,-1,-1,-1,-1,-1],"loss_changes":[8.253191E2,4.6565613E1,3.5294525E1,7.080078E0,8.57698E1,4.018898E1,1.2629425E1,0E0,0E0,0E0,0E0,0E0,0E0,0E0,0E0],"parents":[2147483647,0,0,1,1,2,2,3,3,4,4,5,5,6,6],"right_children":[2,4,6,8,10,12,14,-1,-1,-1,-1,-1,-1,-1,-1],"split_conditions":[3.0208168E0,2.0006652E0,2.0001864E0,7.95E1,2.998103E0,3.2778144E-2,1.95E1,-1.4567625E-2,-1.0966617E-2,1.4510973E-2,-1.0188896E-2,9.765337E-3,-1.565251E-3,1.2323972E-2,-2.0623533E-3],"split_indices":[1,1,2,11,1,8,5,0,0,0,0,0,0,0,0],"split_type":[0,0,0,0,0,0,0,0,0,0,0,0,0,0,0],"sum_hessian":[7.3782196E2,3.6444794E2,3.7337405E2,2.885919E2,7.5856026E1,1.313461E2,2.4202794E2,1.8058047E2,1.0801143E2,1.7472841E1,5.8383186E1,8.1174576E1,5.0171528E1,2.3603711E2,5.9908314E0],"tree_param":{"num_deleted":"0","num_feature":"16","num_nodes":"15","size_leaf_vector":"0"}},{"base_weights":[-7.375167E-2,-1.136357E0,9.624359E-1,-1.3775718E0,-6.006138E-1,3.380683E-1,1.1140573E0,-2.3254986E-1,-1.4193635E0,-1.39627E0,-1.75555E-1,1.4927113E0,-3.5432473E-1,1.1642269E0,1.2856235E-1],"categories":[],"categories_nodes":[],"categories_segments":[],"categories_sizes":[],"default_left":[true,true,true,true,true,true,true,false,false,false,false,false,false,false,false],"id":44,"left_children":[1,3,5,7,9,11,13,-1,-1,-1,-1,-1,-1,-1,-1],"loss_changes":[8.1183093E2,4.6210358E1,3.49664E1,1.1643127E1,3.8572445E1,5.9995388E1,1.4680664E1,0E0,0E0,0E0,0E0,0E0,0E0,0E0,0E0],"parents":[2147483647,0,0,1,1,2,2,3,3,4,4,5,5,6,6],"right_children":[2,4,6,8,10,12,14,-1,-1,-1,-1,-1,-1,-1,-1],"split_conditions":[3.0208168E0,9.75E1,4.005841E0,2.9904615E-2,1.0177114E0,3.9898903E0,1.442221E-1,-2.3254985E-3,-1.41936345E-2,-1.39627E-2,-1.75555E-3,1.49271125E-2,-3.5432472E-3,1.1642269E-2,1.2856234E-3],"split_indices":[1,11,1,8,2,1,9,0,0,0,0,0,0,0,0],"split_type":[0,0,0,0,0,0,0,0,0,0,0,0,0,0,0],"sum_hessian":[7.353255E2,3.629872E2,3.723383E2,2.492105E2,1.1377673E2,7.338269E1,2.989556E2,9.006708E0,2.4020378E2,3.882199E1,7.495474E1,2.7075459E1,4.630723E1,2.8430103E2,1.4654549E1],"tree_param":{"num_deleted":"0","num_feature":"16","num_nodes":"15","size_leaf_vector":"0"}},{"base_weights":[-7.3263474E-2,-1.1291462E0,9.55602E-1,-1.3700097E0,-5.9571564E-1,5.358945E-1,1.1810515E0,-2.3055144E-1,-1.4117754E0,-1.3884574E0,-1.7386775E-1,9.632701E-1,-1.5827565E-1,1.2174487E0,-2.1377215E-1],"categories":[],"categories_nodes":[],"categories_segments":[],"categories_sizes":[],"default_left":[true,true,true,true,true,true,true,false,false,false,false,false,false,false,false],"id":45,"left_children":[1,3,5,7,9,11,13,-1,-1,-1,-1,-1,-1,-1,-1],"loss_changes":[7.984305E2,4.578305E1,3.459326E1,1.1528931E1,3.807991E1,3.9290413E1,1.2513397E1,0E0,0E0,0E0,0E0,0E0,0E0,0E0,0E0],"parents":[2147483647,0,0,1,1,2,2,3,3,4,4,5,5,6,6],"right_children":[2,4,6,8,10,12,14,-1,-1,-1,-1,-1,-1,-1,-1],"split_conditions":[3.0208168E0,9.75E1,2.0001864E0,2.9904615E-2,1.0177114E0,3.2778144E-2,1.95E1,-2.3055144E-3,-1.4117753E-2,-1.3884574E-2,-1.7386774E-3,9.632701E-3,-1.5827564E-3,1.2174487E-2,-2.1377215E-3],"split_indices":[1,11,2,8,2,8,5,0,0,0,0,0,0,0,0],"split_type":[0,0,0,0,0,0,0,0,0,0,0,0,0,0,0],"sum_hessian":[7.329652E2,3.616851E2,3.7128015E2,2.4809349E2,1.135916E2,1.3092357E2,2.4035658E2,9.0026245E0,2.3909087E2,3.8656483E1,7.493511E1,8.0793976E1,5.01296E1,2.3436803E2,5.9885583E0],"tree_param":{"num_deleted":"0","num_feature":"16","num_nodes":"15","size_leaf_vector":"0"}},{"base_weights":[-7.278841E-2,-1.1220319E0,9.487942E-1,-1.304732E0,-4.2394057E-1,5.313292E-1,1.1735469E0,-1.435669E0,-1.0756502E0,1.4471436E0,-1.00115E0,9.559034E-1,-1.5671544E-1,1.2098361E0,-2.1192446E-1],"categories":[],"categories_nodes":[],"categories_segments":[],"categories_sizes":[],"default_left":[true,true,true,true,true,true,true,false,false,false,false,false,false,false,false],"id":46,"left_children":[1,3,5,7,9,11,13,-1,-1,-1,-1,-1,-1,-1,-1],"loss_changes":[7.8525745E2,4.5536682E1,3.4207397E1,7.032318E0,8.400415E1,3.8635475E1,1.2347351E1,0E0,0E0,0E0,0E0,0E0,0E0,0E0,0E0],"parents":[2147483647,0,0,1,1,2,2,3,3,4,4,5,5,6,6],"right_children":[2,4,6,8,10,12,14,-1,-1,-1,-1,-1,-1,-1,-1],"split_conditions":[3.0208168E0,2.0006652E0,2.0001864E0,7.95E1,2.998103E0,3.2778144E-2,1.95E1,-1.43566895E-2,-1.0756502E-2,1.4471435E-2,-1.00115E-2,9.559033E-3,-1.5671543E-3,1.2098361E-2,-2.1192445E-3],"split_indices":[1,1,2,11,1,8,5,0,0,0,0,0,0,0,0],"split_type":[0,0,0,0,0,0,0,0,0,0,0,0,0,0,0],"sum_hessian":[7.30599E2,3.6037152E2,3.7022745E2,2.8493192E2,7.54396E1,1.3074338E2,2.3948409E2,1.7795218E2,1.0697975E2,1.7430311E1,5.800929E1,8.061109E1,5.0132286E1,2.33495E2,5.9890785E0],"tree_param":{"num_deleted":"0","num_feature":"16","num_nodes":"15","size_leaf_vector":"0"}},{"base_weights":[-7.231996E-2,-1.1154989E0,9.420642E-1,-1.3558286E0,-5.8553433E-1,3.26343E-1,1.0924075E0,-2.1934515E-1,-1.3977761E0,-8.1295294E-1,8.3728755E-1,1.4761641E0,-3.5670978E-1,1.1427304E0,1.0955551E-1],"categories":[],"categories_nodes":[],"categories_segments":[],"categories_sizes":[],"default_left":[true,true,true,true,true,true,true,false,false,false,false,false,false,false,false],"id":47,"left_children":[1,3,5,7,9,11,13,-1,-1,-1,-1,-1,-1,-1,-1],"loss_changes":[7.725153E2,4.5042603E1,3.3909576E1,1.1460785E1,3.7581806E1,5.8702347E1,1.4569061E1,0E0,0E0,0E0,0E0,0E0,0E0,0E0,0E0],"parents":[2147483647,0,0,1,1,2,2,3,3,4,4,5,5,6,6],"right_children":[2,4,6,8,10,12,14,-1,-1,-1,-1,-1,-1,-1,-1],"split_conditions":[3.0208168E0,9.75E1,4.005841E0,2.9904615E-2,2.0189505E0,3.9898903E0,1.442221E-1,-2.1934514E-3,-1.3977761E-2,-8.129529E-3,8.372875E-3,1.4761641E-2,-3.5670977E-3,1.1427303E-2,1.0955551E-3],"split_indices":[1,11,1,8,2,1,9,0,0,0,0,0,0,0,0],"split_type":[0,0,0,0,0,0,0,0,0,0,0,0,0,0,0],"sum_hessian":[7.280456E2,3.588793E2,3.691663E2,2.4583777E2,1.1304154E2,7.307262E1,2.9609366E2,8.972569E0,2.368652E2,9.783292E1,1.5208622E1,2.6799086E1,4.627353E1,2.8151706E2,1.4576597E1],"tree_param":{"num_deleted":"0","num_feature":"16","num_nodes":"15","size_leaf_vector":"0"}},{"base_weights":[-7.18272E-2,-1.1085172E0,9.354584E-1,-1.2908293E0,-4.1486526E-1,5.217144E-1,1.159075E0,-1.4221349E0,-1.0619935E0,1.441235E0,-9.8828304E-1,9.430687E-1,-1.5836114E-1,1.1954634E0,-2.1923521E-1],"categories":[],"categories_nodes":[],"categories_segments":[],"categories_sizes":[],"default_left":[true,true,true,true,true,true,true,false,false,false,false,false,false,false,false],"id":48,"left_children":[1,3,5,7,9,11,13,-1,-1,-1,-1,-1,-1,-1,-1],"loss_changes":[7.598165E2,4.48067E1,3.354303E1,7.006653E0,8.241597E1,3.77769E1,1.223764E1,0E0,0E0,0E0,0E0,0E0,0E0,0E0,0E0],"parents":[2147483647,0,0,1,1,2,2,3,3,4,4,5,5,6,6],"right_children":[2,4,6,8,10,12,14,-1,-1,-1,-1,-1,-1,-1,-1],"split_conditions":[3.0208168E0,2.0006652E0,2.0001864E0,7.95E1,2.998103E0,3.2778144E-2,1.95E1,-1.4221349E-2,-1.0619935E-2,1.4412349E-2,-9.88283E-3,9.430687E-3,-1.5836114E-3,1.19546335E-2,-2.192352E-3],"split_indices":[1,1,2,11,1,8,5,0,0,0,0,0,0,0,0],"split_type":[0,0,0,0,0,0,0,0,0,0,0,0,0,0,0],"sum_hessian":[7.256313E2,3.575467E2,3.680846E2,2.824497E2,7.5097E1,1.3031108E2,2.377735E2,1.7615666E2,1.06293045E2,1.7367287E1,5.7729713E1,8.0221535E1,5.0089558E1,2.317868E2,5.986683E0],"tree_param":{"num_deleted":"0","num_feature":"16","num_nodes":"15","size_leaf_vector":"0"}},{"base_weights":[-7.137001E-2,-1.1021581E0,9.28875E-1,-1.342095E0,-5.754131E-1,5.1729E-1,1.1518463E0,-2.0833257E-1,-1.3842416E0,-1.3647723E0,-1.57954E-1,9.359201E-1,-1.568003E-1,1.1881343E0,-2.1733864E-1],"categories":[],"categories_nodes":[],"categories_segments":[],"categories_sizes":[],"default_left":[true,true,true,true,true,true,true,false,false,false,false,false,false,false,false],"id":49,"left_children":[1,3,5,7,9,11,13,-1,-1,-1,-1,-1,-1,-1,-1],"loss_changes":[7.4754315E2,4.4351868E1,3.317697E1,1.1397186E1,3.7181107E1,3.715E1,1.2077393E1,0E0,0E0,0E0,0E0,0E0,0E0,0E0,0E0],"parents":[2147483647,0,0,1,1,2,2,3,3,4,4,5,5,6,6],"right_children":[2,4,6,8,10,12,14,-1,-1,-1,-1,-1,-1,-1,-1],"split_conditions":[3.0208168E0,9.75E1,2.0001864E0,2.9904615E-2,1.0177114E0,3.2778144E-2,1.95E1,-2.0833255E-3,-1.3842415E-2,-1.3647723E-2,-1.5795401E-3,9.359201E-3,-1.568003E-3,1.1881343E-2,-2.1733863E-3],"split_indices":[1,11,2,8,2,8,5,0,0,0,0,0,0,0,0],"split_type":[0,0,0,0,0,0,0,0,0,0,0,0,0,0,0],"sum_hessian":[7.2304456E2,3.5603546E2,3.670091E2,2.435489E2,1.12486565E2,1.3012674E2,2.3688234E2,8.942219E0,2.3460667E2,3.812606E1,7.4360504E1,8.003451E1,5.009223E1,2.3089508E2,5.987257E0],"tree_param":{"num_deleted":"0","num_feature":"16","num_nodes":"15","size_leaf_vector":"0"}},{"base_weights":[-7.091768E-2,-1.0953932E0,9.2236423E-1,-1.2772933E0,-4.06479E-1,3.149933E-1,1.0715091E0,-1.409075E0,-1.0485188E0,1.4355292E0,-9.763123E-1,1.4604403E0,-3.5892773E-1,1.1220105E0,9.102074E-2],"categories":[],"categories_nodes":[],"categories_segments":[],"categories_sizes":[],"default_left":[true,true,true,true,true,true,true,false,false,false,false,false,false,false,false],"id":50,"left_children":[1,3,5,7,9,11,13,-1,-1,-1,-1,-1,-1,-1,-1],"loss_changes":[7.353169E2,4.4052948E1,3.2901E1,6.991852E0,8.092633E1,5.745858E1,1.446405E1,0E0,0E0,0E0,0E0,0E0,0E0,0E0,0E0],"parents":[2147483647,0,0,1,1,2,2,3,3,4,4,5,5,6,6],"right_children":[2,4,6,8,10,12,14,-1,-1,-1,-1,-1,-1,-1,-1],"split_conditions":[3.0208168E0,2.0006652E0,4.005841E0,7.95E1,2.998103E0,3.9898903E0,1.442221E-1,-1.409075E-2,-1.0485187E-2,1.4355292E-2,-9.763123E-3,1.4604403E-2,-3.5892772E-3,1.1220104E-2,9.102074E-4],"split_indices":[1,1,1,11,1,1,9,0,0,0,0,0,0,0,0],"split_type":[0,0,0,0,0,0,0,0,0,0,0,0,0,0,0],"sum_hessian":[7.2061127E2,3.5468488E2,3.659264E2,2.799208E2,7.476407E1,7.275486E1,2.9317154E2,1.7433746E2,1.0558335E2,1.7305182E1,5.7458885E1,2.6517181E1,4.6237682E1,2.7867377E2,1.4497781E1],"tree_param":{"num_deleted":"0","num_feature":"16","num_nodes":"15","size_leaf_vector":"0"}},{"base_weights":[-7.046396E-2,-1.0891988E0,9.15971E-1,-1.3287854E0,-5.6563276E-1,5.079663E-1,1.1378937E0,-1.975086E-1,-1.371148E0,-1.3519444E0,-1.5167631E-1,9.2348665E-1,-1.583463E-1,1.1742938E0,-2.2443178E-1],"categories":[],"categories_nodes":[],"categories_segments":[],"categories_sizes":[],"default_left":[true,true,true,true,true,true,true,false,false,false,false,false,false,false,false],"id":51,"left_children":[1,3,5,7,9,11,13,-1,-1,-1,-1,-1,-1,-1,-1],"loss_changes":[7.235136E2,4.3673645E1,3.2545776E1,1.1337799E1,3.655234E1,3.632882E1,1.1973358E1,0E0,0E0,0E0,0E0,0E0,0E0,0E0,0E0],"parents":[2147483647,0,0,1,1,2,2,3,3,4,4,5,5,6,6],"right_children":[2,4,6,8,10,12,14,-1,-1,-1,-1,-1,-1,-1,-1],"split_conditions":[3.0208168E0,9.75E1,2.0001864E0,2.9904615E-2,1.0177114E0,3.2778144E-2,1.95E1,-1.975086E-3,-1.37114795E-2,-1.35194445E-2,-1.5167631E-3,9.234866E-3,-1.5834629E-3,1.1742937E-2,-2.2443177E-3],"split_indices":[1,11,2,8,2,8,5,0,0,0,0,0,0,0,0],"split_type":[0,0,0,0,0,0,0,0,0,0,0,0,0,0,0],"sum_hessian":[7.1798175E2,3.531569E2,3.6482486E2,2.4123053E2,1.1192637E2,1.2968607E2,2.351388E2,8.91161E0,2.3231892E2,3.7820427E1,7.410594E1,7.963732E1,5.0048737E1,2.2915404E2,5.984754E0],"tree_param":{"num_deleted":"0","num_feature":"16","num_nodes":"15","size_leaf_vector":"0"}},{"base_weights":[-7.0022166E-2,-1.0825964E0,9.095966E-1,-1.2641371E0,-3.9826572E-1,5.0367594E-1,1.1309199E0,-1.396465E0,-1.0353326E0,1.4298859E0,-9.6458524E-1,9.1654265E-1,-1.5678565E-1,1.1672264E0,-2.2248866E-1],"categories":[],"categories_nodes":[],"categories_segments":[],"categories_sizes":[],"default_left":[true,true,true,true,true,true,true,false,false,false,false,false,false,false,false],"id":52,"left_children":[1,3,5,7,9,11,13,-1,-1,-1,-1,-1,-1,-1,-1],"loss_changes":[7.117279E2,4.3325073E1,3.219763E1,6.9822693E0,7.947004E1,3.5728283E1,1.1818451E1,0E0,0E0,0E0,0E0,0E0,0E0,0E0,0E0],"parents":[2147483647,0,0,1,1,2,2,3,3,4,4,5,5,6,6],"right_children":[2,4,6,8,10,12,14,-1,-1,-1,-1,-1,-1,-1,-1],"split_conditions":[3.0208168E0,2.0006652E0,2.0001864E0,7.95E1,2.998103E0,3.2778144E-2,1.95E1,-1.3964649E-2,-1.0353325E-2,1.4298858E-2,-9.645852E-3,9.165427E-3,-1.5678565E-3,1.1672264E-2,-2.2248866E-3],"split_indices":[1,1,2,11,1,8,5,0,0,0,0,0,0,0,0],"split_type":[0,0,0,0,0,0,0,0,0,0,0,0,0,0,0],"sum_hessian":[7.155207E2,3.5179047E2,3.6373022E2,2.773636E2,7.442687E1,1.2949821E2,2.3423201E2,1.724974E2,1.04866196E2,1.7242147E1,5.7184727E1,7.9446815E1,5.0051395E1,2.2824663E2,5.985382E0],"tree_param":{"num_deleted":"0","num_feature":"16","num_nodes":"15","size_leaf_vector":"0"}},{"base_weights":[-6.95857E-2,-1.0765585E0,9.0329003E-1,-1.315878E0,-5.56043E-1,3.0400202E-1,1.0513079E0,-1.8686746E-1,-1.3584728E0,-1.3394905E0,-1.455268E-1,1.445485E0,-3.6098492E-1,1.1020105E0,7.293847E-2],"categories":[],"categories_nodes":[],"categories_segments":[],"categories_sizes":[],"default_left":[true,true,true,true,true,true,true,false,false,false,false,false,false,false,false],"id":53,"left_children":[1,3,5,7,9,11,13,-1,-1,-1,-1,-1,-1,-1,-1],"loss_changes":[7.003291E2,4.302307E1,3.193628E1,1.1282257E1,3.594259E1,5.626075E1,1.4364838E1,0E0,0E0,0E0,0E0,0E0,0E0,0E0,0E0],"parents":[2147483647,0,0,1,1,2,2,3,3,4,4,5,5,6,6],"right_children":[2,4,6,8,10,12,14,-1,-1,-1,-1,-1,-1,-1,-1],"split_conditions":[3.0208168E0,9.75E1,4.005841E0,2.9904615E-2,1.0177114E0,3.9898903E0,1.442221E-1,-1.8686745E-3,-1.3584728E-2,-1.3394905E-2,-1.4552679E-3,1.445485E-2,-3.6098491E-3,1.1020104E-2,7.293847E-4],"split_indices":[1,11,1,8,2,1,9,0,0,0,0,0,0,0,0],"split_type":[0,0,0,0,0,0,0,0,0,0,0,0,0,0,0],"sum_hessian":[7.128774E2,3.502477E2,3.6262967E2,2.3888606E2,1.1136165E2,7.243046E1,2.9019922E2,8.880779E0,2.3000528E2,3.7511017E1,7.385063E1,2.623061E1,4.6199844E1,2.7578088E2,1.4418326E1],"tree_param":{"num_deleted":"0","num_feature":"16","num_nodes":"15","size_leaf_vector":"0"}},{"base_weights":[-6.914662E-2,-1.0701108E0,8.970951E-1,-1.3092893E0,-5.5158025E-1,4.9462903E-1,1.1174476E0,-1.8525676E-1,-1.3519001E0,-7.76334E-1,8.420956E-1,9.0448505E-1,-1.5823697E-1,1.153878E0,-2.29372E-1],"categories":[],"categories_nodes":[],"categories_segments":[],"categories_sizes":[],"default_left":[true,true,true,true,true,true,true,false,false,false,false,false,false,false,false],"id":54,"left_children":[1,3,5,7,9,11,13,-1,-1,-1,-1,-1,-1,-1,-1],"loss_changes":[6.8898676E2,4.2668854E1,3.1596405E1,1.1182312E1,3.57883E1,3.494215E1,1.1719452E1,0E0,0E0,0E0,0E0,0E0,0E0,0E0,0E0],"parents":[2147483647,0,0,1,1,2,2,3,3,4,4,5,5,6,6],"right_children":[2,4,6,8,10,12,14,-1,-1,-1,-1,-1,-1,-1,-1],"split_conditions":[3.0208168E0,9.75E1,2.0001864E0,2.9904615E-2,2.0189505E0,3.2778144E-2,1.95E1,-1.8525677E-3,-1.3519E-2,-7.7633397E-3,8.420956E-3,9.04485E-3,-1.5823697E-3,1.1538779E-2,-2.29372E-3],"split_indices":[1,11,2,8,2,8,5,0,0,0,0,0,0,0,0],"split_type":[0,0,0,0,0,0,0,0,0,0,0,0,0,0,0],"sum_hessian":[7.1037897E2,3.4886737E2,3.6151163E2,2.3770021E2,1.1116716E2,1.290504E2,2.3246123E2,8.877125E0,2.2882309E2,9.611066E1,1.5056504E1,7.9043236E1,5.0007153E1,2.2647844E2,5.982786E0],"tree_param":{"num_deleted":"0","num_feature":"16","num_nodes":"15","size_leaf_vector":"0"}},{"base_weights":[-6.869696E-2,-1.0636865E0,8.909159E-1,-1.2452741E0,-3.8453877E-1,4.9046618E-1,1.1107101E0,-1.3784888E0,-1.0163753E0,1.4258661E0,-9.4793767E-1,8.9773315E-1,-1.5667763E-1,1.1470532E0,-2.2738452E-1],"categories":[],"categories_nodes":[],"categories_segments":[],"categories_sizes":[],"default_left":[true,true,true,true,true,true,true,false,false,false,false,false,false,false,false],"id":55,"left_children":[1,3,5,7,9,11,13,-1,-1,-1,-1,-1,-1,-1,-1],"loss_changes":[6.777935E2,4.249771E1,3.1264526E1,6.969696E0,7.781491E1,3.43665E1,1.1569458E1,0E0,0E0,0E0,0E0,0E0,0E0,0E0,0E0],"parents":[2147483647,0,0,1,1,2,2,3,3,4,4,5,5,6,6],"right_children":[2,4,6,8,10,12,14,-1,-1,-1,-1,-1,-1,-1,-1],"split_conditions":[3.0208168E0,2.0006652E0,2.0001864E0,7.95E1,2.998103E0,3.2778144E-2,1.95E1,-1.3784887E-2,-1.0163752E-2,1.4258661E-2,-9.4793765E-3,8.977331E-3,-1.5667763E-3,1.1470532E-2,-2.2738453E-3],"split_indices":[1,1,2,11,1,8,5,0,0,0,0,0,0,0,0],"split_type":[0,0,0,0,0,0,0,0,0,0,0,0,0,0,0],"sum_hessian":[7.078841E2,3.4748273E2,3.6040134E2,2.7351727E2,7.3965454E1,1.2885963E2,2.315417E2,1.6972083E2,1.03796455E2,1.7191643E1,5.6773815E1,7.8849846E1,5.0009792E1,2.2555823E2,5.983466E0],"tree_param":{"num_deleted":"0","num_feature":"16","num_nodes":"15","size_leaf_vector":"0"}},{"base_weights":[-6.8274744E-2,-1.057867E0,8.847999E-1,-1.2969483E0,-5.421117E-1,2.9335344E-1,1.0317543E0,-1.7485473E-1,-1.339816E0,-1.3234882E0,-1.3531365E-1,1.431248E0,-3.6288732E-1,1.0826792E0,5.5291824E-2],"categories":[],"categories_nodes":[],"categories_segments":[],"categories_sizes":[],"default_left":[true,true,true,true,true,true,true,false,false,false,false,false,false,false,false],"id":56,"left_children":[1,3,5,7,9,11,13,-1,-1,-1,-1,-1,-1,-1,-1],"loss_changes":[6.670001E2,4.207498E1,3.101181E1,1.1133179E1,3.5294247E1,5.510581E1,1.4270569E1,0E0,0E0,0E0,0E0,0E0,0E0,0E0,0E0],"parents":[2147483647,0,0,1,1,2,2,3,3,4,4,5,5,6,6],"right_children":[2,4,6,8,10,12,14,-1,-1,-1,-1,-1,-1,-1,-1],"split_conditions":[3.0208168E0,9.75E1,4.005841E0,2.9904615E-2,1.0177114E0,3.9898903E0,1.442221E-1,-1.7485472E-3,-1.3398159E-2,-1.3234882E-2,-1.3531364E-3,1.4312479E-2,-3.628873E-3,1.0826792E-2,5.5291824E-4],"split_indices":[1,11,1,8,2,1,9,0,0,0,0,0,0,0,0],"split_type":[0,0,0,0,0,0,0,0,0,0,0,0,0,0,0],"sum_hessian":[7.0520825E2,3.4592206E2,3.592862E2,2.353224E2,1.1059965E2,7.210035E1,2.8718585E2,8.846179E0,2.2647621E2,3.709474E1,7.3504906E1,2.5940176E1,4.616018E1,2.728474E2,1.4338444E1],"tree_param":{"num_deleted":"0","num_feature":"16","num_nodes":"15","size_leaf_vector":"0"}},{"base_weights":[-6.784999E-2,-1.0516373E0,8.787903E-1,-1.2329799E0,-3.7675115E-1,4.8168272E-1,1.097683E0,-1.366907E0,-1.0038413E0,1.420316E0,-9.3678445E-1,8.860282E-1,-1.5803869E-1,1.1341604E0,-2.340654E-1],"categories":[],"categories_nodes":[],"categories_segments":[],"categories_sizes":[],"default_left":[true,true,true,true,true,true,true,false,false,false,false,false,false,false,false],"id":57,"left_children":[1,3,5,7,9,11,13,-1,-1,-1,-1,-1,-1,-1,-1],"loss_changes":[6.5625543E2,4.1822723E1,3.06904E1,6.9720154E0,7.642881E1,3.3613243E1,1.1474976E1,0E0,0E0,0E0,0E0,0E0,0E0,0E0,0E0],"parents":[2147483647,0,0,1,1,2,2,3,3,4,4,5,5,6,6],"right_children":[2,4,6,8,10,12,14,-1,-1,-1,-1,-1,-1,-1,-1],"split_conditions":[3.0208168E0,2.0006652E0,2.0001864E0,7.95E1,2.998103E0,3.2778144E-2,1.95E1,-1.366907E-2,-1.0038412E-2,1.4203159E-2,-9.367844E-3,8.860282E-3,-1.5803869E-3,1.13416035E-2,-2.340654E-3],"split_indices":[1,1,2,11,1,8,5,0,0,0,0,0,0,0,0],"split_type":[0,0,0,0,0,0,0,0,0,0,0,0,0,0,0],"sum_hessian":[7.026792E2,3.4452444E2,3.581548E2,2.70905E2,7.361942E1,1.2840585E2,2.2974893E2,1.6784026E2,1.0306475E2,1.712657E1,5.6492855E1,7.844101E1,4.9964836E1,2.2376814E2,5.98079E0],"tree_param":{"num_deleted":"0","num_feature":"16","num_nodes":"15","size_leaf_vector":"0"}},{"base_weights":[-6.743675E-2,-1.0459557E0,8.7279344E-1,-1.2849603E0,-5.329693E-1,4.7764158E-1,1.0911645E0,-1.6462338E-1,-1.3281E0,-1.3118472E0,-1.2949155E-1,8.794571E-1,-1.5648134E-1,1.1275604E0,-2.3203559E-1],"categories":[],"categories_nodes":[],"categories_segments":[],"categories_sizes":[],"default_left":[true,true,true,true,true,true,true,false,false,false,false,false,false,false,false],"id":58,"left_children":[1,3,5,7,9,11,13,-1,-1,-1,-1,-1,-1,-1,-1],"loss_changes":[6.458428E2,4.1485962E1,3.0373291E1,1.108725E1,3.472152E1,3.306108E1,1.1329529E1,0E0,0E0,0E0,0E0,0E0,0E0,0E0,0E0],"parents":[2147483647,0,0,1,1,2,2,3,3,4,4,5,5,6,6],"right_children":[2,4,6,8,10,12,14,-1,-1,-1,-1,-1,-1,-1,-1],"split_conditions":[3.0208168E0,9.75E1,2.0001864E0,2.9904615E-2,1.0177114E0,3.2778144E-2,1.95E1,-1.6462337E-3,-1.3280999E-2,-1.3118472E-2,-1.2949154E-3,8.794571E-3,-1.5648133E-3,1.1275603E-2,-2.320356E-3],"split_indices":[1,11,2,8,2,8,5,0,0,0,0,0,0,0,0],"split_type":[0,0,0,0,0,0,0,0,0,0,0,0,0,0,0],"sum_hessian":[6.9998553E2,3.4295352E2,3.5703198E2,2.3292636E2,1.10027176E2,1.2821274E2,2.2881924E2,8.815082E0,2.2411128E2,3.67784E1,7.324878E1,7.8245285E1,4.9967453E1,2.2283772E2,5.9815216E0],"tree_param":{"num_deleted":"0","num_feature":"16","num_nodes":"15","size_leaf_vector":"0"}},{"base_weights":[-6.702779E-2,-1.0398624E0,8.668556E-1,-1.2210022E0,-3.6911723E-1,2.8303313E-1,1.0128024E0,-1.3557024E0,-9.915512E-1,1.4148287E0,-9.258422E-1,1.4176829E0,-3.6464053E-1,1.0639689E0,3.8064808E-2],"categories":[],"categories_nodes":[],"categories_segments":[],"categories_sizes":[],"default_left":[true,true,true,true,true,true,true,false,false,false,false,false,false,false,false],"id":59,"left_children":[1,3,5,7,9,11,13,-1,-1,-1,-1,-1,-1,-1,-1],"loss_changes":[6.354547E2,4.1168213E1,3.0124176E1,6.9782715E0,7.507278E1,5.3991016E1,1.4180542E1,0E0,0E0,0E0,0E0,0E0,0E0,0E0,0E0],"parents":[2147483647,0,0,1,1,2,2,3,3,4,4,5,5,6,6],"right_children":[2,4,6,8,10,12,14,-1,-1,-1,-1,-1,-1,-1,-1],"split_conditions":[3.0208168E0,2.0006652E0,4.005841E0,7.95E1,2.998103E0,3.9898903E0,1.442221E-1,-1.3557023E-2,-9.915512E-3,1.4148287E-2,-9.258422E-3,1.4176829E-2,-3.6464052E-3,1.0639689E-2,3.8064807E-4],"split_indices":[1,1,1,11,1,1,9,0,0,0,0,0,0,0,0],"split_type":[0,0,0,0,0,0,0,0,0,0,0,0,0,0,0],"sum_hessian":[6.974517E2,3.4154636E2,3.5590536E2,2.6827603E2,7.327034E1,7.176544E1,2.8413992E2,1.6594745E2,1.02328575E2,1.706063E1,5.6209705E1,2.5646624E1,4.611882E1,2.698816E2,1.4258323E1],"tree_param":{"num_deleted":"0","num_feature":"16","num_nodes":"15","size_leaf_vector":"0"}},{"base_weights":[-6.661612E-2,-1.0343121E0,8.610197E-1,-1.273308E0,-5.239959E-1,4.6910936E-1,1.0785502E0,-1.5455824E-1,-1.3167343E0,-7.4634624E-1,8.449567E-1,8.6808366E-1,-1.577567E-1,1.1150903E0,-2.3852077E-1],"categories":[],"categories_nodes":[],"categories_segments":[],"categories_sizes":[],"default_left":[true,true,true,true,true,true,true,false,false,false,false,false,false,false,false],"id":60,"left_children":[1,3,5,7,9,11,13,-1,-1,-1,-1,-1,-1,-1,-1],"loss_changes":[6.2542645E2,4.0918335E1,2.982373E1,1.104422E1,3.4250793E1,3.2338783E1,1.1239105E1,0E0,0E0,0E0,0E0,0E0,0E0,0E0,0E0],"parents":[2147483647,0,0,1,1,2,2,3,3,4,4,5,5,6,6],"right_children":[2,4,6,8,10,12,14,-1,-1,-1,-1,-1,-1,-1,-1],"split_conditions":[3.0208168E0,9.75E1,2.0001864E0,2.9904615E-2,2.0189505E0,3.2778144E-2,1.95E1,-1.5455824E-3,-1.3167343E-2,-7.463462E-3,8.449567E-3,8.680836E-3,-1.577567E-3,1.1150902E-2,-2.3852077E-3],"split_indices":[1,11,2,8,2,8,5,0,0,0,0,0,0,0,0],"split_type":[0,0,0,0,0,0,0,0,0,0,0,0,0,0,0],"sum_hessian":[6.947304E2,3.3996692E2,3.547635E2,2.3051494E2,1.0945199E2,1.2775405E2,2.2700943E2,8.783861E0,2.2173108E2,9.454968E1,1.4902305E1,7.7832245E1,4.9921803E1,2.2103065E2,5.9787774E0],"tree_param":{"num_deleted":"0","num_feature":"16","num_nodes":"15","size_leaf_vector":"0"}},{"base_weights":[-6.619274E-2,-1.0282934E0,8.551934E-1,-1.2673329E0,-5.196732E-1,4.651845E-1,1.0722347E0,-1.5322147E-1,-1.3108029E0,-1.2968917E0,-1.1978039E-1,8.616831E-1,-1.5620215E-1,1.1086982E0,-2.3645088E-1],"categories":[],"categories_nodes":[],"categories_segments":[],"categories_sizes":[],"default_left":[true,true,true,true,true,true,true,false,false,false,false,false,false,false,false],"id":61,"left_children":[1,3,5,7,9,11,13,-1,-1,-1,-1,-1,-1,-1,-1],"loss_changes":[6.1536523E2,4.0624603E1,2.952005E1,1.0952606E1,3.411285E1,3.1808846E1,1.109787E1,0E0,0E0,0E0,0E0,0E0,0E0,0E0,0E0],"parents":[2147483647,0,0,1,1,2,2,3,3,4,4,5,5,6,6],"right_children":[2,4,6,8,10,12,14,-1,-1,-1,-1,-1,-1,-1,-1],"split_conditions":[3.0208168E0,9.75E1,2.0001864E0,2.9904615E-2,1.0177114E0,3.2778144E-2,1.95E1,-1.5322147E-3,-1.3108029E-2,-1.2968916E-2,-1.1978039E-3,8.61683E-3,-1.5620214E-3,1.1086983E-2,-2.3645088E-3],"split_indices":[1,11,2,8,2,8,5,0,0,0,0,0,0,0,0],"split_type":[0,0,0,0,0,0,0,0,0,0,0,0,0,0,0],"sum_hessian":[6.921859E2,3.3855487E2,3.5363104E2,2.292983E2,1.0925657E2,1.275591E2,2.2607196E2,8.780633E0,2.2051767E2,3.6355034E1,7.290153E1,7.763471E1,4.992438E1,2.2009239E2,5.979559E0],"tree_param":{"num_deleted":"0","num_feature":"16","num_nodes":"15","size_leaf_vector":"0"}},{"base_weights":[-6.579643E-2,-1.0223927E0,8.4942245E-1,-1.203784E0,-3.5628504E-1,2.7302748E-1,9.944112E-1,-1.3397039E0,-9.7383165E-1,1.4108903E0,-9.103406E-1,1.4047474E0,-3.6625007E-1,1.0458368E0,2.1243582E-2],"categories":[],"categories_nodes":[],"categories_segments":[],"categories_sizes":[],"default_left":[true,true,true,true,true,true,true,false,false,false,false,false,false,false,false],"id":62,"left_children":[1,3,5,7,9,11,13,-1,-1,-1,-1,-1,-1,-1,-1],"loss_changes":[6.0551355E2,4.042682E1,2.9270416E1,6.988739E0,7.35353E1,5.2913857E1,1.4094116E1,0E0,0E0,0E0,0E0,0E0,0E0,0E0,0E0],"parents":[2147483647,0,0,1,1,2,2,3,3,4,4,5,5,6,6],"right_children":[2,4,6,8,10,12,14,-1,-1,-1,-1,-1,-1,-1,-1],"split_conditions":[3.0208168E0,2.0006652E0,4.005841E0,7.95E1,2.998103E0,3.9898903E0,1.442221E-1,-1.3397039E-2,-9.738317E-3,1.4108903E-2,-9.103406E-3,1.4047474E-2,-3.6625005E-3,1.0458368E-2,2.1243581E-4],"split_indices":[1,1,1,11,1,1,9,0,0,0,0,0,0,0,0],"split_type":[0,0,0,0,0,0,0,0,0,0,0,0,0,0,0],"sum_hessian":[6.896323E2,3.3713657E2,3.5249576E2,2.643444E2,7.2792175E1,7.142653E1,2.810692E2,1.6310844E2,1.0123594E2,1.7005667E1,5.578651E1,2.5350634E1,4.6075897E1,2.6689108E2,1.4178137E1],"tree_param":{"num_deleted":"0","num_feature":"16","num_nodes":"15","size_leaf_vector":"0"}},{"base_weights":[-6.5396816E-2,-1.0170262E0,8.437494E-1,-1.2561541E0,-5.1094294E-1,4.568921E-1,1.0600042E0,-1.4337336E-1,-1.299933E0,-1.285977E0,-1.142656E-1,8.506216E-1,-1.5739599E-1,1.0966207E0,-2.4274708E-1],"categories":[],"categories_nodes":[],"categories_segments":[],"categories_sizes":[],"default_left":[true,true,true,true,true,true,true,false,false,false,false,false,false,false,false],"id":63,"left_children":[1,3,5,7,9,11,13,-1,-1,-1,-1,-1,-1,-1,-1],"loss_changes":[5.960034E2,4.00867E1,2.8992874E1,1.0914551E1,3.357264E1,3.1115732E1,1.1011063E1,0E0,0E0,0E0,0E0,0E0,0E0,0E0,0E0],"parents":[2147483647,0,0,1,1,2,2,3,3,4,4,5,5,6,6],"right_children":[2,4,6,8,10,12,14,-1,-1,-1,-1,-1,-1,-1,-1],"split_conditions":[3.0208168E0,9.75E1,2.0001864E0,2.9904615E-2,1.0177114E0,3.2778144E-2,1.95E1,-1.4337335E-3,-1.299933E-2,-1.285977E-2,-1.142656E-3,8.506215E-3,-1.5739598E-3,1.0966207E-2,-2.4274709E-3],"split_indices":[1,11,2,8,2,8,5,0,0,0,0,0,0,0,0],"split_type":[0,0,0,0,0,0,0,0,0,0,0,0,0,0,0],"sum_hessian":[6.8689386E2,3.3554776E2,3.513461E2,2.2686862E2,1.08679146E2,1.27096504E2,2.2424959E2,8.749406E0,2.1811922E2,3.6033836E1,7.264531E1,7.721844E1,4.987807E1,2.1827284E2,5.976757E0],"tree_param":{"num_deleted":"0","num_feature":"16","num_nodes":"15","size_leaf_vector":"0"}},{"base_weights":[-6.5008424E-2,-1.0112464E0,8.380831E-1,-1.1925262E0,-3.4903207E-1,4.5307842E-1,1.0538775E0,-1.3293643E0,-9.6209496E-1,1.4054999E0,-8.998974E-1,8.443818E-1,-1.5584497E-1,1.0904219E0,-2.4063872E-1],"categories":[],"categories_nodes":[],"categories_segments":[],"categories_sizes":[],"default_left":[true,true,true,true,true,true,true,false,false,false,false,false,false,false,false],"id":64,"left_children":[1,3,5,7,9,11,13,-1,-1,-1,-1,-1,-1,-1,-1],"loss_changes":[5.8648944E2,3.9814056E1,2.8701385E1,7.003998E0,7.224248E1,3.0606853E1,1.0873779E1,0E0,0E0,0E0,0E0,0E0,0E0,0E0,0E0],"parents":[2147483647,0,0,1,1,2,2,3,3,4,4,5,5,6,6],"right_children":[2,4,6,8,10,12,14,-1,-1,-1,-1,-1,-1,-1,-1],"split_conditions":[3.0208168E0,2.0006652E0,2.0001864E0,7.95E1,2.998103E0,3.2778144E-2,1.95E1,-1.3293643E-2,-9.62095E-3,1.4054999E-2,-8.998974E-3,8.4438175E-3,-1.5584497E-3,1.0904219E-2,-2.4063871E-3],"split_indices":[1,1,2,11,1,8,5,0,0,0,0,0,0,0,0],"split_type":[0,0,0,0,0,0,0,0,0,0,0,0,0,0,0],"sum_hessian":[6.8433044E2,3.3412372E2,3.5020673E2,2.616867E2,7.243701E1,1.2690018E2,2.2330655E2,1.6119472E2,1.00492E2,1.6937819E1,5.5499195E1,7.701956E1,4.9880615E1,2.1732896E2,5.9775863E0],"tree_param":{"num_deleted":"0","num_feature":"16","num_nodes":"15","size_leaf_vector":"0"}},{"base_weights":[-6.462345E-2,-1.0059961E0,8.324685E-1,-1.2452713E0,-5.0236845E-1,2.633238E-1,9.765428E-1,-1.3368173E-1,-1.2893726E0,-1.2753476E0,-1.0886021E-1,1.3924019E0,-3.677211E-1,1.0282435E0,4.814883E-3],"categories":[],"categories_nodes":[],"categories_segments":[],"categories_sizes":[],"default_left":[true,true,true,true,true,true,true,false,false,false,false,false,false,false,false],"id":65,"left_children":[1,3,5,7,9,11,13,-1,-1,-1,-1,-1,-1,-1,-1],"loss_changes":[5.7728784E2,3.956665E1,2.8447906E1,1.0878815E1,3.304654E1,5.1872063E1,1.4010773E1,0E0,0E0,0E0,0E0,0E0,0E0,0E0,0E0],"parents":[2147483647,0,0,1,1,2,2,3,3,4,4,5,5,6,6],