{"learner":{"attributes":{"best_iteration":"667","best_ntree_limit":"668","scikit_learn":"{\"use_label_encoder\": false, \"n_estimators\": 668, \"objective\": \"binary:logistic\", \"max_depth\": 3, \"learning_rate\": 0.01, \"verbosity\": null, \"booster\": \"gbtree\", \"tree_method\": null, \"gamma\": null, \"min_child_weight\": null, \"max_delta_step\": null, \"subsample\": null, \"colsample_bytree\": null, \"colsample_bylevel\": null, \"colsample_bynode\": null, \"reg_alpha\": null, \"reg_lambda\": null, \"scale_pos_weight\": null, \"base_score\": 0.5, \"missing\": NaN, \"num_parallel_tree\": null, \"random_state\": null, \"n_jobs\": -1, \"monotone_constraints\": null, \"interaction_constraints\": null, \"importance_type\": null, \"gpu_id\": null, \"validate_parameters\": null, \"predictor\": null, \"enable_categorical\": false, \"kwargs\": {\"eval_metric\": \"logloss\"}, \"classes_\": [0, 1], \"n_classes_\": 2, \"evals_result_\": {\"validation_0\": {\"logloss\": [0.687112, 0.681194, 0.675391, 0.669701, 0.664121, 0.658647, 0.653277, 0.648009, 0.64284, 0.637766, 0.632787, 0.6279, 0.6231, 0.618388, 0.613763, 0.609217, 0.604754, 0.60037, 0.596063, 0.591831, 0.587673, 0.583722, 0.579702, 0.575749, 0.571994, 0.568172, 0.564542, 0.560842, 0.557332, 0.55375, 0.550225, 0.546884, 0.543471, 0.540239, 0.536932, 0.533803, 0.530598, 0.527568, 0.524462, 0.521407, 0.518518, 0.515554, 0.512755, 0.509881, 0.50717, 0.504381, 0.501753, 0.499047, 0.496501, 0.493875, 0.491289, 0.488857, 0.486347, 0.483988, 0.481551, 0.479263, 0.476896, 0.474676, 0.472377, 0.470223, 0.467989, 0.465788, 0.463728, 0.46159, 0.459589, 0.45751, 0.455568, 0.453548, 0.451662, 0.449698, 0.447866, 0.445957, 0.444177, 0.44232, 0.44049, 0.438785, 0.437005, 0.435349, 0.433617, 0.432007, 0.430323, 0.428758, 0.427119, 0.425598, 0.424002, 0.422524, 0.420971, 0.419533, 0.418021, 0.416623, 0.415149, 0.413787, 0.412352, 0.411026, 0.409625, 0.407878, 0.406187, 0.404837, 0.403507, 0.401873, 0.400145, 0.398962, 0.397815, 0.396141, 0.39459, 0.393366, 0.392276, 0.390777, 0.389596, 0.388548, 0.386732, 0.384946, 0.383191, 0.381467, 0.379771, 0.378104, 0.376466, 0.374855, 0.37327, 0.371712, 0.37018, 0.368673, 0.36719, 0.365732, 0.364297, 0.362886, 0.361497, 0.360131, 0.358787, 0.357464, 0.356162, 0.354881, 0.353621, 0.352381, 0.35116, 0.349958, 0.348775, 0.347611, 0.346464, 0.345336, 0.344483, 0.343643, 0.342557, 0.341683, 0.340876, 0.340022, 0.339233, 0.338457, 0.337628, 0.336614, 0.335552, 0.334563, 0.333832, 0.332854, 0.332025, 0.331073, 0.330305, 0.329372, 0.328582, 0.327673, 0.326778, 0.325777, 0.325024, 0.324156, 0.32318, 0.322329, 0.321391, 0.320677, 0.31974, 0.319016, 0.318091, 0.317501, 0.3167, 0.315754, 0.315086, 0.314399, 0.313479, 0.312686, 0.312133, 0.311357, 0.310697, 0.310162, 0.309636, 0.308993, 0.308477, 0.307726, 0.307206, 0.306699, 0.306204, 0.305472, 0.304764, 0.304284, 0.303685, 0.303215, 0.302634, 0.301932, 0.301457, 0.300881, 0.300431, 0.299951, 0.299356, 0.298902, 0.298317, 0.297887, 0.297463, 0.297002, 0.296442, 0.295784, 0.295373, 0.294926, 0.29448, 0.294064, 0.293514, 0.293121, 0.292578, 0.292177, 0.291796, 0.291375, 0.290864, 0.290245, 0.289875, 0.289445, 0.288929, 0.28857, 0.288056, 0.287687, 0.287292, 0.286944, 0.286601, 0.285824, 0.28506, 0.284309, 0.283911, 0.283312, 0.282578, 0.281855, 0.281533, 0.280823, 0.280126, 0.279438, 0.279127, 0.278452, 0.277823, 0.277202, 0.276589, 0.275984, 0.275386, 0.27509, 0.274501, 0.27392, 0.273631, 0.273058, 0.272492, 0.272129, 0.271772, 0.271406, 0.270855, 0.270311, 0.269812, 0.269464, 0.268932, 0.268407, 0.267946, 0.26743, 0.266921, 0.266473, 0.266125, 0.265624, 0.265131, 0.264697, 0.264212, 0.263883, 0.263405, 0.262985, 0.262514, 0.262178, 0.261714, 0.261306, 0.26085, 0.260535, 0.260085, 0.259641, 0.259332, 0.258894, 0.258503, 0.25818, 0.25775, 0.257324, 0.256944, 0.256523, 0.256208, 0.255792, 0.255379, 0.25501, 0.254771, 0.254364, 0.253962, 0.253603, 0.253207, 0.252906, 0.252506, 0.252156, 0.251768, 0.251376, 0.251034, 0.250677, 0.250298, 0.249948, 0.249566, 0.249315, 0.248971, 0.248651, 0.248276, 0.248018, 0.247648, 0.247335, 0.247, 0.24664, 0.246335, 0.246007, 0.245646, 0.245396, 0.24504, 0.244742, 0.244422, 0.244072, 0.24378, 0.243465, 0.243122, 0.242813, 0.242471, 0.242194, 0.241856, 0.241618, 0.241286, 0.241016, 0.240716, 0.240385, 0.240108, 0.239889, 0.239575, 0.239361, 0.2391, 0.23887, 0.238562, 0.238389, 0.238181, 0.237918, 0.237714, 0.237411, 0.237211, 0.236952, 0.236728, 0.236531, 0.236234, 0.235981, 0.235787, 0.235496, 0.235327, 0.235137, 0.234872, 0.234516, 0.234231, 0.234045, 0.233801, 0.233637, 0.233288, 0.233073, 0.232817, 0.232635, 0.232357, 0.232014, 0.231856, 0.23162, 0.231284, 0.230999, 0.230844, 0.230601, 0.230271, 0.230001, 0.229794, 0.229515, 0.229291, 0.228967, 0.228816, 0.228667, 0.228413, 0.228198, 0.227879, 0.227733, 0.227525, 0.227256, 0.227051, 0.226907, 0.226594, 0.226452, 0.226249, 0.226006, 0.225807, 0.225668, 0.225531, 0.225217, 0.225015, 0.22488, 0.224665, 0.224423, 0.224224, 0.224083, 0.223776, 0.223627, 0.22349, 0.223288, 0.223052, 0.222906, 0.222677, 0.222487, 0.222295, 0.221996, 0.221866, 0.221704, 0.221576, 0.221325, 0.221137, 0.22093, 0.22064, 0.220482, 0.220343, 0.220187, 0.219966, 0.219829, 0.219638, 0.219416, 0.219283, 0.219101, 0.218818, 0.218687, 0.218486, 0.218334, 0.218201, 0.217991, 0.217813, 0.217664, 0.217387, 0.217258, 0.217129, 0.216982, 0.216749, 0.216573, 0.216301, 0.216175, 0.216049, 0.215845, 0.215651, 0.215479, 0.215336, 0.21507, 0.214946, 0.214806, 0.214683, 0.214482, 0.214309, 0.214049, 0.213927, 0.213756, 0.213636, 0.213499, 0.213277, 0.213112, 0.212977, 0.21272, 0.212602, 0.212485, 0.212318, 0.212151, 0.211898, 0.211628, 0.211437, 0.211171, 0.210982, 0.210867, 0.210684, 0.210554, 0.210369, 0.210256, 0.210094, 0.209925, 0.209666, 0.209482, 0.209325, 0.209083, 0.208829, 0.208702, 0.208523, 0.208413, 0.208164, 0.207987, 0.207829, 0.207595, 0.207488, 0.207331, 0.20711, 0.206936, 0.206786, 0.206543, 0.206314, 0.206209, 0.206056, 0.205934, 0.205765, 0.205612, 0.205374, 0.205147, 0.205001, 0.204836, 0.204733, 0.204614, 0.204513, 0.204289, 0.204141, 0.203909, 0.203747, 0.203647, 0.203436, 0.203277, 0.203123, 0.203026, 0.202881, 0.202654, 0.202436, 0.202221, 0.202082, 0.201967, 0.201825, 0.201603, 0.201442, 0.201346, 0.201143, 0.20099, 0.200847, 0.200631, 0.200537, 0.200426, 0.200209, 0.200059, 0.199925, 0.199787, 0.199625, 0.199419, 0.199328, 0.199219, 0.199011, 0.198879, 0.198748, 0.198536, 0.198342, 0.198196, 0.198104, 0.198016, 0.197873, 0.197731, 0.197625, 0.197427, 0.19727, 0.197124, 0.197034, 0.196908, 0.19678, 0.196693, 0.196504, 0.196309, 0.196224, 0.196121, 0.195924, 0.195839, 0.195637, 0.195526, 0.195416, 0.195279, 0.195127, 0.194928, 0.194793, 0.194684, 0.194551, 0.194359, 0.194238, 0.194155, 0.194048, 0.193942, 0.193755, 0.193633, 0.193485, 0.193403, 0.193215, 0.193096, 0.193015, 0.192911, 0.192693, 0.192512, 0.19241, 0.192265, 0.192145, 0.191929, 0.191813, 0.19163, 0.191551, 0.191338, 0.191167, 0.191088, 0.190971, 0.190796, 0.190599, 0.190391, 0.190222, 0.190097, 0.19002, 0.18992, 0.189716, 0.189551, 0.189358, 0.189234, 0.189136, 0.188996, 0.188874, 0.188676, 0.188514, 0.188345, 0.188149, 0.188074, 0.187962, 0.187874, 0.187682, 0.187538, 0.187372, 0.187214, 0.187143, 0.187033, 0.186845, 0.186689, 0.186525, 0.186455, 0.186269, 0.186116, 0.186023, 0.185837, 0.185717, 0.185535, 0.185428, 0.185342, 0.185192, 0.185015, 0.184936, 0.18476, 0.184627, 0.184467, 0.18432, 0.18423, 0.184113, 0.18394, 0.183858, 0.183772, 0.183593, 0.183504, 0.183423, 0.183254, 0.183125, 0.183021, 0.182906, 0.182739]}, \"validation_1\": {\"logloss\": [0.687099, 0.681172, 0.675364, 0.669672, 0.664092, 0.658622, 0.653259, 0.648, 0.642842, 0.637783, 0.63282, 0.627951, 0.623173, 0.618456, 0.613855, 0.60931, 0.604875, 0.600496, 0.596197, 0.591998, 0.587852, 0.58406, 0.580074, 0.576146, 0.572545, 0.568738, 0.565269, 0.561604, 0.558243, 0.554688, 0.551185, 0.547963, 0.544583, 0.541467, 0.5382, 0.535196, 0.532016, 0.529101, 0.526031, 0.523003, 0.520226, 0.517315, 0.514626, 0.511782, 0.509179, 0.506432, 0.503912, 0.501239, 0.498809, 0.496217, 0.493676, 0.491358, 0.488884, 0.486628, 0.484239, 0.482059, 0.479731, 0.47761, 0.475361, 0.473306, 0.471112, 0.46897, 0.467013, 0.464916, 0.463022, 0.460986, 0.459145, 0.457179, 0.455386, 0.453465, 0.451726, 0.449872, 0.44819, 0.446377, 0.444607, 0.442991, 0.441256, 0.439706, 0.43802, 0.436497, 0.43487, 0.433393, 0.431799, 0.430381, 0.428831, 0.427438, 0.425944, 0.424594, 0.423164, 0.421901, 0.420425, 0.41915, 0.417713, 0.416521, 0.415139, 0.413283, 0.411484, 0.41018, 0.40887, 0.407131, 0.405289, 0.404194, 0.403094, 0.401372, 0.39974, 0.398424, 0.397236, 0.395658, 0.394387, 0.393387, 0.391167, 0.388988, 0.386849, 0.384748, 0.382701, 0.38069, 0.378715, 0.376759, 0.374853, 0.372981, 0.371141, 0.369333, 0.367539, 0.365792, 0.364076, 0.362388, 0.360712, 0.35908, 0.357476, 0.355899, 0.354347, 0.352805, 0.351304, 0.349828, 0.348376, 0.346931, 0.345525, 0.344143, 0.342783, 0.341444, 0.340598, 0.339767, 0.338413, 0.337191, 0.336397, 0.335201, 0.334367, 0.333547, 0.332333, 0.331123, 0.329517, 0.328278, 0.327521, 0.326547, 0.325812, 0.324864, 0.323725, 0.322797, 0.322107, 0.321204, 0.320353, 0.318818, 0.318169, 0.317309, 0.315808, 0.315006, 0.313523, 0.312917, 0.31147, 0.310757, 0.309332, 0.308808, 0.30802, 0.306576, 0.305586, 0.304891, 0.303483, 0.302575, 0.302061, 0.301171, 0.30052, 0.300023, 0.299526, 0.2989, 0.298415, 0.297564, 0.297101, 0.296655, 0.29615, 0.295331, 0.294515, 0.294027, 0.293386, 0.292946, 0.292029, 0.291267, 0.290814, 0.290198, 0.289779, 0.289124, 0.288458, 0.288028, 0.287364, 0.286976, 0.286558, 0.286067, 0.285211, 0.284507, 0.284139, 0.283523, 0.283049, 0.282663, 0.282039, 0.281689, 0.281082, 0.280715, 0.280378, 0.27993, 0.27911, 0.278438, 0.278081, 0.277515, 0.277008, 0.276692, 0.276116, 0.275786, 0.275363, 0.275061, 0.274732, 0.273349, 0.271991, 0.27066, 0.270135, 0.269496, 0.268193, 0.266914, 0.266635, 0.26538, 0.26417, 0.262944, 0.262676, 0.261495, 0.260535, 0.259587, 0.258651, 0.257727, 0.256814, 0.256559, 0.255658, 0.254768, 0.25452, 0.253641, 0.252774, 0.252211, 0.251656, 0.25133, 0.250482, 0.249644, 0.248978, 0.248439, 0.247621, 0.246813, 0.246363, 0.245556, 0.244769, 0.244329, 0.24402, 0.243246, 0.242476, 0.242088, 0.241335, 0.240817, 0.240064, 0.239645, 0.238904, 0.238608, 0.237886, 0.237515, 0.236804, 0.236354, 0.235656, 0.234966, 0.23447, 0.233777, 0.233419, 0.233135, 0.232462, 0.232134, 0.231785, 0.231124, 0.230847, 0.230527, 0.229867, 0.229527, 0.229311, 0.228998, 0.228691, 0.228359, 0.228058, 0.227792, 0.227155, 0.226793, 0.226499, 0.225873, 0.225555, 0.225222, 0.224936, 0.224609, 0.223996, 0.223809, 0.223489, 0.223135, 0.22253, 0.222113, 0.22151, 0.221163, 0.220852, 0.220581, 0.220241, 0.219937, 0.219353, 0.218948, 0.218371, 0.218038, 0.217741, 0.21718, 0.216846, 0.216554, 0.216299, 0.216014, 0.215464, 0.215208, 0.214657, 0.214267, 0.214021, 0.213777, 0.213501, 0.212967, 0.212645, 0.212473, 0.212245, 0.212076, 0.211832, 0.21148, 0.211261, 0.211149, 0.210984, 0.210745, 0.210583, 0.210368, 0.210209, 0.209924, 0.209583, 0.209426, 0.209215, 0.208935, 0.208782, 0.208575, 0.208391, 0.20824, 0.207958, 0.207308, 0.207106, 0.206959, 0.206686, 0.206508, 0.205868, 0.205534, 0.205272, 0.205129, 0.204932, 0.204305, 0.204132, 0.203916, 0.203298, 0.202926, 0.202802, 0.202515, 0.201901, 0.201709, 0.201387, 0.201025, 0.200825, 0.200225, 0.200128, 0.200032, 0.199803, 0.199581, 0.198984, 0.198891, 0.198692, 0.198336, 0.198142, 0.198051, 0.197466, 0.197377, 0.197182, 0.196962, 0.196766, 0.196678, 0.196593, 0.195992, 0.195827, 0.195743, 0.195413, 0.195176, 0.195015, 0.194858, 0.194267, 0.194109, 0.193958, 0.193755, 0.193525, 0.193427, 0.193221, 0.193041, 0.192885, 0.192306, 0.192225, 0.192075, 0.191995, 0.191642, 0.19149, 0.191172, 0.190622, 0.190476, 0.190326, 0.190183, 0.189986, 0.189898, 0.189698, 0.189442, 0.189333, 0.189186, 0.188647, 0.188539, 0.18823, 0.188092, 0.187948, 0.187714, 0.187569, 0.187434, 0.186906, 0.1868, 0.186662, 0.186531, 0.186213, 0.186063, 0.185539, 0.185436, 0.185301, 0.185075, 0.184774, 0.184633, 0.184506, 0.183995, 0.183893, 0.183769, 0.183633, 0.183416, 0.183261, 0.182754, 0.182653, 0.182513, 0.182434, 0.182314, 0.182007, 0.181871, 0.181753, 0.181258, 0.181161, 0.181034, 0.180909, 0.180758, 0.180267, 0.179909, 0.179696, 0.179343, 0.179175, 0.179104, 0.178816, 0.178682, 0.178474, 0.178404, 0.178273, 0.178093, 0.177747, 0.177547, 0.177417, 0.176946, 0.176607, 0.176476, 0.176297, 0.176229, 0.175895, 0.175701, 0.175556, 0.175106, 0.17504, 0.174914, 0.174689, 0.174516, 0.174392, 0.174064, 0.173621, 0.173557, 0.173434, 0.173308, 0.173121, 0.172981, 0.17266, 0.172228, 0.172108, 0.171936, 0.17185, 0.171727, 0.171666, 0.171237, 0.171119, 0.170773, 0.170593, 0.170533, 0.170317, 0.17015, 0.169985, 0.169927, 0.169823, 0.169484, 0.169077, 0.168665, 0.168543, 0.168425, 0.168313, 0.16801, 0.167818, 0.167755, 0.167545, 0.167383, 0.167235, 0.166813, 0.166758, 0.166644, 0.166347, 0.166204, 0.166086, 0.165978, 0.165733, 0.165336, 0.165284, 0.165172, 0.164764, 0.164661, 0.164545, 0.164231, 0.164028, 0.163874, 0.163797, 0.163739, 0.163581, 0.163478, 0.16337, 0.162984, 0.162745, 0.162585, 0.16251, 0.162398, 0.162299, 0.162226, 0.162027, 0.161645, 0.161596, 0.161493, 0.161103, 0.161002, 0.160698, 0.16063, 0.160594, 0.160449, 0.160217, 0.159918, 0.159781, 0.159714, 0.159573, 0.159448, 0.159341, 0.15927, 0.159205, 0.159172, 0.158818, 0.158726, 0.158499, 0.15843, 0.158044, 0.157939, 0.157871, 0.157859, 0.157629, 0.157275, 0.157266, 0.157043, 0.156965, 0.156764, 0.156668, 0.156291, 0.156225, 0.156027, 0.155884, 0.155788, 0.155713, 0.155357, 0.15502, 0.154825, 0.154685, 0.154544, 0.154501, 0.154439, 0.154248, 0.15411, 0.153779, 0.153662, 0.153601, 0.153386, 0.153257, 0.153043, 0.152907, 0.152574, 0.152389, 0.152342, 0.152273, 0.152242, 0.15206, 0.151834, 0.151505, 0.151372, 0.15133, 0.151252, 0.151046, 0.150913, 0.150682, 0.15064, 0.150463, 0.15035, 0.150292, 0.149984, 0.149852, 0.149677, 0.149613, 0.149571, 0.149442, 0.14924, 0.149181, 0.149011, 0.148805, 0.148472, 0.148364, 0.148308, 0.14818, 0.148012, 0.147971, 0.147937, 0.147625, 0.147569, 0.147529, 0.147335, 0.147134, 0.147074, 0.146948, 0.146794]}}, \"_estimator_type\": \"classifier\"}"},"feature_names":["partners_cnt","orders_cnt","perc","month","day","hour","weekday","day_of_year","day_freq","weekday_freq","days_until_holiday","days_since_holiday","is_holiday","is_weekend","days_until_nonworking","days_since_nonworking"],"feature_types":["float","float","float","int","int","int","int","int","float","float","int","int","int","int","int","int"],"gradient_booster":{"model":{"gbtree_model_param":{"num_trees":"668","size_leaf_vector":"0"},"tree_info":[0,0,0,0,0,0,0,0,0,0,0,0,0,0,0,0,0,0,0,0,0,0,0,0,0,0,0,0,0,0,0,0,0,0,0,0,0,0,0,0,0,0,0,0,0,0,0,0,0,0,0,0,0,0,0,0,0,0,0,0,0,0,0,0,0,0,0,0,0,0,0,0,0,0,0,0,0,0,0,0,0,0,0,0,0,0,0,0,0,0,0,0,0,0,0,0,0,0,0,0,0,0,0,0,0,0,0,0,0,0,0,0,0,0,0,0,0,0,0,0,0,0,0,0,0,0,0,0,0,0,0,0,0,0,0,0,0,0,0,0,0,0,0,0,0,0,0,0,0,0,0,0,0,0,0,0,0,0,0,0,0,0,0,0,0,0,0,0,0,0,0,0,0,0,0,0,0,0,0,0,0,0,0,0,0,0,0,0,0,0,0,0,0,0,0,0,0,0,0,0,0,0,0,0,0,0,0,0,0,0,0,0,0,0,0,0,0,0,0,0,0,0,0,0,0,0,0,0,0,0,0,0,0,0,0,0,0,0,0,0,0,0,0,0,0,0,0,0,0,0,0,0,0,0,0,0,0,0,0,0,0,0,0,0,0,0,0,0,0,0,0,0,0,0,0,0,0,0,0,0,0,0,0,0,0,0,0,0,0,0,0,0,0,0,0,0,0,0,0,0,0,0,0,0,0,0,0,0,0,0,0,0,0,0,0,0,0,0,0,0,0,0,0,0,0,0,0,0,0,0,0,0,0,0,0,0,0,0,0,0,0,0,0,0,0,0,0,0,0,0,0,0,0,0,0,0,0,0,0,0,0,0,0,0,0,0,0,0,0,0,0,0,0,0,0,0,0,0,0,0,0,0,0,0,0,0,0,0,0,0,0,0,0,0,0,0,0,0,0,0,0,0,0,0,0,0,0,0,0,0,0,0,0,0,0,0,0,0,0,0,0,0,0,0,0,0,0,0,0,0,0,0,0,0,0,0,0,0,0,0,0,0,0,0,0,0,0,0,0,0,0,0,0,0,0,0,0,0,0,0,0,0,0,0,0,0,0,0,0,0,0,0,0,0,0,0,0,0,0,0,0,0,0,0,0,0,0,0,0,0,0,0,0,0,0,0,0,0,0,0,0,0,0,0,0,0,0,0,0,0,0,0,0,0,0,0,0,0,0,0,0,0,0,0,0,0,0,0,0,0,0,0,0,0,0,0,0,0,0,0,0,0,0,0,0,0,0,0,0,0,0,0,0,0,0,0,0,0,0,0,0,0,0,0,0,0,0,0,0,0,0,0,0,0,0,0,0,0,0,0,0,0,0,0,0,0,0,0,0,0,0,0,0,0,0,0,0,0,0,0,0,0,0,0,0,0,0,0,0,0,0,0,0,0,0,0,0,0,0,0,0,0,0,0,0,0,0,0,0,0,0,0,0,0,0,0,0,0,0,0,0,0,0,0,0,0,0,0,0,0,0,0,0,0,0,0,0,0,0,0,0,0,0,0,0,0,0,0],"trees":[{"base_weights":[-1.0506449E-1,-1.3493835E0,1.3270271E0,-1.7561904E0,-6.910198E-1,7.4698794E-1,1.5472404E0,-1.9050847E0,-1.5517242E0,1.9157895E0,-1.1236749E0,1.9565217E0,-2.1276596E-1,1.6316316E0,3.243243E-1],"categories":[],"categories_nodes":[],"categories_segments":[],"categories_sizes":[],"default_left":[true,true,true,true,true,true,true,false,false,false,false,false,false,false,false],"id":0,"left_children":[1,3,5,7,9,11,13,-1,-1,-1,-1,-1,-1,-1,-1],"loss_changes":[1.4180182E3,1.1281378E2,4.6105225E1,5.0353394E0,1.8740198E2,1.20854965E2,2.705188E1,0E0,0E0,0E0,0E0,0E0,0E0,0E0,0E0],"parents":[2147483647,0,0,1,1,2,2,3,3,4,4,5,5,6,6],"right_children":[2,4,6,8,10,12,14,-1,-1,-1,-1,-1,-1,-1,-1],"split_conditions":[3.003952E0,1.0014606E0,4.001461E0,1.4286676E-1,1.9099948E0,3.9989743E0,5.5E0,-1.9050848E-2,-1.5517241E-2,1.9157894E-2,-1.1236749E-2,1.9565217E-2,-2.1276595E-3,1.6316315E-2,3.243243E-3],"split_indices":[1,0,1,9,0,1,6,0,0,0,0,0,0,0,0],"split_type":[0,0,0,0,0,0,0,0,0,0,0,0,0,0,0],"sum_hessian":[7.9375E2,4.2475E2,3.69E2,2.615E2,1.6325E2,1.0275E2,2.6625E2,1.465E2,1.15E2,2.275E1,1.405E2,4.5E1,5.775E1,2.4875E2,1.75E1],"tree_param":{"num_deleted":"0","num_feature":"16","num_nodes":"15","size_leaf_vector":"0"}},{"base_weights":[-1.04007065E-1,-1.3360364E0,1.3139316E0,-1.7388947E0,-6.840885E-1,7.397176E-1,1.5319368E0,-1.8863337E0,-1.5364326E0,1.8976057E0,-1.1125525E0,1.9375638E0,-2.106747E-1,1.6154882E0,3.2125723E-1],"categories":[],"categories_nodes":[],"categories_segments":[],"categories_sizes":[],"default_left":[true,true,true,true,true,true,true,false,false,false,false,false,false,false,false],"id":1,"left_children":[1,3,5,7,9,11,13,-1,-1,-1,-1,-1,-1,-1,-1],"loss_changes":[1.3900542E3,1.10623474E2,4.5181335E1,4.9370117E0,1.8379128E2,1.1851469E2,2.6512756E1,0E0,0E0,0E0,0E0,0E0,0E0,0E0,0E0],"parents":[2147483647,0,0,1,1,2,2,3,3,4,4,5,5,6,6],"right_children":[2,4,6,8,10,12,14,-1,-1,-1,-1,-1,-1,-1,-1],"split_conditions":[3.003952E0,1.0014606E0,4.001461E0,1.4286676E-1,1.9099948E0,3.9989743E0,5.5E0,-1.8863337E-2,-1.5364326E-2,1.8976057E-2,-1.11255245E-2,1.9375637E-2,-2.106747E-3,1.6154882E-2,3.2125723E-3],"split_indices":[1,0,1,9,0,1,6,0,0,0,0,0,0,0,0],"split_type":[0,0,0,0,0,0,0,0,0,0,0,0,0,0,0],"sum_hessian":[7.937023E2,4.2472327E2,3.68979E2,2.6147977E2,1.6324348E2,1.0274563E2,2.662334E2,1.464867E2,1.1499308E2,2.2747913E1,1.4049557E2,4.4995693E1,5.774993E1,2.4873344E2,1.7499954E1],"tree_param":{"num_deleted":"0","num_feature":"16","num_nodes":"15","size_leaf_vector":"0"}},{"base_weights":[-1.0297241E-1,-1.322985E0,1.3011109E0,-1.7220304E0,-6.772796E-1,7.3257935E-1,1.5169702E0,-1.8680989E0,-1.5214707E0,1.8799201E0,-1.1016084E0,1.9191439E0,-2.0860457E-1,1.5997133E0,3.1822053E-1],"categories":[],"categories_nodes":[],"categories_segments":[],"categories_sizes":[],"default_left":[true,true,true,true,true,true,true,false,false,false,false,false,false,false,false],"id":2,"left_children":[1,3,5,7,9,11,13,-1,-1,-1,-1,-1,-1,-1,-1],"loss_changes":[1.3628041E3,1.0850763E2,4.428589E1,4.845459E0,1.802695E2,1.1624646E2,2.5992493E1,0E0,0E0,0E0,0E0,0E0,0E0,0E0,0E0],"parents":[2147483647,0,0,1,1,2,2,3,3,4,4,5,5,6,6],"right_children":[2,4,6,8,10,12,14,-1,-1,-1,-1,-1,-1,-1,-1],"split_conditions":[3.003952E0,1.0014606E0,4.001461E0,1.4286676E-1,1.9099948E0,3.9989743E0,5.5E0,-1.8680988E-2,-1.5214707E-2,1.87992E-2,-1.1016084E-2,1.9191438E-2,-2.0860457E-3,1.5997132E-2,3.1822051E-3],"split_indices":[1,0,1,9,0,1,6,0,0,0,0,0,0,0,0],"split_type":[0,0,0,0,0,0,0,0,0,0,0,0,0,0,0],"sum_hessian":[7.9356104E2,4.246441E2,3.6891693E2,2.6141995E2,1.6322417E2,1.0273268E2,2.6618427E2,1.4644736E2,1.1497259E2,2.2741732E1,1.4048244E2,4.4982944E1,5.7749737E1,2.4868443E2,1.7499817E1],"tree_param":{"num_deleted":"0","num_feature":"16","num_nodes":"15","size_leaf_vector":"0"}},{"base_weights":[-1.0195967E-1,-1.3102186E0,1.2885551E0,-1.705581E0,-6.70589E-1,7.2556895E-1,1.5023282E0,-1.8503591E0,-1.5068265E0,1.8627132E0,-1.0908371E0,1.9012396E0,-2.065551E-1,1.5842931E0,3.152144E-1],"categories":[],"categories_nodes":[],"categories_segments":[],"categories_sizes":[],"default_left":[true,true,true,true,true,true,true,false,false,false,false,false,false,false,false],"id":3,"left_children":[1,3,5,7,9,11,13,-1,-1,-1,-1,-1,-1,-1,-1],"loss_changes":[1.3362421E3,1.0646265E2,4.3417664E1,4.760193E0,1.7683374E2,1.1404704E2,2.5490295E1,0E0,0E0,0E0,0E0,0E0,0E0,0E0,0E0],"parents":[2147483647,0,0,1,1,2,2,3,3,4,4,5,5,6,6],"right_children":[2,4,6,8,10,12,14,-1,-1,-1,-1,-1,-1,-1,-1],"split_conditions":[3.003952E0,1.0014606E0,4.001461E0,1.4286676E-1,1.9099948E0,3.9989743E0,5.5E0,-1.850359E-2,-1.5068265E-2,1.8627131E-2,-1.0908371E-2,1.9012395E-2,-2.065551E-3,1.5842931E-2,3.152144E-3],"split_indices":[1,0,1,9,0,1,6,0,0,0,0,0,0,0,0],"split_type":[0,0,0,0,0,0,0,0,0,0,0,0,0,0,0],"sum_hessian":[7.933291E2,4.2451413E2,3.68815E2,2.613217E2,1.6319244E2,1.02711426E2,2.6610358E2,1.4638275E2,1.1493894E2,2.2731575E1,1.4046086E2,4.4962006E1,5.774942E1,2.4860397E2,1.7499594E1],"tree_param":{"num_deleted":"0","num_feature":"16","num_nodes":"15","size_leaf_vector":"0"}},{"base_weights":[-1.0096817E-1,-1.2977269E0,1.276255E0,-1.6895305E0,-6.6401345E-1,7.1868247E-1,1.4879992E0,-1.8330948E0,-1.4924889E0,1.8459666E0,-1.0802343E0,1.8838307E0,-2.045261E-1,1.5692148E0,3.122378E-1],"categories":[],"categories_nodes":[],"categories_segments":[],"categories_sizes":[],"default_left":[true,true,true,true,true,true,true,false,false,false,false,false,false,false,false],"id":4,"left_children":[1,3,5,7,9,11,13,-1,-1,-1,-1,-1,-1,-1,-1],"loss_changes":[1.3103451E3,1.0448505E2,4.2575317E1,4.680908E0,1.734812E2,1.119135E2,2.5005188E1,0E0,0E0,0E0,0E0,0E0,0E0,0E0,0E0],"parents":[2147483647,0,0,1,1,2,2,3,3,4,4,5,5,6,6],"right_children":[2,4,6,8,10,12,14,-1,-1,-1,-1,-1,-1,-1,-1],"split_conditions":[3.003952E0,1.0014606E0,4.001461E0,1.4286676E-1,1.9099948E0,3.9989743E0,5.5E0,-1.8330948E-2,-1.49248885E-2,1.8459665E-2,-1.0802343E-2,1.8838307E-2,-2.045261E-3,1.5692148E-2,3.122378E-3],"split_indices":[1,0,1,9,0,1,6,0,0,0,0,0,0,0,0],"split_type":[0,0,0,0,0,0,0,0,0,0,0,0,0,0,0],"sum_hessian":[7.930092E2,4.2433484E2,3.6867438E2,2.6118616E2,1.6314868E2,1.026821E2,2.6599228E2,1.4629364E2,1.1489252E2,2.271756E1,1.4043112E2,4.4933113E1,5.7748985E1,2.4849298E2,1.7499285E1],"tree_param":{"num_deleted":"0","num_feature":"16","num_nodes":"15","size_leaf_vector":"0"}},{"base_weights":[-9.9996954E-2,-1.2854995E0,1.2642016E0,-1.6738634E0,-6.575487E-1,7.1191585E-1,1.4739718E0,-1.8162869E0,-1.4784465E0,1.8296621E0,-1.0697945E0,1.8668972E0,-2.0251769E-1,1.5544657E0,3.0929068E-1],"categories":[],"categories_nodes":[],"categories_segments":[],"categories_sizes":[],"default_left":[true,true,true,true,true,true,true,false,false,false,false,false,false,false,false],"id":5,"left_children":[1,3,5,7,9,11,13,-1,-1,-1,-1,-1,-1,-1,-1],"loss_changes":[1.2850898E3,1.0257184E2,4.1757935E1,4.6070557E0,1.7020906E2,1.0984308E2,2.4536438E1,0E0,0E0,0E0,0E0,0E0,0E0,0E0,0E0],"parents":[2147483647,0,0,1,1,2,2,3,3,4,4,5,5,6,6],"right_children":[2,4,6,8,10,12,14,-1,-1,-1,-1,-1,-1,-1,-1],"split_conditions":[3.003952E0,1.0014606E0,4.001461E0,1.4286676E-1,1.9099948E0,3.9989743E0,5.5E0,-1.8162869E-2,-1.4784465E-2,1.829662E-2,-1.0697945E-2,1.8668972E-2,-2.0251768E-3,1.5544656E-2,3.0929067E-3],"split_indices":[1,0,1,9,0,1,6,0,0,0,0,0,0,0,0],"split_type":[0,0,0,0,0,0,0,0,0,0,0,0,0,0,0],"sum_hessian":[7.9260394E2,4.2410773E2,3.6849625E2,2.6101447E2,1.6309325E2,1.0264495E2,2.658513E2,1.4618077E2,1.148337E2,2.2699799E1,1.4039345E2,4.4896515E1,5.7748432E1,2.4835239E2,1.7498892E1],"tree_param":{"num_deleted":"0","num_feature":"16","num_nodes":"15","size_leaf_vector":"0"}},{"base_weights":[-9.904541E-2,-1.2735274E0,1.2523867E0,-1.6585654E0,-6.5119207E-1,7.0526564E-1,1.4602356E0,-1.7999177E0,-1.4646891E0,1.8137829E0,-1.0595137E0,1.8504207E0,-2.0052926E-1,1.5400339E0,3.0637297E-1],"categories":[],"categories_nodes":[],"categories_segments":[],"categories_sizes":[],"default_left":[true,true,true,true,true,true,true,false,false,false,false,false,false,false,false],"id":6,"left_children":[1,3,5,7,9,11,13,-1,-1,-1,-1,-1,-1,-1,-1],"loss_changes":[1.2604546E3,1.0071991E2,4.0964355E1,4.538452E0,1.6701482E2,1.0783302E2,2.408319E1,0E0,0E0,0E0,0E0,0E0,0E0,0E0,0E0],"parents":[2147483647,0,0,1,1,2,2,3,3,4,4,5,5,6,6],"right_children":[2,4,6,8,10,12,14,-1,-1,-1,-1,-1,-1,-1,-1],"split_conditions":[3.003952E0,1.0014606E0,4.001461E0,1.4286676E-1,1.9099948E0,3.9989743E0,5.5E0,-1.7999176E-2,-1.4646891E-2,1.813783E-2,-1.0595136E-2,1.8504206E-2,-2.0052926E-3,1.5400339E-2,3.0637297E-3],"split_indices":[1,0,1,9,0,1,6,0,0,0,0,0,0,0,0],"split_type":[0,0,0,0,0,0,0,0,0,0,0,0,0,0,0],"sum_hessian":[7.92116E2,4.2383426E2,3.6828177E2,2.6080777E2,1.6302649E2,1.02600204E2,2.6568155E2,1.4604486E2,1.1476291E2,2.2678402E1,1.4034808E2,4.485244E1,5.774776E1,2.4818314E2,1.7498419E1],"tree_param":{"num_deleted":"0","num_feature":"16","num_nodes":"15","size_leaf_vector":"0"}},{"base_weights":[-9.8112926E-2,-1.2618017E0,1.2408019E0,-1.6436229E0,-6.449403E-1,6.98728E-1,1.4467802E0,-1.7839699E0,-1.4512074E0,1.7983129E0,-1.0493878E0,1.8343832E0,-1.9856079E-1,1.5259082E0,3.034839E-1],"categories":[],"categories_nodes":[],"categories_segments":[],"categories_sizes":[],"default_left":[true,true,true,true,true,true,true,false,false,false,false,false,false,false,false],"id":7,"left_children":[1,3,5,7,9,11,13,-1,-1,-1,-1,-1,-1,-1,-1],"loss_changes":[1.236419E3,9.892645E1,4.0193542E1,4.4746704E0,1.6389597E2,1.0588086E2,2.3644836E1,0E0,0E0,0E0,0E0,0E0,0E0,0E0,0E0],"parents":[2147483647,0,0,1,1,2,2,3,3,4,4,5,5,6,6],"right_children":[2,4,6,8,10,12,14,-1,-1,-1,-1,-1,-1,-1,-1],"split_conditions":[3.003952E0,1.0014606E0,4.001461E0,1.4286676E-1,1.9099948E0,3.9989743E0,5.5E0,-1.7839698E-2,-1.4512073E-2,1.798313E-2,-1.0493878E-2,1.8343832E-2,-1.985608E-3,1.5259082E-2,3.034839E-3],"split_indices":[1,0,1,9,0,1,6,0,0,0,0,0,0,0,0],"split_type":[0,0,0,0,0,0,0,0,0,0,0,0,0,0,0],"sum_hessian":[7.915479E2,4.2351587E2,3.6803204E2,2.605671E2,1.6294875E2,1.025481E2,2.6548395E2,1.4588663E2,1.1468048E2,2.2653482E1,1.4029526E2,4.480112E1,5.7746983E1,2.4798607E2,1.749787E1],"tree_param":{"num_deleted":"0","num_feature":"16","num_nodes":"15","size_leaf_vector":"0"}},{"base_weights":[-9.719875E-2,-1.2503136E0,1.2294394E0,-1.6290225E0,-6.387899E-1,6.922999E-1,1.4335955E0,-1.7684273E0,-1.4379915E0,1.7832373E0,-1.0394119E0,1.8187686E0,-1.9661191E-1,1.5120773E0,3.0062342E-1],"categories":[],"categories_nodes":[],"categories_segments":[],"categories_sizes":[],"default_left":[true,true,true,true,true,true,true,false,false,false,false,false,false,false,false],"id":8,"left_children":[1,3,5,7,9,11,13,-1,-1,-1,-1,-1,-1,-1,-1],"loss_changes":[1.2129623E3,9.7188965E1,3.944458E1,4.4154053E0,1.608501E2,1.0398423E2,2.3220581E1,0E0,0E0,0E0,0E0,0E0,0E0,0E0,0E0],"parents":[2147483647,0,0,1,1,2,2,3,3,4,4,5,5,6,6],"right_children":[2,4,6,8,10,12,14,-1,-1,-1,-1,-1,-1,-1,-1],"split_conditions":[3.003952E0,1.0014606E0,4.001461E0,1.4286676E-1,1.9099948E0,3.9989743E0,5.5E0,-1.7684272E-2,-1.4379915E-2,1.7832372E-2,-1.0394119E-2,1.8187685E-2,-1.966119E-3,1.5120773E-2,3.006234E-3],"split_indices":[1,0,1,9,0,1,6,0,0,0,0,0,0,0,0],"split_type":[0,0,0,0,0,0,0,0,0,0,0,0,0,0,0],"sum_hessian":[7.909021E2,4.2315393E2,3.677482E2,2.6029355E2,1.6286038E2,1.0248886E2,2.6525934E2,1.457068E2,1.1458676E2,2.2625141E1,1.4023523E2,4.474277E1,5.7746094E1,2.4776208E2,1.7497244E1],"tree_param":{"num_deleted":"0","num_feature":"16","num_nodes":"15","size_leaf_vector":"0"}},{"base_weights":[-9.6302375E-2,-1.2390552E0,1.2182918E0,-1.614752E0,-6.327382E-1,6.859776E-1,1.4206728E0,-1.7532754E0,-1.4250323E0,1.7685411E0,-1.0295826E0,1.80356E0,-1.9468258E-1,1.4985312E0,2.9779097E-1],"categories":[],"categories_nodes":[],"categories_segments":[],"categories_sizes":[],"default_left":[true,true,true,true,true,true,true,false,false,false,false,false,false,false,false],"id":9,"left_children":[1,3,5,7,9,11,13,-1,-1,-1,-1,-1,-1,-1,-1],"loss_changes":[1.1900662E3,9.550482E1,3.8716614E1,4.3604736E0,1.5787498E2,1.0214084E2,2.2809753E1,0E0,0E0,0E0,0E0,0E0,0E0,0E0,0E0],"parents":[2147483647,0,0,1,1,2,2,3,3,4,4,5,5,6,6],"right_children":[2,4,6,8,10,12,14,-1,-1,-1,-1,-1,-1,-1,-1],"split_conditions":[3.003952E0,1.0014606E0,4.001461E0,1.4286676E-1,1.9099948E0,3.9989743E0,5.5E0,-1.7532753E-2,-1.4250322E-2,1.7685411E-2,-1.0295826E-2,1.80356E-2,-1.9468258E-3,1.4985312E-2,2.9779098E-3],"split_indices":[1,0,1,9,0,1,6,0,0,0,0,0,0,0,0],"split_type":[0,0,0,0,0,0,0,0,0,0,0,0,0,0,0],"sum_hessian":[7.901811E2,4.227498E2,3.6743127E2,2.5998813E2,1.6276167E2,1.0242273E2,2.6500854E2,1.45506E2,1.1448213E2,2.2593487E1,1.4016818E2,4.4677616E1,5.774511E1,2.4751201E2,1.7496544E1],"tree_param":{"num_deleted":"0","num_feature":"16","num_nodes":"15","size_leaf_vector":"0"}},{"base_weights":[-9.542301E-2,-1.2280182E0,1.2073519E0,-1.6007992E0,-6.26782E-1,6.797583E-1,1.4080025E0,-1.7384986E0,-1.412321E0,1.7542107E0,-1.0198957E0,1.788743E0,-1.9277263E-1,1.4852598E0,2.9498655E-1],"categories":[],"categories_nodes":[],"categories_segments":[],"categories_sizes":[],"default_left":[true,true,true,true,true,true,true,false,false,false,false,false,false,false,false],"id":10,"left_children":[1,3,5,7,9,11,13,-1,-1,-1,-1,-1,-1,-1,-1],"loss_changes":[1.167712E3,9.3871704E1,3.800885E1,4.3094482E0,1.5496841E2,1.0034859E2,2.2411804E1,0E0,0E0,0E0,0E0,0E0,0E0,0E0,0E0],"parents":[2147483647,0,0,1,1,2,2,3,3,4,4,5,5,6,6],"right_children":[2,4,6,8,10,12,14,-1,-1,-1,-1,-1,-1,-1,-1],"split_conditions":[3.003952E0,1.0014606E0,4.001461E0,1.4286676E-1,1.9099948E0,3.9989743E0,5.5E0,-1.7384985E-2,-1.412321E-2,1.7542107E-2,-1.0198956E-2,1.788743E-2,-1.9277262E-3,1.4852597E-2,2.9498653E-3],"split_indices":[1,0,1,9,0,1,6,0,0,0,0,0,0,0,0],"split_type":[0,0,0,0,0,0,0,0,0,0,0,0,0,0,0],"sum_hessian":[7.893872E2,4.2230484E2,3.6708234E2,2.596519E2,1.6265297E2,1.02349884E2,2.6473245E2,1.4528494E2,1.14366936E2,2.2558617E1,1.4009436E2,4.460587E1,5.7744015E1,2.472367E2,1.7495773E1],"tree_param":{"num_deleted":"0","num_feature":"16","num_nodes":"15","size_leaf_vector":"0"}},{"base_weights":[-9.456023E-2,-1.2171954E0,1.1966132E0,-1.5871528E0,-6.209189E-1,6.736387E-1,1.3955766E0,-1.7240833E0,-1.3998499E0,1.740233E0,-1.0103475E0,1.7743027E0,-1.9088165E-1,1.4722539E0,2.9220936E-1],"categories":[],"categories_nodes":[],"categories_segments":[],"categories_sizes":[],"default_left":[true,true,true,true,true,true,true,false,false,false,false,false,false,false,false],"id":11,"left_children":[1,3,5,7,9,11,13,-1,-1,-1,-1,-1,-1,-1,-1],"loss_changes":[1.1458828E3,9.2287415E1,3.7320312E1,4.262207E0,1.521283E2,9.860541E1,2.2026184E1,0E0,0E0,0E0,0E0,0E0,0E0,0E0,0E0],"parents":[2147483647,0,0,1,1,2,2,3,3,4,4,5,5,6,6],"right_children":[2,4,6,8,10,12,14,-1,-1,-1,-1,-1,-1,-1,-1],"split_conditions":[3.003952E0,1.0014606E0,4.001461E0,1.4286676E-1,1.9099948E0,3.9989743E0,5.5E0,-1.7240833E-2,-1.3998498E-2,1.7402329E-2,-1.0103474E-2,1.7743027E-2,-1.9088165E-3,1.4722539E-2,2.9220935E-3],"split_indices":[1,0,1,9,0,1,6,0,0,0,0,0,0,0,0],"split_type":[0,0,0,0,0,0,0,0,0,0,0,0,0,0,0],"sum_hessian":[7.8852277E2,4.2182034E2,3.667024E2,2.592857E2,1.6253464E2,1.0227055E2,2.6443185E2,1.4504422E2,1.142415E2,2.2520634E1,1.4001399E2,4.452773E1,5.774283E1,2.469369E2,1.7494932E1],"tree_param":{"num_deleted":"0","num_feature":"16","num_nodes":"15","size_leaf_vector":"0"}},{"base_weights":[-9.371343E-2,-1.2065796E0,1.1860689E0,-1.5738022E0,-6.15146E-1,6.676162E-1,1.3833867E0,-1.7100167E0,-1.3876109E0,1.726595E0,-1.0009342E0,1.7602259E0,-1.8900955E-1,1.4595044E0,2.894596E-1],"categories":[],"categories_nodes":[],"categories_segments":[],"categories_sizes":[],"default_left":[true,true,true,true,true,true,true,false,false,false,false,false,false,false,false],"id":12,"left_children":[1,3,5,7,9,11,13,-1,-1,-1,-1,-1,-1,-1,-1],"loss_changes":[1.1245618E3,9.0749756E1,3.665045E1,4.218506E0,1.4935263E2,9.6909454E1,2.1652222E1,0E0,0E0,0E0,0E0,0E0,0E0,0E0,0E0],"parents":[2147483647,0,0,1,1,2,2,3,3,4,4,5,5,6,6],"right_children":[2,4,6,8,10,12,14,-1,-1,-1,-1,-1,-1,-1,-1],"split_conditions":[3.003952E0,1.0014606E0,4.001461E0,1.4286676E-1,1.9099948E0,3.9989743E0,5.5E0,-1.7100167E-2,-1.3876108E-2,1.726595E-2,-1.0009342E-2,1.760226E-2,-1.8900954E-3,1.4595043E-2,2.8945957E-3],"split_indices":[1,0,1,9,0,1,6,0,0,0,0,0,0,0,0],"split_type":[0,0,0,0,0,0,0,0,0,0,0,0,0,0,0],"sum_hessian":[7.8758997E2,4.2129755E2,3.6629242E2,2.5889066E2,1.6240689E2,1.0218496E2,2.6410748E2,1.4478452E2,1.1410615E2,2.2479633E1,1.3992726E2,4.4443405E1,5.774155E1,2.4661345E2,1.7494026E1],"tree_param":{"num_deleted":"0","num_feature":"16","num_nodes":"15","size_leaf_vector":"0"}},{"base_weights":[-9.2882074E-2,-1.1961639E0,1.1757128E0,-1.5607369E0,-6.094609E-1,6.616879E-1,1.371425E0,-1.6962858E0,-1.3755962E0,1.7132856E0,-9.916528E-1,1.7464991E0,-1.8715589E-1,1.5927447E0,9.7626907E-1],"categories":[],"categories_nodes":[],"categories_segments":[],"categories_sizes":[],"default_left":[true,true,true,true,true,true,true,false,false,false,false,false,false,false,false],"id":13,"left_children":[1,3,5,7,9,11,13,-1,-1,-1,-1,-1,-1,-1,-1],"loss_changes":[1.1037328E3,8.9256775E1,3.599832E1,4.1781006E0,1.4663954E2,9.525877E1,2.1599854E1,0E0,0E0,0E0,0E0,0E0,0E0,0E0,0E0],"parents":[2147483647,0,0,1,1,2,2,3,3,4,4,5,5,6,6],"right_children":[2,4,6,8,10,12,14,-1,-1,-1,-1,-1,-1,-1,-1],"split_conditions":[3.003952E0,1.0014606E0,4.001461E0,1.4286676E-1,1.9099948E0,3.9989743E0,2.9994853E0,-1.6962858E-2,-1.3755961E-2,1.7132856E-2,-9.916527E-3,1.746499E-2,-1.8715588E-3,1.5927447E-2,9.76269E-3],"split_indices":[1,0,1,9,0,1,0,0,0,0,0,0,0,0,0],"split_type":[0,0,0,0,0,0,0,0,0,0,0,0,0,0,0],"sum_hessian":[7.865911E2,4.2073767E2,3.6585342E2,2.584676E2,1.6227008E2,1.0209327E2,2.6376016E2,1.4450641E2,1.1396118E2,2.243571E1,1.3983437E2,4.4353096E1,5.7740177E1,1.6712552E2,9.663463E1],"tree_param":{"num_deleted":"0","num_feature":"16","num_nodes":"15","size_leaf_vector":"0"}},{"base_weights":[-9.205368E-2,-1.1859417E0,1.1655183E0,-1.5479467E0,-6.0386115E-1,6.558509E-1,1.3596454E0,-1.6828787E0,-1.3637985E0,1.7002927E0,-9.8249966E-1,1.7331098E0,-1.8532087E-1,1.4353164E0,2.754927E-1],"categories":[],"categories_nodes":[],"categories_segments":[],"categories_sizes":[],"default_left":[true,true,true,true,true,true,true,false,false,false,false,false,false,false,false],"id":14,"left_children":[1,3,5,7,9,11,13,-1,-1,-1,-1,-1,-1,-1,-1],"loss_changes":[1.0833829E3,8.780664E1,3.5359985E1,4.140869E0,1.439871E2,9.365175E1,2.1296051E1,0E0,0E0,0E0,0E0,0E0,0E0,0E0,0E0],"parents":[2147483647,0,0,1,1,2,2,3,3,4,4,5,5,6,6],"right_children":[2,4,6,8,10,12,14,-1,-1,-1,-1,-1,-1,-1,-1],"split_conditions":[3.003952E0,1.0014606E0,4.001461E0,1.4286676E-1,1.9099948E0,3.9989743E0,5.5E0,-1.6828787E-2,-1.3637985E-2,1.7002927E-2,-9.824997E-3,1.7331097E-2,-1.8532086E-3,1.43531645E-2,2.754927E-3],"split_indices":[1,0,1,9,0,1,6,0,0,0,0,0,0,0,0],"split_type":[0,0,0,0,0,0,0,0,0,0,0,0,0,0,0],"sum_hessian":[7.855419E2,4.20142E2,3.653999E2,2.580175E2,1.621245E2,1.01995705E2,2.6340417E2,1.4421053E2,1.1380697E2,2.2388956E1,1.3973555E2,4.4256992E1,5.7738712E1,2.4591597E2,1.748822E1],"tree_param":{"num_deleted":"0","num_feature":"16","num_nodes":"15","size_leaf_vector":"0"}},{"base_weights":[-9.125198E-2,-1.1759067E0,1.155518E0,-1.5354227E0,-5.9834427E-1,6.50103E-1,1.3481134E0,-1.6697841E0,-1.3522112E0,1.6876057E0,-9.7347146E-1,1.7200465E0,-1.835039E-1,1.5680193E0,9.559261E-1],"categories":[],"categories_nodes":[],"categories_segments":[],"categories_sizes":[],"default_left":[true,true,true,true,true,true,true,false,false,false,false,false,false,false,false],"id":15,"left_children":[1,3,5,7,9,11,13,-1,-1,-1,-1,-1,-1,-1,-1],"loss_changes":[1.0634913E3,8.639752E1,3.474112E1,4.1065063E0,1.4139355E2,9.208667E1,2.1270782E1,0E0,0E0,0E0,0E0,0E0,0E0,0E0,0E0],"parents":[2147483647,0,0,1,1,2,2,3,3,4,4,5,5,6,6],"right_children":[2,4,6,8,10,12,14,-1,-1,-1,-1,-1,-1,-1,-1],"split_conditions":[3.003952E0,1.0014606E0,4.001461E0,1.4286676E-1,1.9099948E0,3.9989743E0,2.9994853E0,-1.669784E-2,-1.3522112E-2,1.6876057E-2,-9.734714E-3,1.7200464E-2,-1.8350389E-3,1.5680192E-2,9.559261E-3],"split_indices":[1,0,1,9,0,1,0,0,0,0,0,0,0,0,0],"split_type":[0,0,0,0,0,0,0,0,0,0,0,0,0,0,0],"sum_hessian":[7.844181E2,4.1951163E2,3.6490643E2,2.575412E2,1.6197043E2,1.0189245E2,2.6301398E2,1.4389745E2,1.1364376E2,2.2339462E1,1.3963097E2,4.4155285E1,5.7737167E1,1.6660033E2,9.641365E1],"tree_param":{"num_deleted":"0","num_feature":"16","num_nodes":"15","size_leaf_vector":"0"}},{"base_weights":[-9.0452135E-2,-1.1660528E0,1.1456692E0,-1.5231555E0,-5.929079E-1,6.4444125E-1,1.3367513E0,-1.6569908E0,-1.3408275E0,1.675214E0,-9.6456516E-1,1.7072978E0,-1.8170537E-1,1.4120244E0,2.6188767E-1],"categories":[],"categories_nodes":[],"categories_segments":[],"categories_sizes":[],"default_left":[true,true,true,true,true,true,true,false,false,false,false,false,false,false,false],"id":16,"left_children":[1,3,5,7,9,11,13,-1,-1,-1,-1,-1,-1,-1,-1],"loss_changes":[1.0440507E3,8.502777E1,3.413501E1,4.07489E0,1.3885724E2,9.056204E1,2.0958954E1,0E0,0E0,0E0,0E0,0E0,0E0,0E0,0E0],"parents":[2147483647,0,0,1,1,2,2,3,3,4,4,5,5,6,6],"right_children":[2,4,6,8,10,12,14,-1,-1,-1,-1,-1,-1,-1,-1],"split_conditions":[3.003952E0,1.0014606E0,4.001461E0,1.4286676E-1,1.9099948E0,3.9989743E0,5.5E0,-1.6569907E-2,-1.3408274E-2,1.675214E-2,-9.645651E-3,1.7072977E-2,-1.8170536E-3,1.41202435E-2,2.6188768E-3],"split_indices":[1,0,1,9,0,1,6,0,0,0,0,0,0,0,0],"split_type":[0,0,0,0,0,0,0,0,0,0,0,0,0,0,0],"sum_hessian":[7.8324786E2,4.1884772E2,3.6440018E2,2.5703958E2,1.6180814E2,1.017837E2,2.6261646E2,1.435677E2,1.1347187E2,2.228732E1,1.3952081E2,4.4048157E1,5.773554E1,2.4513585E2,1.7480621E1],"tree_param":{"num_deleted":"0","num_feature":"16","num_nodes":"15","size_leaf_vector":"0"}},{"base_weights":[-8.967813E-2,-1.1563745E0,1.1360033E0,-1.5111364E0,-5.8755016E-1,6.388636E-1,1.3256224E0,-1.6444886E0,-1.3296406E0,1.663108E0,-9.557779E-1,1.6948526E0,-1.7992438E-1,1.5442834E0,9.361615E-1],"categories":[],"categories_nodes":[],"categories_segments":[],"categories_sizes":[],"default_left":[true,true,true,true,true,true,true,false,false,false,false,false,false,false,false],"id":17,"left_children":[1,3,5,7,9,11,13,-1,-1,-1,-1,-1,-1,-1,-1],"loss_changes":[1.0250406E3,8.369568E1,3.354706E1,4.0459595E0,1.3637648E2,8.9076294E1,2.0967194E1,0E0,0E0,0E0,0E0,0E0,0E0,0E0,0E0],"parents":[2147483647,0,0,1,1,2,2,3,3,4,4,5,5,6,6],"right_children":[2,4,6,8,10,12,14,-1,-1,-1,-1,-1,-1,-1,-1],"split_conditions":[3.003952E0,1.0014606E0,4.001461E0,1.4286676E-1,1.9099948E0,3.9989743E0,2.9994853E0,-1.6444886E-2,-1.3296406E-2,1.663108E-2,-9.557779E-3,1.6948525E-2,-1.7992439E-3,1.5442833E-2,9.361615E-3],"split_indices":[1,0,1,9,0,1,0,0,0,0,0,0,0,0,0],"split_type":[0,0,0,0,0,0,0,0,0,0,0,0,0,0,0],"sum_hessian":[7.820072E2,4.1815143E2,3.638558E2,2.5651352E2,1.616379E2,1.01669624E2,2.6218616E2,1.4322192E2,1.132916E2,2.223261E1,1.3940529E2,4.3935783E1,5.7733837E1,1.660135E2,9.617266E1],"tree_param":{"num_deleted":"0","num_feature":"16","num_nodes":"15","size_leaf_vector":"0"}},{"base_weights":[-8.89053E-2,-1.1468658E0,1.126479E0,-1.4993572E0,-5.822688E-1,6.3336754E-1,1.3146517E0,-1.6322674E0,-1.3186448E0,1.6512777E0,-9.4710654E-1,1.6827008E0,-1.781613E-1,1.5320004E0,9.278908E-1],"categories":[],"categories_nodes":[],"categories_segments":[],"categories_sizes":[],"default_left":[true,true,true,true,true,true,true,false,false,false,false,false,false,false,false],"id":18,"left_children":[1,3,5,7,9,11,13,-1,-1,-1,-1,-1,-1,-1,-1],"loss_changes":[1.00645514E3,8.239984E1,3.2970795E1,4.0195312E0,1.3394968E2,8.762804E1,2.0665741E1,0E0,0E0,0E0,0E0,0E0,0E0,0E0,0E0],"parents":[2147483647,0,0,1,1,2,2,3,3,4,4,5,5,6,6],"right_children":[2,4,6,8,10,12,14,-1,-1,-1,-1,-1,-1,-1,-1],"split_conditions":[3.003952E0,1.0014606E0,4.001461E0,1.4286676E-1,1.9099948E0,3.9989743E0,2.9994853E0,-1.6322672E-2,-1.3186447E-2,1.6512776E-2,-9.471065E-3,1.6827008E-2,-1.7816129E-3,1.5320004E-2,9.278907E-3],"split_indices":[1,0,1,9,0,1,0,0,0,0,0,0,0,0,0],"split_type":[0,0,0,0,0,0,0,0,0,0,0,0,0,0,0],"sum_hessian":[7.8072406E2,4.1742383E2,3.6330023E2,2.5596384E2,1.6145999E2,1.0155041E2,2.6174982E2,1.4286061E2,1.1310323E2,2.2175423E1,1.3928458E2,4.381835E1,5.773205E1,1.6568077E2,9.6069046E1],"tree_param":{"num_deleted":"0","num_feature":"16","num_nodes":"15","size_leaf_vector":"0"}},{"base_weights":[-8.814541E-2,-1.1375216E0,1.1171113E0,-1.4878103E0,-5.7706165E-1,6.27951E-1,1.3038696E0,-1.6203178E0,-1.3078339E0,1.6397144E0,-9.385484E-1,1.6708325E0,-1.7641562E-1,1.3789253E0,2.3793052E-1],"categories":[],"categories_nodes":[],"categories_segments":[],"categories_sizes":[],"default_left":[true,true,true,true,true,true,true,false,false,false,false,false,false,false,false],"id":19,"left_children":[1,3,5,7,9,11,13,-1,-1,-1,-1,-1,-1,-1,-1],"loss_changes":[9.882788E2,8.1138794E1,3.2408844E1,3.9953613E0,1.3157536E2,8.621591E1,2.0656708E1,0E0,0E0,0E0,0E0,0E0,0E0,0E0,0E0],"parents":[2147483647,0,0,1,1,2,2,3,3,4,4,5,5,6,6],"right_children":[2,4,6,8,10,12,14,-1,-1,-1,-1,-1,-1,-1,-1],"split_conditions":[3.003952E0,1.0014606E0,4.001461E0,1.4286676E-1,1.9099948E0,3.9989743E0,5.5E0,-1.6203178E-2,-1.30783385E-2,1.6397143E-2,-9.385483E-3,1.6708326E-2,-1.7641562E-3,1.3789253E-2,2.3793052E-3],"split_indices":[1,0,1,9,0,1,6,0,0,0,0,0,0,0,0],"split_type":[0,0,0,0,0,0,0,0,0,0,0,0,0,0,0],"sum_hessian":[7.7938684E2,4.1666602E2,3.627208E2,2.5539133E2,1.6127469E2,1.0142621E2,2.612946E2,1.424843E2,1.1290702E2,2.2115837E1,1.3915884E2,4.3696022E1,5.7730186E1,2.4383209E2,1.7462503E1],"tree_param":{"num_deleted":"0","num_feature":"16","num_nodes":"15","size_leaf_vector":"0"}},{"base_weights":[-8.740982E-2,-1.1283369E0,1.1079082E0,-1.4764876E0,-5.719268E-1,6.226117E-1,1.2932973E0,-1.6086307E0,-1.2972027E0,1.6284091E0,-9.301007E-1,1.659238E0,-1.746871E-1,1.5096526E0,9.0890807E-1],"categories":[],"categories_nodes":[],"categories_segments":[],"categories_sizes":[],"default_left":[true,true,true,true,true,true,true,false,false,false,false,false,false,false,false],"id":20,"left_children":[1,3,5,7,9,11,13,-1,-1,-1,-1,-1,-1,-1,-1],"loss_changes":[9.704944E2,7.991113E1,3.1862976E1,3.9733887E0,1.2925204E2,8.483859E1,2.0401184E1,0E0,0E0,0E0,0E0,0E0,0E0,0E0,0E0],"parents":[2147483647,0,0,1,1,2,2,3,3,4,4,5,5,6,6],"right_children":[2,4,6,8,10,12,14,-1,-1,-1,-1,-1,-1,-1,-1],"split_conditions":[3.003952E0,1.0014606E0,4.001461E0,1.4286676E-1,1.9099948E0,3.9989743E0,2.9994853E0,-1.6086306E-2,-1.2972027E-2,1.6284091E-2,-9.301007E-3,1.659238E-2,-1.746871E-3,1.5096526E-2,9.089081E-3],"split_indices":[1,0,1,9,0,1,0,0,0,0,0,0,0,0,0],"split_type":[0,0,0,0,0,0,0,0,0,0,0,0,0,0,0],"sum_hessian":[7.7798566E2,4.1587897E2,3.621067E2,2.5479675E2,1.610822E2,1.01297226E2,2.6080945E2,1.4209349E2,1.12703255E2,2.2053936E1,1.3902826E2,4.3568966E1,5.7728264E1,1.6500702E2,9.580243E1],"tree_param":{"num_deleted":"0","num_feature":"16","num_nodes":"15","size_leaf_vector":"0"}},{"base_weights":[-8.6674474E-2,-1.1193066E0,1.0988367E0,-1.4653822E0,-5.6686246E-1,1.2507154E0,5.1575667E-1,-1.5971974E0,-1.2867451E0,1.6173534E0,-9.217609E-1,-1.2733288E-1,1.3376524E0,-9.2320496E-1,7.4361455E-1],"categories":[],"categories_nodes":[],"categories_segments":[],"categories_sizes":[],"default_left":[true,true,true,true,true,true,true,false,false,false,false,false,false,false,false],"id":21,"left_children":[1,3,5,7,9,11,13,-1,-1,-1,-1,-1,-1,-1,-1],"loss_changes":[9.531001E2,7.8715515E1,3.1455505E1,3.9535522E0,1.2697829E2,3.453885E1,2.5804827E1,0E0,0E0,0E0,0E0,0E0,0E0,0E0,0E0],"parents":[2147483647,0,0,1,1,2,2,3,3,4,4,5,5,6,6],"right_children":[2,4,6,8,10,12,14,-1,-1,-1,-1,-1,-1,-1,-1],"split_conditions":[3.003952E0,1.0014606E0,5E-1,1.4286676E-1,1.9099948E0,1.4077547E-1,1.25E1,-1.5971974E-2,-1.2867451E-2,1.6173534E-2,-9.217609E-3,-1.2733288E-3,1.3376524E-2,-9.23205E-3,7.4361456E-3],"split_indices":[1,0,13,9,0,9,4,0,0,0,0,0,0,0,0],"split_type":[0,0,0,0,0,0,0,0,0,0,0,0,0,0,0],"sum_hessian":[7.7654663E2,4.1506375E2,3.6148285E2,2.5418095E2,1.608828E2,2.858743E2,7.560857E1,1.4168875E2,1.1249221E2,2.1989796E1,1.38893E2,1.6937138E1,2.6893716E2,9.918687E0,6.568988E1],"tree_param":{"num_deleted":"0","num_feature":"16","num_nodes":"15","size_leaf_vector":"0"}},{"base_weights":[-8.597687E-2,-1.110426E0,1.0895001E0,-1.4544867E0,-5.618668E-1,6.07481E-1,1.2739352E0,-1.586009E0,-1.2764565E0,1.60654E0,-9.1352654E-1,1.6400378E0,-1.8236914E-1,1.3484632E0,2.2137937E-1],"categories":[],"categories_nodes":[],"categories_segments":[],"categories_sizes":[],"default_left":[true,true,true,true,true,true,true,false,false,false,false,false,false,false,false],"id":22,"left_children":[1,3,5,7,9,11,13,-1,-1,-1,-1,-1,-1,-1,-1],"loss_changes":[9.3588324E2,7.755066E1,3.1403564E1,3.935669E0,1.24752815E2,8.354931E1,2.0165314E1,0E0,0E0,0E0,0E0,0E0,0E0,0E0,0E0],"parents":[2147483647,0,0,1,1,2,2,3,3,4,4,5,5,6,6],"right_children":[2,4,6,8,10,12,14,-1,-1,-1,-1,-1,-1,-1,-1],"split_conditions":[3.003952E0,1.0014606E0,4.001461E0,1.4286676E-1,1.9099948E0,3.9989743E0,5.5E0,-1.586009E-2,-1.2764565E-2,1.60654E-2,-9.135265E-3,1.6400378E-2,-1.8236914E-3,1.3484632E-2,2.2137936E-3],"split_indices":[1,0,1,9,0,1,6,0,0,0,0,0,0,0,0],"split_type":[0,0,0,0,0,0,0,0,0,0,0,0,0,0,0],"sum_hessian":[7.7516736E2,4.142214E2,3.6094595E2,2.5354465E2,1.6067674E2,1.0107672E2,2.5986923E2,1.4127054E2,1.1227411E2,2.1923492E1,1.3875325E2,4.3341183E1,5.773554E1,2.4242294E2,1.7446293E1],"tree_param":{"num_deleted":"0","num_feature":"16","num_nodes":"15","size_leaf_vector":"0"}},{"base_weights":[-8.527579E-2,-1.1016904E0,1.0807133E0,-1.4437946E0,-5.5693793E-1,6.023905E-1,1.2638518E0,-1.2091694E0,-1.541673E0,1.5959604E0,-9.05395E-1,1.6291416E0,-1.8058166E-1,1.4793155E0,8.819569E-1],"categories":[],"categories_nodes":[],"categories_segments":[],"categories_sizes":[],"default_left":[true,true,true,true,true,true,true,false,false,false,false,false,false,false,false],"id":23,"left_children":[1,3,5,7,9,11,13,-1,-1,-1,-1,-1,-1,-1,-1],"loss_changes":[9.192207E2,7.641553E1,3.0885864E1,3.9663086E0,1.22574234E2,8.2242325E1,2.0116943E1,0E0,0E0,0E0,0E0,0E0,0E0,0E0,0E0],"parents":[2147483647,0,0,1,1,2,2,3,3,4,4,5,5,6,6],"right_children":[2,4,6,8,10,12,14,-1,-1,-1,-1,-1,-1,-1,-1],"split_conditions":[3.003952E0,1.0014606E0,4.001461E0,9.5E0,1.9099948E0,3.9989743E0,2.9994853E0,-1.20916935E-2,-1.5416729E-2,1.5959604E-2,-9.053949E-3,1.6291415E-2,-1.8058165E-3,1.4793155E-2,8.819569E-3],"split_indices":[1,0,1,4,0,1,0,0,0,0,0,0,0,0,0],"split_type":[0,0,0,0,0,0,0,0,0,0,0,0,0,0,0],"sum_hessian":[7.7362506E2,4.1335278E2,3.6027225E2,2.5288855E2,1.6046423E2,1.00936E2,2.5933624E2,7.837321E1,1.7451535E2,2.1855106E1,1.3860913E2,4.3202137E1,5.773386E1,1.6395808E2,9.5378174E1],"tree_param":{"num_deleted":"0","num_feature":"16","num_nodes":"15","size_leaf_vector":"0"}},{"base_weights":[-8.457193E-2,-1.0930762E0,1.0720457E0,-1.4332592E0,-5.5207425E-1,1.2226944E0,4.952662E-1,-1.5652124E0,-1.2550857E0,1.5856076E0,-8.973639E-1,-1.4366066E-1,1.3092107E0,-9.250702E-1,7.20985E-1],"categories":[],"categories_nodes":[],"categories_segments":[],"categories_sizes":[],"default_left":[true,true,true,true,true,true,true,false,false,false,false,false,false,false,false],"id":24,"left_children":[1,3,5,7,9,11,13,-1,-1,-1,-1,-1,-1,-1,-1],"loss_changes":[9.0290656E2,7.5302765E1,3.0726593E1,3.9888916E0,1.2044133E2,3.3906006E1,2.5147224E1,0E0,0E0,0E0,0E0,0E0,0E0,0E0,0E0],"parents":[2147483647,0,0,1,1,2,2,3,3,4,4,5,5,6,6],"right_children":[2,4,6,8,10,12,14,-1,-1,-1,-1,-1,-1,-1,-1],"split_conditions":[3.003952E0,1.0014606E0,5E-1,1.4286676E-1,1.9099948E0,1.4077547E-1,1.25E1,-1.5652124E-2,-1.2550857E-2,1.5856076E-2,-8.9736385E-3,-1.4366066E-3,1.3092106E-2,-9.250702E-3,7.20985E-3],"split_indices":[1,0,13,9,0,9,4,0,0,0,0,0,0,0,0],"split_type":[0,0,0,0,0,0,0,0,0,0,0,0,0,0,0],"sum_hessian":[7.720565E2,4.124653E2,3.5959122E2,2.522198E2,1.6024551E2,2.8423276E2,7.535845E1,1.404325E2,1.117873E2,2.1784706E1,1.3846082E2,1.6886303E1,2.6734647E2,9.908821E0,6.544963E1],"tree_param":{"num_deleted":"0","num_feature":"16","num_nodes":"15","size_leaf_vector":"0"}},{"base_weights":[-8.390664E-2,-1.0846177E0,1.0630956E0,-1.4229541E0,-5.472741E-1,5.8780926E-1,1.2453887E0,-1.5546956E0,-1.2452928E0,1.5754745E0,-8.8943106E-1,1.6111346E0,-1.8797262E-1,1.4598118E0,8.66085E-1],"categories":[],"categories_nodes":[],"categories_segments":[],"categories_sizes":[],"default_left":[true,true,true,true,true,true,true,false,false,false,false,false,false,false,false],"id":25,"left_children":[1,3,5,7,9,11,13,-1,-1,-1,-1,-1,-1,-1,-1],"loss_changes":[8.8675256E2,7.422354E1,3.0459167E1,3.9744263E0,1.1835284E2,8.103496E1,1.9825714E1,0E0,0E0,0E0,0E0,0E0,0E0,0E0,0E0],"parents":[2147483647,0,0,1,1,2,2,3,3,4,4,5,5,6,6],"right_children":[2,4,6,8,10,12,14,-1,-1,-1,-1,-1,-1,-1,-1],"split_conditions":[3.003952E0,1.0014606E0,4.001461E0,1.4286676E-1,1.9099948E0,3.9989743E0,2.9994853E0,-1.5546956E-2,-1.2452927E-2,1.5754744E-2,-8.89431E-3,1.6111346E-2,-1.8797262E-3,1.4598118E-2,8.66085E-3],"split_indices":[1,0,1,9,0,1,0,0,0,0,0,0,0,0,0],"split_type":[0,0,0,0,0,0,0,0,0,0,0,0,0,0,0],"sum_hessian":[7.7055054E2,4.115473E2,3.5900327E2,2.5152646E2,1.6002083E2,1.00693436E2,2.583098E2,1.3997768E2,1.1154878E2,2.1712362E1,1.3830847E2,4.2955074E1,5.7738358E1,1.6320197E2,9.5107864E1],"tree_param":{"num_deleted":"0","num_feature":"16","num_nodes":"15","size_leaf_vector":"0"}},{"base_weights":[-8.3225444E-2,-1.0762917E0,1.0546776E0,-1.4128339E0,-5.425357E-1,1.2044543E0,4.824439E-1,-1.178408E0,-1.5108224E0,1.5655545E0,-8.8159406E-1,-1.5032792E-1,1.2905102E0,-9.227235E-1,7.0631635E-1],"categories":[],"categories_nodes":[],"categories_segments":[],"categories_sizes":[],"default_left":[true,true,true,true,true,true,true,false,false,false,false,false,false,false,false],"id":26,"left_children":[1,3,5,7,9,11,13,-1,-1,-1,-1,-1,-1,-1,-1],"loss_changes":[8.7112537E2,7.317081E1,3.0212494E1,4.00412E0,1.1630762E2,3.331491E1,2.4622707E1,0E0,0E0,0E0,0E0,0E0,0E0,0E0,0E0],"parents":[2147483647,0,0,1,1,2,2,3,3,4,4,5,5,6,6],"right_children":[2,4,6,8,10,12,14,-1,-1,-1,-1,-1,-1,-1,-1],"split_conditions":[3.003952E0,1.0014606E0,5E-1,9.5E0,1.9099948E0,1.4077547E-1,1.25E1,-1.178408E-2,-1.5108224E-2,1.5655546E-2,-8.8159405E-3,-1.5032792E-3,1.2905101E-2,-9.227235E-3,7.0631634E-3],"split_indices":[1,0,13,4,0,9,4,0,0,0,0,0,0,0,0],"split_type":[0,0,0,0,0,0,0,0,0,0,0,0,0,0,0],"sum_hessian":[7.688939E2,4.106058E2,3.582881E2,2.5081543E2,1.5979039E2,2.8308777E2,7.520034E1,7.777471E1,1.7304071E2,2.1638151E1,1.3815224E2,1.6863146E1,2.662246E2,9.905489E0,6.529485E1],"tree_param":{"num_deleted":"0","num_feature":"16","num_nodes":"15","size_leaf_vector":"0"}},{"base_weights":[-8.2578234E-2,-1.068075E0,1.045972E0,-1.4028522E0,-5.3785825E-1,5.735881E-1,1.2274803E0,-1.5351464E0,-1.2249035E0,1.5558411E0,-8.738516E-1,1.5938398E0,-1.9514704E-1,1.3015482E0,1.9186205E-1],"categories":[],"categories_nodes":[],"categories_segments":[],"categories_sizes":[],"default_left":[true,true,true,true,true,true,true,false,false,false,false,false,false,false,false],"id":27,"left_children":[1,3,5,7,9,11,13,-1,-1,-1,-1,-1,-1,-1,-1],"loss_changes":[8.5562537E2,7.213736E1,3.0048737E1,4.030731E0,1.1430461E2,7.9868286E1,1.9558197E1,0E0,0E0,0E0,0E0,0E0,0E0,0E0,0E0],"parents":[2147483647,0,0,1,1,2,2,3,3,4,4,5,5,6,6],"right_children":[2,4,6,8,10,12,14,-1,-1,-1,-1,-1,-1,-1,-1],"split_conditions":[3.003952E0,1.0014606E0,4.001461E0,1.4286676E-1,1.9099948E0,3.9989743E0,5.5E0,-1.5351463E-2,-1.2249035E-2,1.555841E-2,-8.738516E-3,1.5938397E-2,-1.9514704E-3,1.3015483E-2,1.9186204E-3],"split_indices":[1,0,1,9,0,1,6,0,0,0,0,0,0,0,0],"split_type":[0,0,0,0,0,0,0,0,0,0,0,0,0,0,0],"sum_hessian":[7.673165E2,4.096483E2,3.5766824E2,2.5009392E2,1.5955437E2,1.00436844E2,2.5723138E2,1.390739E2,1.1102002E2,2.1562136E1,1.3799223E2,4.269692E1,5.773993E1,2.398224E2,1.740899E1],"tree_param":{"num_deleted":"0","num_feature":"16","num_nodes":"15","size_leaf_vector":"0"}},{"base_weights":[-8.1928186E-2,-1.060002E0,1.0378021E0,-1.3930839E0,-5.3323925E-1,1.1864754E0,4.710547E-1,-1.5252403E0,-1.2155632E0,1.5463276E0,-8.662003E-1,-1.5792586E-1,1.2721527E0,-9.1778475E-1,6.929081E-1],"categories":[],"categories_nodes":[],"categories_segments":[],"categories_sizes":[],"default_left":[true,true,true,true,true,true,true,false,false,false,false,false,false,false,false],"id":28,"left_children":[1,3,5,7,9,11,13,-1,-1,-1,-1,-1,-1,-1,-1],"loss_changes":[8.406339E2,7.113455E1,2.9598633E1,4.0193176E0,1.1234255E2,3.278357E1,2.4064207E1,0E0,0E0,0E0,0E0,0E0,0E0,0E0,0E0],"parents":[2147483647,0,0,1,1,2,2,3,3,4,4,5,5,6,6],"right_children":[2,4,6,8,10,12,14,-1,-1,-1,-1,-1,-1,-1,-1],"split_conditions":[3.003952E0,1.0014606E0,5E-1,1.4286676E-1,1.9099948E0,1.4077547E-1,1.25E1,-1.5252403E-2,-1.2155632E-2,1.5463276E-2,-8.662003E-3,-1.5792586E-3,1.2721526E-2,-9.177847E-3,6.929081E-3],"split_indices":[1,0,13,9,0,9,4,0,0,0,0,0,0,0,0],"split_type":[0,0,0,0,0,0,0,0,0,0,0,0,0,0,0],"sum_hessian":[7.655723E2,4.086627E2,3.5690964E2,2.4934964E2,1.5931305E2,2.8187317E2,7.503647E1,1.3858632E2,1.1076333E2,2.1484385E1,1.3782866E2,1.683676E1,2.650364E2,9.903295E0,6.513317E1],"tree_param":{"num_deleted":"0","num_feature":"16","num_nodes":"15","size_leaf_vector":"0"}},{"base_weights":[-8.1301816E-2,-1.0520505E0,1.0293288E0,-1.3834841E0,-5.28678E-1,5.5971E-1,1.2101225E0,-1.1489916E0,-1.4817059E0,1.5370086E0,-8.5863924E-1,1.5772185E0,-2.0211315E-1,1.4241444E0,8.328819E-1],"categories":[],"categories_nodes":[],"categories_segments":[],"categories_sizes":[],"default_left":[true,true,true,true,true,true,true,false,false,false,false,false,false,false,false],"id":29,"left_children":[1,3,5,7,9,11,13,-1,-1,-1,-1,-1,-1,-1,-1],"loss_changes":[8.257719E2,7.0155396E1,2.9655518E1,4.0461426E0,1.1042053E2,7.8739716E1,1.9570953E1,0E0,0E0,0E0,0E0,0E0,0E0,0E0,0E0],"parents":[2147483647,0,0,1,1,2,2,3,3,4,4,5,5,6,6],"right_children":[2,4,6,8,10,12,14,-1,-1,-1,-1,-1,-1,-1,-1],"split_conditions":[3.003952E0,1.0014606E0,4.001461E0,9.5E0,1.9099948E0,3.9989743E0,2.9994853E0,-1.1489916E-2,-1.4817059E-2,1.5370086E-2,-8.586392E-3,1.5772184E-2,-2.0211316E-3,1.4241444E-2,8.328819E-3],"split_indices":[1,0,1,4,0,1,0,0,0,0,0,0,0,0,0],"split_type":[0,0,0,0,0,0,0,0,0,0,0,0,0,0,0],"sum_hessian":[7.63916E2,4.076562E2,3.5625983E2,2.4858961E2,1.5906657E2,1.0016722E2,2.5609262E2,7.7135666E1,1.7145395E2,2.1404963E1,1.376616E2,4.2428467E1,5.7738754E1,1.61623E2,9.4469604E1],"tree_param":{"num_deleted":"0","num_feature":"16","num_nodes":"15","size_leaf_vector":"0"}},{"base_weights":[-8.065646E-2,-1.0441972E0,1.0213693E0,-1.3740066E0,-5.241729E-1,5.5515444E-1,1.2009876E0,-1.5068276E0,-1.1960686E0,1.5278779E0,-8.51166E-1,1.5676885E0,-2.0012882E-1,1.4141562E0,8.2582504E-1],"categories":[],"categories_nodes":[],"categories_segments":[],"categories_sizes":[],"default_left":[true,true,true,true,true,true,true,false,false,false,false,false,false,false,false],"id":30,"left_children":[1,3,5,7,9,11,13,-1,-1,-1,-1,-1,-1,-1,-1],"loss_changes":[8.1138354E2,6.919302E1,2.9185486E1,4.0783386E0,1.08537476E2,7.7556915E1,1.9343567E1,0E0,0E0,0E0,0E0,0E0,0E0,0E0,0E0],"parents":[2147483647,0,0,1,1,2,2,3,3,4,4,5,5,6,6],"right_children":[2,4,6,8,10,12,14,-1,-1,-1,-1,-1,-1,-1,-1],"split_conditions":[3.003952E0,1.0014606E0,4.001461E0,1.4286676E-1,1.9099948E0,3.9989743E0,2.9994853E0,-1.5068276E-2,-1.1960686E-2,1.5278779E-2,-8.51166E-3,1.5676884E-2,-2.001288E-3,1.4141561E-2,8.258251E-3],"split_indices":[1,0,1,9,0,1,0,0,0,0,0,0,0,0,0],"split_type":[0,0,0,0,0,0,0,0,0,0,0,0,0,0,0],"sum_hessian":[7.621205E2,4.066363E2,3.554842E2,2.4782114E2,1.5881514E2,1.00004486E2,2.5547972E2,1.3762402E2,1.10197105E2,2.1323933E1,1.3749121E2,4.226642E1,5.7738064E1,1.6114638E2,9.433334E1],"tree_param":{"num_deleted":"0","num_feature":"16","num_nodes":"15","size_leaf_vector":"0"}},{"base_weights":[-8.002219E-2,-1.0364773E0,1.0135218E0,-1.3647276E0,-5.197224E-1,1.1615696E0,4.5104557E-1,-1.4974782E0,-1.187142E0,1.5189302E0,-8.4377855E-1,-1.7193924E-1,1.2469577E0,-7.4731684E-1,7.0541656E-1],"categories":[],"categories_nodes":[],"categories_segments":[],"categories_sizes":[],"default_left":[true,true,true,true,true,true,true,false,false,false,false,false,false,false,false],"id":31,"left_children":[1,3,5,7,9,11,13,-1,-1,-1,-1,-1,-1,-1,-1],"loss_changes":[7.972964E2,6.8258606E1,2.9095795E1,4.069519E0,1.0669235E2,3.2204346E1,2.3617468E1,0E0,0E0,0E0,0E0,0E0,0E0,0E0,0E0],"parents":[2147483647,0,0,1,1,2,2,3,3,4,4,5,5,6,6],"right_children":[2,4,6,8,10,12,14,-1,-1,-1,-1,-1,-1,-1,-1],"split_conditions":[3.003952E0,1.0014606E0,5E-1,1.4286676E-1,1.9099948E0,1.4077547E-1,1.35E1,-1.4974782E-2,-1.187142E-2,1.5189301E-2,-8.437785E-3,-1.7193924E-3,1.2469577E-2,-7.4731684E-3,7.0541655E-3],"split_indices":[1,0,13,9,0,9,4,0,0,0,0,0,0,0,0],"split_type":[0,0,0,0,0,0,0,0,0,0,0,0,0,0,0],"sum_hessian":[7.602833E2,4.0559058E2,3.5469278E2,2.4703159E2,1.5855899E2,2.799443E2,7.474845E1,1.3710725E2,1.0992434E2,2.1241358E1,1.3731763E2,1.678582E1,2.631585E2,1.2748996E1,6.199946E1],"tree_param":{"num_deleted":"0","num_feature":"16","num_nodes":"15","size_leaf_vector":"0"}},{"base_weights":[-7.941919E-2,-1.028869E0,1.0053613E0,-1.3556026E0,-5.153256E-1,5.418259E-1,1.1843096E0,-1.1208001E0,-1.4541717E0,1.51016E0,-8.3647543E-1,1.5522981E0,-2.0695071E-1,1.396841E0,8.1117356E-1],"categories":[],"categories_nodes":[],"categories_segments":[],"categories_sizes":[],"default_left":[true,true,true,true,true,true,true,false,false,false,false,false,false,false,false],"id":32,"left_children":[1,3,5,7,9,11,13,-1,-1,-1,-1,-1,-1,-1,-1],"loss_changes":[7.833133E2,6.734543E1,2.8805878E1,4.0920715E0,1.0488426E2,7.652964E1,1.9111908E1,0E0,0E0,0E0,0E0,0E0,0E0,0E0,0E0],"parents":[2147483647,0,0,1,1,2,2,3,3,4,4,5,5,6,6],"right_children":[2,4,6,8,10,12,14,-1,-1,-1,-1,-1,-1,-1,-1],"split_conditions":[3.003952E0,1.0014606E0,4.001461E0,9.5E0,1.9099948E0,3.9989743E0,2.9994853E0,-1.12080015E-2,-1.4541716E-2,1.51015995E-2,-8.364754E-3,1.552298E-2,-2.069507E-3,1.396841E-2,8.111736E-3],"split_indices":[1,0,1,4,0,1,0,0,0,0,0,0,0,0,0],"split_type":[0,0,0,0,0,0,0,0,0,0,0,0,0,0,0],"sum_hessian":[7.58535E2,4.0452637E2,3.5400858E2,2.4622809E2,1.582983E2,9.972242E1,2.5428616E2,7.646076E1,1.6976732E2,2.1157297E1,1.3714099E2,4.1987404E1,5.7735012E1,1.6026097E2,9.402519E1],"tree_param":{"num_deleted":"0","num_feature":"16","num_nodes":"15","size_leaf_vector":"0"}},{"base_weights":[-7.87999E-2,-1.021349E0,9.977208E-1,-1.3465854E0,-5.1098096E-1,1.145098E0,4.3923122E-1,-1.4801037E0,-1.1684654E0,1.5015624E0,-8.2925475E-1,-1.7790452E-1,1.2301403E0,-7.47679E-1,6.917944E-1],"categories":[],"categories_nodes":[],"categories_segments":[],"categories_sizes":[],"default_left":[true,true,true,true,true,true,true,false,false,false,false,false,false,false,false],"id":33,"left_children":[1,3,5,7,9,11,13,-1,-1,-1,-1,-1,-1,-1,-1],"loss_changes":[7.697785E2,6.644687E1,2.8650024E1,4.1309204E0,1.0311226E2,3.1678955E1,2.3171871E1,0E0,0E0,0E0,0E0,0E0,0E0,0E0,0E0],"parents":[2147483647,0,0,1,1,2,2,3,3,4,4,5,5,6,6],"right_children":[2,4,6,8,10,12,14,-1,-1,-1,-1,-1,-1,-1,-1],"split_conditions":[3.003952E0,1.0014606E0,5E-1,1.4286676E-1,1.9099948E0,1.4077547E-1,1.35E1,-1.4801037E-2,-1.1684653E-2,1.50156235E-2,-8.292547E-3,-1.7790451E-3,1.2301403E-2,-7.47679E-3,6.9179437E-3],"split_indices":[1,0,13,9,0,9,4,0,0,0,0,0,0,0,0],"split_type":[0,0,0,0,0,0,0,0,0,0,0,0,0,0,0],"sum_hessian":[7.5664215E2,4.034512E2,3.5319095E2,2.45418E2,1.5803319E2,2.7861755E2,7.457342E1,1.360932E2,1.0932481E2,2.107181E1,1.3696138E2,1.6761843E1,2.618557E2,1.2740342E1,6.1833076E1],"tree_param":{"num_deleted":"0","num_feature":"16","num_nodes":"15","size_leaf_vector":"0"}},{"base_weights":[-7.821345E-2,-1.0139533E0,9.897638E-1,-1.3377535E0,-5.066875E-1,5.288039E-1,1.1680901E0,-1.4712636E0,-1.1599182E0,1.493132E0,-8.221148E-1,1.537486E0,-2.1357527E-1,1.2420125E0,1.501956E-1],"categories":[],"categories_nodes":[],"categories_segments":[],"categories_sizes":[],"default_left":[true,true,true,true,true,true,true,false,false,false,false,false,false,false,false],"id":34,"left_children":[1,3,5,7,9,11,13,-1,-1,-1,-1,-1,-1,-1,-1],"loss_changes":[7.5634625E2,6.5573944E1,2.8438995E1,4.12442E0,1.0137545E2,7.553258E1,1.8929688E1,0E0,0E0,0E0,0E0,0E0,0E0,0E0,0E0],"parents":[2147483647,0,0,1,1,2,2,3,3,4,4,5,5,6,6],"right_children":[2,4,6,8,10,12,14,-1,-1,-1,-1,-1,-1,-1,-1],"split_conditions":[3.003952E0,1.0014606E0,4.001461E0,1.4286676E-1,1.9099948E0,3.9989743E0,5.5E0,-1.4712636E-2,-1.1599181E-2,1.4931319E-2,-8.2211485E-3,1.5374859E-2,-2.1357527E-3,1.2420124E-2,1.5019559E-3],"split_indices":[1,0,1,9,0,1,6,0,0,0,0,0,0,0,0],"split_type":[0,0,0,0,0,0,0,0,0,0,0,0,0,0,0],"sum_hessian":[7.548348E2,4.023524E2,3.524824E2,2.4458844E2,1.5776393E2,9.942967E1,2.530527E2,1.3555054E2,1.09037895E2,2.0984955E1,1.3677898E2,4.170009E1,5.7729584E1,2.3571431E2,1.7338408E1],"tree_param":{"num_deleted":"0","num_feature":"16","num_nodes":"15","size_leaf_vector":"0"}},{"base_weights":[-7.762377E-2,-1.0066601E0,9.8232865E-1,-1.3290625E0,-5.0244397E-1,1.128798E0,4.2878735E-1,-1.0937268E0,-1.4280847E0,1.4848646E0,-8.15054E-1,-1.8481284E-1,1.213569E0,-7.460749E-1,6.794177E-1],"categories":[],"categories_nodes":[],"categories_segments":[],"categories_sizes":[],"default_left":[true,true,true,true,true,true,true,false,false,false,false,false,false,false,false],"id":35,"left_children":[1,3,5,7,9,11,13,-1,-1,-1,-1,-1,-1,-1,-1],"loss_changes":[7.433474E2,6.472012E1,2.8106049E1,4.14151E0,9.967298E1,3.1207275E1,2.2707806E1,0E0,0E0,0E0,0E0,0E0,0E0,0E0,0E0],"parents":[2147483647,0,0,1,1,2,2,3,3,4,4,5,5,6,6],"right_children":[2,4,6,8,10,12,14,-1,-1,-1,-1,-1,-1,-1,-1],"split_conditions":[3.003952E0,1.0014606E0,5E-1,9.5E0,1.9099948E0,1.4077547E-1,1.35E1,-1.0937267E-2,-1.4280847E-2,1.4848646E-2,-8.150539E-3,-1.8481284E-3,1.213569E-2,-7.460749E-3,6.794177E-3],"split_indices":[1,0,13,4,0,9,4,0,0,0,0,0,0,0,0],"split_type":[0,0,0,0,0,0,0,0,0,0,0,0,0,0,0],"sum_hessian":[7.528668E2,4.012372E2,3.516296E2,2.4374657E2,1.5749065E2,2.7723328E2,7.439631E1,7.575436E1,1.6799222E2,2.0896786E1,1.3659386E2,1.6734552E1,2.6049872E2,1.2732814E1,6.1663494E1],"tree_param":{"num_deleted":"0","num_feature":"16","num_nodes":"15","size_leaf_vector":"0"}},{"base_weights":[-7.705086E-2,-9.994462E-1,9.7456586E-1,-1.320466E0,-4.9824902E-1,5.160757E-1,1.1523262E0,-1.4548393E0,-1.1419902E0,1.476755E0,-8.0807054E-1,1.5232227E0,-2.2000854E-1,1.3651097E0,7.8033596E-1],"categories":[],"categories_nodes":[],"categories_segments":[],"categories_sizes":[],"default_left":[true,true,true,true,true,true,true,false,false,false,false,false,false,false,false],"id":36,"left_children":[1,3,5,7,9,11,13,-1,-1,-1,-1,-1,-1,-1,-1],"loss_changes":[7.304302E2,6.3878937E1,2.808551E1,4.187866E0,9.800397E1,7.456383E1,1.8942474E1,0E0,0E0,0E0,0E0,0E0,0E0,0E0,0E0],"parents":[2147483647,0,0,1,1,2,2,3,3,4,4,5,5,6,6],"right_children":[2,4,6,8,10,12,14,-1,-1,-1,-1,-1,-1,-1,-1],"split_conditions":[3.003952E0,1.0014606E0,4.001461E0,1.4286676E-1,1.9099948E0,3.9989743E0,2.9994853E0,-1.4548393E-2,-1.1419902E-2,1.476755E-2,-8.080705E-3,1.5232227E-2,-2.2000854E-3,1.3651096E-2,7.8033595E-3],"split_indices":[1,0,1,9,0,1,0,0,0,0,0,0,0,0,0],"split_type":[0,0,0,0,0,0,0,0,0,0,0,0,0,0,0],"sum_hessian":[7.510117E2,4.001134E2,3.5089832E2,2.428999E2,1.572135E2,9.912707E1,2.5177126E2,1.3449098E2,1.0840891E2,2.0807362E1,1.3640613E2,4.140514E1,5.7721928E1,1.5846016E2,9.3311104E1],"tree_param":{"num_deleted":"0","num_feature":"16","num_nodes":"15","size_leaf_vector":"0"}},{"base_weights":[-7.646479E-2,-9.923485E-1,9.6730757E-1,-1.3120434E0,-4.9410173E-1,1.1132003E0,4.1748184E-1,-1.4464655E0,-1.1337914E0,1.4687997E0,-8.01163E-1,-1.9041634E-1,1.1976808E0,-7.462203E-1,6.663784E-1],"categories":[],"categories_nodes":[],"categories_segments":[],"categories_sizes":[],"default_left":[true,true,true,true,true,true,true,false,false,false,false,false,false,false,false],"id":37,"left_children":[1,3,5,7,9,11,13,-1,-1,-1,-1,-1,-1,-1,-1],"loss_changes":[7.1794305E2,6.306137E1,2.7693726E1,4.18338E0,9.6367676E1,3.071457E1,2.2281885E1,0E0,0E0,0E0,0E0,0E0,0E0,0E0,0E0],"parents":[2147483647,0,0,1,1,2,2,3,3,4,4,5,5,6,6],"right_children":[2,4,6,8,10,12,14,-1,-1,-1,-1,-1,-1,-1,-1],"split_conditions":[3.003952E0,1.0014606E0,5E-1,1.4286676E-1,1.9099948E0,1.4077547E-1,1.35E1,-1.4464655E-2,-1.13379145E-2,1.4687996E-2,-8.01163E-3,-1.9041633E-3,1.1976808E-2,-7.4622026E-3,6.6637835E-3],"split_indices":[1,0,13,9,0,9,4,0,0,0,0,0,0,0,0],"split_type":[0,0,0,0,0,0,0,0,0,0,0,0,0,0,0],"sum_hessian":[7.4900275E2,3.9896786E2,3.5003488E2,2.4203516E2,1.569327E2,2.758225E2,7.421237E1,1.339255E2,1.0810966E2,2.0716734E1,1.3621596E2,1.6710424E1,2.591121E2,1.2723981E1,6.1488396E1],"tree_param":{"num_deleted":"0","num_feature":"16","num_nodes":"15","size_leaf_vector":"0"}},{"base_weights":[-7.590878E-2,-9.8534507E-1,9.597292E-1,-1.3037497E0,-4.9000147E-1,5.0362945E-1,1.1369529E0,-1.067676E0,-1.4033235E0,1.4609933E0,-7.943303E-1,1.5094804E0,-2.262557E-1,1.3493457E0,7.666633E-1],"categories":[],"categories_nodes":[],"categories_segments":[],"categories_sizes":[],"default_left":[true,true,true,true,true,true,true,false,false,false,false,false,false,false,false],"id":38,"left_children":[1,3,5,7,9,11,13,-1,-1,-1,-1,-1,-1,-1,-1],"loss_changes":[7.055328E2,6.2261047E1,2.7741394E1,4.194092E0,9.4763275E1,7.362154E1,1.8742615E1,0E0,0E0,0E0,0E0,0E0,0E0,0E0,0E0],"parents":[2147483647,0,0,1,1,2,2,3,3,4,4,5,5,6,6],"right_children":[2,4,6,8,10,12,14,-1,-1,-1,-1,-1,-1,-1,-1],"split_conditions":[3.003952E0,1.0014606E0,4.001461E0,9.5E0,1.9099948E0,3.9989743E0,2.9994853E0,-1.0676759E-2,-1.4033235E-2,1.4609933E-2,-7.943302E-3,1.5094804E-2,-2.262557E-3,1.3493457E-2,7.666633E-3],"split_indices":[1,0,1,4,0,1,0,0,0,0,0,0,0,0,0],"split_type":[0,0,0,0,0,0,0,0,0,0,0,0,0,0,0],"sum_hessian":[7.4709106E2,3.97808E2,3.4928302E2,2.4115967E2,1.5664836E2,9.881535E1,2.5046768E2,7.502043E1,1.6613924E2,2.0624954E1,1.360234E2,4.1103176E1,5.7712177E1,1.5748976E2,9.297791E1],"tree_param":{"num_deleted":"0","num_feature":"16","num_nodes":"15","size_leaf_vector":"0"}},{"base_weights":[-7.533508E-2,-9.784129E-1,9.526491E-1,-1.2955389E0,-4.8594627E-1,4.9965233E-1,1.1288304E0,-1.430913E0,-1.1165506E0,1.4533325E0,-7.875699E-1,1.5013361E0,-2.240285E-1,1.3406172E0,7.6030046E-1],"categories":[],"categories_nodes":[],"categories_segments":[],"categories_sizes":[],"default_left":[true,true,true,true,true,true,true,false,false,false,false,false,false,false,false],"id":39,"left_children":[1,3,5,7,9,11,13,-1,-1,-1,-1,-1,-1,-1,-1],"loss_changes":[6.935188E2,6.147174E1,2.732135E1,4.2486267E0,9.318996E1,7.255968E1,1.8553009E1,0E0,0E0,0E0,0E0,0E0,0E0,0E0,0E0],"parents":[2147483647,0,0,1,1,2,2,3,3,4,4,5,5,6,6],"right_children":[2,4,6,8,10,12,14,-1,-1,-1,-1,-1,-1,-1,-1],"split_conditions":[3.003952E0,1.0014606E0,4.001461E0,1.4286676E-1,1.9099948E0,3.9989743E0,2.9994853E0,-1.430913E-2,-1.1165505E-2,1.4533325E-2,-7.875699E-3,1.501336E-2,-2.240285E-3,1.3406171E-2,7.6030046E-3],"split_indices":[1,0,1,9,0,1,0,0,0,0,0,0,0,0,0],"split_type":[0,0,0,0,0,0,0,0,0,0,0,0,0,0,0],"sum_hessian":[7.450408E2,3.966417E2,3.4839908E2,2.4028099E2,1.5636069E2,9.8632225E1,2.4976685E2,1.3282622E2,1.0745478E2,2.053207E1,1.3582861E2,4.091923E1,5.771299E1,1.5693925E2,9.282758E1],"tree_param":{"num_deleted":"0","num_feature":"16","num_nodes":"15","size_leaf_vector":"0"}},{"base_weights":[-7.4770726E-2,-9.715898E-1,9.456584E-1,-1.2874914E0,-4.8193616E-1,1.0912247E0,3.9928004E-1,-1.4229671E0,-1.1086724E0,1.4458132E0,-7.808817E-1,-2.0309642E-1,1.1755918E0,-7.536204E-1,6.4677703E-1],"categories":[],"categories_nodes":[],"categories_segments":[],"categories_sizes":[],"default_left":[true,true,true,true,true,true,true,false,false,false,false,false,false,false,false],"id":40,"left_children":[1,3,5,7,9,11,13,-1,-1,-1,-1,-1,-1,-1,-1],"loss_changes":[6.817459E2,6.0704193E1,2.7282318E1,4.2459106E0,9.164708E1,3.02258E1,2.185728E1,0E0,0E0,0E0,0E0,0E0,0E0,0E0,0E0],"parents":[2147483647,0,0,1,1,2,2,3,3,4,4,5,5,6,6],"right_children":[2,4,6,8,10,12,14,-1,-1,-1,-1,-1,-1,-1,-1],"split_conditions":[3.003952E0,1.0014606E0,5E-1,1.4286676E-1,1.9099948E0,1.4077547E-1,1.35E1,-1.422967E-2,-1.1086724E-2,1.4458131E-2,-7.808817E-3,-2.0309642E-3,1.1755918E-2,-7.5362036E-3,6.4677703E-3],"split_indices":[1,0,13,9,0,9,4,0,0,0,0,0,0,0,0],"split_type":[0,0,0,0,0,0,0,0,0,0,0,0,0,0,0],"sum_hessian":[7.429593E2,3.9545538E2,3.475039E2,2.393856E2,1.560698E2,2.7361115E2,7.389277E1,1.3224077E2,1.0714483E2,2.043814E1,1.3563165E2,1.6657177E1,2.5695395E2,1.26979065E1,6.1194862E1],"tree_param":{"num_deleted":"0","num_feature":"16","num_nodes":"15","size_leaf_vector":"0"}},{"base_weights":[-7.42358E-2,-9.6485335E-1,9.383346E-1,-1.2795622E0,-4.7796947E-1,4.875917E-1,1.1140423E0,-1.0425617E0,-1.3797797E0,1.438431E0,-7.742633E-1,1.488358E0,-2.3004828E-1,1.188108E0,1.10949576E-1],"categories":[],"categories_nodes":[],"categories_segments":[],"categories_sizes":[],"default_left":[true,true,true,true,true,true,true,false,false,false,false,false,false,false,false],"id":41,"left_children":[1,3,5,7,9,11,13,-1,-1,-1,-1,-1,-1,-1,-1],"loss_changes":[6.700348E2,5.995227E1,2.6996307E1,4.2495728E0,9.0133835E1,7.1665054E1,1.839859E1,0E0,0E0,0E0,0E0,0E0,0E0,0E0,0E0],"parents":[2147483647,0,0,1,1,2,2,3,3,4,4,5,5,6,6],"right_children":[2,4,6,8,10,12,14,-1,-1,-1,-1,-1,-1,-1,-1],"split_conditions":[3.003952E0,1.0014606E0,4.001461E0,9.5E0,1.9099948E0,3.9989743E0,5.5E0,-1.0425616E-2,-1.3797796E-2,1.438431E-2,-7.742633E-3,1.488358E-2,-2.3004827E-3,1.18810795E-2,1.1094958E-3],"split_indices":[1,0,1,4,0,1,6,0,0,0,0,0,0,0,0],"split_type":[0,0,0,0,0,0,0,0,0,0,0,0,0,0,0],"sum_hessian":[7.4098254E2,3.9425674E2,3.4672577E2,2.3848088E2,1.5577586E2,9.83089E1,2.4841687E2,7.42627E1,1.6421819E2,2.0343204E1,1.3543266E2,4.060721E1,5.7701694E1,2.3116388E2,1.7252987E1],"tree_param":{"num_deleted":"0","num_feature":"16","num_nodes":"15","size_leaf_vector":"0"}},{"base_weights":[-7.369408E-2,-9.5818114E-1,9.3151504E-1,-1.2717055E0,-4.7404543E-1,1.0763196E0,3.8966918E-1,-1.4082158E0,-1.0920632E0,1.4311831E0,-7.677138E-1,-2.0937832E-1,1.1605E0,-7.516152E-1,6.353384E-1],"categories":[],"categories_nodes":[],"categories_segments":[],"categories_sizes":[],"default_left":[true,true,true,true,true,true,true,false,false,false,false,false,false,false,false],"id":42,"left_children":[1,3,5,7,9,11,13,-1,-1,-1,-1,-1,-1,-1,-1],"loss_changes":[6.586944E2,5.920987E1,2.679132E1,4.3127136E0,8.864959E1,2.980069E1,2.1422663E1,0E0,0E0,0E0,0E0,0E0,0E0,0E0,0E0],"parents":[2147483647,0,0,1,1,2,2,3,3,4,4,5,5,6,6],"right_children":[2,4,6,8,10,12,14,-1,-1,-1,-1,-1,-1,-1,-1],"split_conditions":[3.003952E0,1.0014606E0,5E-1,1.4286676E-1,1.9099948E0,1.4077547E-1,1.35E1,-1.4082157E-2,-1.0920632E-2,1.43118305E-2,-7.677138E-3,-2.093783E-3,1.1605E-2,-7.516152E-3,6.353384E-3],"split_indices":[1,0,13,9,0,9,4,0,0,0,0,0,0,0,0],"split_type":[0,0,0,0,0,0,0,0,0,0,0,0,0,0,0],"sum_hessian":[7.388559E2,3.9305353E2,3.458024E2,2.375745E2,1.5547902E2,2.7209933E2,7.370307E1,1.3110713E2,1.0646736E2,2.0247314E1,1.352317E2,1.6629395E1,2.5546994E2,1.2690135E1,6.1012936E1],"tree_param":{"num_deleted":"0","num_feature":"16","num_nodes":"15","size_leaf_vector":"0"}},{"base_weights":[-7.317222E-2,-9.516111E-1,9.2435527E-1,-1.2640026E0,-4.7016326E-1,4.7578683E-1,1.0996335E0,-1.4006634E0,-1.0844804E0,1.4240652E0,-7.6123184E-1,1.4758382E0,-2.3589453E-1,1.3121512E0,7.316229E-1],"categories":[],"categories_nodes":[],"categories_segments":[],"categories_sizes":[],"default_left":[true,true,true,true,true,true,true,false,false,false,false,false,false,false,false],"id":43,"left_children":[1,3,5,7,9,11,13,-1,-1,-1,-1,-1,-1,-1,-1],"loss_changes":[6.4742413E2,5.8487732E1,2.6681427E1,4.311493E0,8.7193634E1,7.079271E1,1.843808E1,0E0,0E0,0E0,0E0,0E0,0E0,0E0,0E0],"parents":[2147483647,0,0,1,1,2,2,3,3,4,4,5,5,6,6],"right_children":[2,4,6,8,10,12,14,-1,-1,-1,-1,-1,-1,-1,-1],"split_conditions":[3.003952E0,1.0014606E0,4.001461E0,1.4286676E-1,1.9099948E0,3.9989743E0,2.9994853E0,-1.4006633E-2,-1.0844803E-2,1.4240652E-2,-7.6123183E-3,1.4758381E-2,-2.3589453E-3,1.3121512E-2,7.3162285E-3],"split_indices":[1,0,1,9,0,1,0,0,0,0,0,0,0,0,0],"split_type":[0,0,0,0,0,0,0,0,0,0,0,0,0,0,0],"sum_hessian":[7.3683966E2,3.9183203E2,3.450076E2,2.366526E2,1.5517941E2,9.79782E1,2.470294E2,1.3050433E2,1.0614827E2,2.0150515E1,1.350289E2,4.0289642E1,5.7688557E1,1.5497142E2,9.205799E1],"tree_param":{"num_deleted":"0","num_feature":"16","num_nodes":"15","size_leaf_vector":"0"}},{"base_weights":[-7.2633795E-2,-9.4512117E-1,9.176867E-1,-1.2564082E0,-4.6632212E-1,1.0620443E0,3.7918904E-1,-1.3932389E0,-1.0769863E0,1.4170742E0,-7.548163E-1,-2.1437389E-1,1.146013E0,-7.513577E-1,6.2322897E-1],"categories":[],"categories_nodes":[],"categories_segments":[],"categories_sizes":[],"default_left":[true,true,true,true,true,true,true,false,false,false,false,false,false,false,false],"id":44,"left_children":[1,3,5,7,9,11,13,-1,-1,-1,-1,-1,-1,-1,-1],"loss_changes":[6.365248E2,5.7779724E1,2.6422424E1,4.3111267E0,8.5765335E1,2.935263E1,2.1024357E1,0E0,0E0,0E0,0E0,0E0,0E0,0E0,0E0],"parents":[2147483647,0,0,1,1,2,2,3,3,4,4,5,5,6,6],"right_children":[2,4,6,8,10,12,14,-1,-1,-1,-1,-1,-1,-1,-1],"split_conditions":[3.003952E0,1.0014606E0,5E-1,1.4286676E-1,1.9099948E0,1.4077547E-1,1.35E1,-1.3932388E-2,-1.0769863E-2,1.4170742E-2,-7.5481627E-3,-2.1437388E-3,1.146013E-2,-7.5135767E-3,6.2322896E-3],"split_indices":[1,0,13,9,0,9,4,0,0,0,0,0,0,0,0],"split_type":[0,0,0,0,0,0,0,0,0,0,0,0,0,0,0],"sum_hessian":[7.346788E2,3.9059995E2,3.4407883E2,2.3572275E2,1.548772E2,2.7057285E2,7.350598E1,1.2989616E2,1.05826584E2,2.0052847E1,1.3482436E2,1.660502E1,2.5396783E2,1.2680957E1,6.0825024E1],"tree_param":{"num_deleted":"0","num_feature":"16","num_nodes":"15","size_leaf_vector":"0"}},{"base_weights":[-7.212431E-2,-9.3870926E-1,9.1068316E-1,-1.2489197E0,-4.6252108E-1,4.6422863E-1,1.0855533E0,-1.0099155E0,-1.3503214E0,1.4102067E0,-7.484658E-1,1.4637549E0,-2.4157125E-1,1.2979293E0,7.189302E-1],"categories":[],"categories_nodes":[],"categories_segments":[],"categories_sizes":[],"default_left":[true,true,true,true,true,true,true,false,false,false,false,false,false,false,false],"id":45,"left_children":[1,3,5,7,9,11,13,-1,-1,-1,-1,-1,-1,-1,-1],"loss_changes":[6.2567474E2,5.708542E1,2.6373688E1,4.350647E0,8.436404E1,6.994125E1,1.8269867E1,0E0,0E0,0E0,0E0,0E0,0E0,0E0,0E0],"parents":[2147483647,0,0,1,1,2,2,3,3,4,4,5,5,6,6],"right_children":[2,4,6,8,10,12,14,-1,-1,-1,-1,-1,-1,-1,-1],"split_conditions":[3.003952E0,1.0014606E0,4.001461E0,9.5E0,1.9099948E0,3.9989743E0,2.9994853E0,-1.0099155E-2,-1.3503213E-2,1.4102067E-2,-7.4846577E-3,1.46375485E-2,-2.4157125E-3,1.2979292E-2,7.189302E-3],"split_indices":[1,0,1,4,0,1,0,0,0,0,0,0,0,0,0],"split_type":[0,0,0,0,0,0,0,0,0,0,0,0,0,0,0],"sum_hessian":[7.3262695E2,3.893578E2,3.4326917E2,2.347853E2,1.545725E2,9.764076E1,2.456284E2,7.3203606E1,1.6158168E2,1.995436E1,1.3461813E2,3.9967068E1,5.767369E1,1.5392378E2,9.170462E1],"tree_param":{"num_deleted":"0","num_feature":"16","num_nodes":"15","size_leaf_vector":"0"}},{"base_weights":[-7.159579E-2,-9.3235296E-1,9.0416557E-1,-1.2414904E0,-4.5875937E-1,1.0481077E0,3.689267E-1,-1.379464E0,-1.0611356E0,1.4034593E0,-7.4217933E-1,-2.1921732E-1,1.1318846E0,-7.510077E-1,6.113643E-1],"categories":[],"categories_nodes":[],"categories_segments":[],"categories_sizes":[],"default_left":[true,true,true,true,true,true,true,false,false,false,false,false,false,false,false],"id":46,"left_children":[1,3,5,7,9,11,13,-1,-1,-1,-1,-1,-1,-1,-1],"loss_changes":[6.15174E2,5.6398834E1,2.6064331E1,4.3802185E0,8.298915E1,2.8916748E1,2.0634235E1,0E0,0E0,0E0,0E0,0E0,0E0,0E0,0E0],"parents":[2147483647,0,0,1,1,2,2,3,3,4,4,5,5,6,6],"right_children":[2,4,6,8,10,12,14,-1,-1,-1,-1,-1,-1,-1,-1],"split_conditions":[3.003952E0,1.0014606E0,5E-1,1.4286676E-1,1.9099948E0,1.4077547E-1,1.35E1,-1.379464E-2,-1.0611356E-2,1.4034593E-2,-7.421793E-3,-2.1921732E-3,1.1318846E-2,-7.5100767E-3,6.113643E-3],"split_indices":[1,0,13,9,0,9,4,0,0,0,0,0,0,0,0],"split_type":[0,0,0,0,0,0,0,0,0,0,0,0,0,0,0],"sum_hessian":[7.304391E2,3.8811353E2,3.4232556E2,2.3384811E2,1.5426541E2,2.690197E2,7.3305855E1,1.28724E2,1.0512411E2,1.9855097E1,1.3441031E2,1.658067E1,2.5243904E2,1.2671667E1,6.063419E1],"tree_param":{"num_deleted":"0","num_feature":"16","num_nodes":"15","size_leaf_vector":"0"}},{"base_weights":[-7.10983E-2,-9.2609096E-1,8.973109E-1,-1.2342043E0,-4.550361E-1,4.5290798E-1,1.0718025E0,-1.372392E0,-1.053908E0,1.3968294E0,-7.359556E-1,1.4520872E0,-2.4708301E-1,1.2841017E0,7.064873E-1],"categories":[],"categories_nodes":[],"categories_segments":[],"categories_sizes":[],"default_left":[true,true,true,true,true,true,true,false,false,false,false,false,false,false,false],"id":47,"left_children":[1,3,5,7,9,11,13,-1,-1,-1,-1,-1,-1,-1,-1],"loss_changes":[6.047247E2,5.5730743E1,2.6073761E1,4.3811035E0,8.1640076E1,6.9109436E1,1.8109985E1,0E0,0E0,0E0,0E0,0E0,0E0,0E0,0E0],"parents":[2147483647,0,0,1,1,2,2,3,3,4,4,5,5,6,6],"right_children":[2,4,6,8,10,12,14,-1,-1,-1,-1,-1,-1,-1,-1],"split_conditions":[3.003952E0,1.0014606E0,4.001461E0,1.4286676E-1,1.9099948E0,3.9989743E0,2.9994853E0,-1.372392E-2,-1.053908E-2,1.3968294E-2,-7.359556E-3,1.4520871E-2,-2.47083E-3,1.2841017E-2,7.064873E-3],"split_indices":[1,0,1,9,0,1,0,0,0,0,0,0,0,0,0],"split_type":[0,0,0,0,0,0,0,0,0,0,0,0,0,0,0],"sum_hessian":[7.283554E2,3.8685297E2,3.4150244E2,2.3289682E2,1.5395613E2,9.7297165E1,2.4420528E2,1.2810172E2,1.0479512E2,1.9755095E1,1.3420103E2,3.963996E1,5.7657204E1,1.528582E2,9.134707E1],"tree_param":{"num_deleted":"0","num_feature":"16","num_nodes":"15","size_leaf_vector":"0"}},{"base_weights":[-7.058341E-2,-9.1990125E-1,8.909376E-1,-1.2270159E0,-4.5135057E-1,1.0344933E0,3.5887566E-1,-9.867083E-1,-1.3292491E0,1.3903131E0,-7.297935E-1,-2.2391243E-1,1.1180967E0,-7.505687E-1,5.9973615E-1],"categories":[],"categories_nodes":[],"categories_segments":[],"categories_sizes":[],"default_left":[true,true,true,true,true,true,true,false,false,false,false,false,false,false,false],"id":48,"left_children":[1,3,5,7,9,11,13,-1,-1,-1,-1,-1,-1,-1,-1],"loss_changes":[5.9462036E2,5.5075104E1,2.5716187E1,4.4111633E0,8.031618E1,2.849234E1,2.0252045E1,0E0,0E0,0E0,0E0,0E0,0E0,0E0,0E0],"parents":[2147483647,0,0,1,1,2,2,3,3,4,4,5,5,6,6],"right_children":[2,4,6,8,10,12,14,-1,-1,-1,-1,-1,-1,-1,-1],"split_conditions":[3.003952E0,1.0014606E0,5E-1,9.5E0,1.9099948E0,1.4077547E-1,1.35E1,-9.867082E-3,-1.3292491E-2,1.3903131E-2,-7.2979345E-3,-2.2391244E-3,1.1180967E-2,-7.5056865E-3,5.9973616E-3],"split_indices":[1,0,13,4,0,9,4,0,0,0,0,0,0,0,0],"split_type":[0,0,0,0,0,0,0,0,0,0,0,0,0,0,0],"sum_hessian":[7.261294E2,3.855839E2,3.405455E2,2.3193915E2,1.5364473E2,2.6744247E2,7.3103004E1,7.2402626E1,1.5953651E2,1.9654394E1,1.3399034E2,1.655635E1,2.5088612E2,1.2662265E1,6.044074E1],"tree_param":{"num_deleted":"0","num_feature":"16","num_nodes":"15","size_leaf_vector":"0"}},{"base_weights":[-7.009505E-2,-9.137614E-1,8.842255E-1,-1.2198778E0,-4.4770208E-1,4.418166E-1,1.0583658E0,-1.3592793E0,-1.03858E0,1.3839084E0,-7.2369206E-1,1.440816E0,-2.5243425E-1,1.2706492E0,6.94285E-1],"categories":[],"categories_nodes":[],"categories_segments":[],"categories_sizes":[],"default_left":[true,true,true,true,true,true,true,false,false,false,false,false,false,false,false],"id":49,"left_children":[1,3,5,7,9,11,13,-1,-1,-1,-1,-1,-1,-1,-1],"loss_changes":[5.845458E2,5.4426056E1,2.5781128E1,4.451233E0,7.901697E1,6.8296165E1,1.7957764E1,0E0,0E0,0E0,0E0,0E0,0E0,0E0,0E0],"parents":[2147483647,0,0,1,1,2,2,3,3,4,4,5,5,6,6],"right_children":[2,4,6,8,10,12,14,-1,-1,-1,-1,-1,-1,-1,-1],"split_conditions":[3.003952E0,1.0014606E0,4.001461E0,1.4286676E-1,1.9099948E0,3.9989743E0,2.9994853E0,-1.3592793E-2,-1.0385799E-2,1.3839084E-2,-7.2369203E-3,1.440816E-2,-2.5243424E-3,1.2706492E-2,6.9428496E-3],"split_indices":[1,0,1,9,0,1,0,0,0,0,0,0,0,0,0],"split_type":[0,0,0,0,0,0,0,0,0,0,0,0,0,0,0],"sum_hessian":[7.2402466E2,3.8431436E2,3.3971033E2,2.3098299E2,1.5333138E2,9.6948006E1,2.4276231E2,1.2690622E2,1.04076775E2,1.955304E1,1.3377834E2,3.930882E1,5.7639187E1,1.5177647E2,9.098583E1],"tree_param":{"num_deleted":"0","num_feature":"16","num_nodes":"15","size_leaf_vector":"0"}},{"base_weights":[-6.959116E-2,-9.0771055E-1,8.7799007E-1,-1.212876E0,-4.4408962E-1,4.3842566E-1,1.0512012E0,-1.3525327E0,-1.0315988E0,1.3776121E0,-7.176499E-1,1.4339827E0,-2.4994077E-1,1.1258397E0,6.299036E-2],"categories":[],"categories_nodes":[],"categories_segments":[],"categories_sizes":[],"default_left":[true,true,true,true,true,true,true,false,false,false,false,false,false,false,false],"id":50,"left_children":[1,3,5,7,9,11,13,-1,-1,-1,-1,-1,-1,-1,-1],"loss_changes":[5.7481195E2,5.3794342E1,2.5406158E1,4.453186E0,7.774184E1,6.734656E1,1.7851868E1,0E0,0E0,0E0,0E0,0E0,0E0,0E0,0E0],"parents":[2147483647,0,0,1,1,2,2,3,3,4,4,5,5,6,6],"right_children":[2,4,6,8,10,12,14,-1,-1,-1,-1,-1,-1,-1,-1],"split_conditions":[3.003952E0,1.0014606E0,4.001461E0,1.4286676E-1,1.9099948E0,3.9989743E0,5.5E0,-1.3525327E-2,-1.0315988E-2,1.3776121E-2,-7.1764984E-3,1.4339827E-2,-2.4994076E-3,1.1258397E-2,6.299036E-4],"split_indices":[1,0,1,9,0,1,6,0,0,0,0,0,0,0,0],"split_type":[0,0,0,0,0,0,0,0,0,0,0,0,0,0,0],"sum_hessian":[7.2177124E2,3.830299E2,3.3874133E2,2.3001376E2,1.5301614E2,9.6748955E1,2.4199239E2,1.26272026E2,1.03741745E2,1.9451067E1,1.3356508E2,3.9106953E1,5.7642002E1,2.2486897E2,1.7123405E1],"tree_param":{"num_deleted":"0","num_feature":"16","num_nodes":"15","size_leaf_vector":"0"}},{"base_weights":[-6.910422E-2,-9.017267E-1,8.7182516E-1,-1.2059637E0,-4.4051287E-1,1.0150275E0,3.4360054E-1,-9.642074E-1,-1.3091042E0,1.3714212E0,-7.1166635E-1,-2.3628387E-1,1.0987188E0,-7.5507104E-1,5.8308285E-1],"categories":[],"categories_nodes":[],"categories_segments":[],"categories_sizes":[],"default_left":[true,true,true,true,true,true,true,false,false,false,false,false,false,false,false],"id":51,"left_children":[1,3,5,7,9,11,13,-1,-1,-1,-1,-1,-1,-1,-1],"loss_changes":[5.6524976E2,5.317395E1,2.5275787E1,4.473755E0,7.649027E1,2.811554E1,1.9847944E1,0E0,0E0,0E0,0E0,0E0,0E0,0E0,0E0],"parents":[2147483647,0,0,1,1,2,2,3,3,4,4,5,5,6,6],"right_children":[2,4,6,8,10,12,14,-1,-1,-1,-1,-1,-1,-1,-1],"split_conditions":[3.003952E0,1.0014606E0,5E-1,9.5E0,1.9099948E0,1.4077547E-1,1.35E1,-9.642074E-3,-1.3091042E-2,1.3714212E-2,-7.1166633E-3,-2.3628387E-3,1.0987188E-2,-7.5507103E-3,5.8308286E-3],"split_indices":[1,0,13,4,0,9,4,0,0,0,0,0,0,0,0],"split_type":[0,0,0,0,0,0,0,0,0,0,0,0,0,0,0],"sum_hessian":[7.194947E2,3.8173843E2,3.377563E2,2.2903926E2,1.5269917E2,2.6499435E2,7.276192E1,7.158828E1,1.5745097E2,1.934851E1,1.3335066E2,1.6498173E1,2.4849619E2,1.2636517E1,6.01254E1],"tree_param":{"num_deleted":"0","num_feature":"16","num_nodes":"15","size_leaf_vector":"0"}},{"base_weights":[-6.86319E-2,-8.9578754E-1,8.6531126E-1,-1.1990945E0,-4.3697107E-1,4.276484E-1,1.0382211E0,-1.3400316E0,-1.0167539E0,1.3653334E0,-7.0574045E-1,1.4232976E0,-2.551002E-1,1.251317E0,6.7437035E-1],"categories":[],"categories_nodes":[],"categories_segments":[],"categories_sizes":[],"default_left":[true,true,true,true,true,true,true,false,false,false,false,false,false,false,false],"id":52,"left_children":[1,3,5,7,9,11,13,-1,-1,-1,-1,-1,-1,-1,-1],"loss_changes":[5.557158E2,5.2559174E1,2.5127472E1,4.5242004E0,7.526177E1,6.6568794E1,1.7881927E1,0E0,0E0,0E0,0E0,0E0,0E0,0E0,0E0],"parents":[2147483647,0,0,1,1,2,2,3,3,4,4,5,5,6,6],"right_children":[2,4,6,8,10,12,14,-1,-1,-1,-1,-1,-1,-1,-1],"split_conditions":[3.003952E0,1.0014606E0,4.001461E0,1.4286676E-1,1.9099948E0,3.9989743E0,2.9994853E0,-1.3400316E-2,-1.0167539E-2,1.3653334E-2,-7.057404E-3,1.4232976E-2,-2.551002E-3,1.251317E-2,6.7437035E-3],"split_indices":[1,0,1,9,0,1,0,0,0,0,0,0,0,0,0],"split_type":[0,0,0,0,0,0,0,0,0,0,0,0,0,0,0],"sum_hessian":[7.173545E2,3.80448E2,3.3690652E2,2.2806743E2,1.5238057E2,9.639311E1,2.4051341E2,1.2505735E2,1.0301008E2,1.924541E1,1.3313515E2,3.8770134E1,5.762298E1,1.5014128E2,9.037213E1],"tree_param":{"num_deleted":"0","num_feature":"16","num_nodes":"15","size_leaf_vector":"0"}},{"base_weights":[-6.814355E-2,-8.899326E-1,8.592727E-1,-1.1923547E0,-4.334633E-1,1.0021513E0,3.3405387E-1,-1.3335859E0,-1.0100011E0,1.3593462E0,-6.9987094E-1,-2.4058177E-1,1.0857081E0,-7.54379E-1,5.720099E-1],"categories":[],"categories_nodes":[],"categories_segments":[],"categories_sizes":[],"default_left":[true,true,true,true,true,true,true,false,false,false,false,false,false,false,false],"id":53,"left_children":[1,3,5,7,9,11,13,-1,-1,-1,-1,-1,-1,-1,-1],"loss_changes":[5.4650696E2,5.1960663E1,2.4948608E1,4.52713E0,7.405581E1,2.771286E1,1.948183E1,0E0,0E0,0E0,0E0,0E0,0E0,0E0,0E0],"parents":[2147483647,0,0,1,1,2,2,3,3,4,4,5,5,6,6],"right_children":[2,4,6,8,10,12,14,-1,-1,-1,-1,-1,-1,-1,-1],"split_conditions":[3.003952E0,1.0014606E0,5E-1,1.4286676E-1,1.9099948E0,1.4077547E-1,1.35E1,-1.33358585E-2,-1.0100011E-2,1.3593461E-2,-6.9987094E-3,-2.4058176E-3,1.0857081E-2,-7.5437897E-3,5.720099E-3],"split_indices":[1,0,13,9,0,9,4,0,0,0,0,0,0,0,0],"split_type":[0,0,0,0,0,0,0,0,0,0,0,0,0,0,0],"sum_hessian":[7.150651E2,3.791439E2,3.3592123E2,2.2708345E2,1.5206044E2,2.6336765E2,7.255358E1,1.2441325E2,1.0267019E2,1.9141802E1,1.3291864E2,1.6473892E1,2.4689375E2,1.2626871E1,5.992671E1],"tree_param":{"num_deleted":"0","num_feature":"16","num_nodes":"15","size_leaf_vector":"0"}},{"base_weights":[-6.768342E-2,-8.8413996E-1,8.528869E-1,-1.1856978E0,-4.299893E-1,4.1708192E-1,1.0255096E0,-9.423577E-1,-1.2898169E0,1.3534566E0,-6.940572E-1,1.4129645E0,-2.601084E-1,1.2387165E0,6.627511E-1],"categories":[],"categories_nodes":[],"categories_segments":[],"categories_sizes":[],"default_left":[true,true,true,true,true,true,true,false,false,false,false,false,false,false,false],"id":54,"left_children":[1,3,5,7,9,11,13,-1,-1,-1,-1,-1,-1,-1,-1],"loss_changes":[5.373229E2,5.1372498E1,2.4854233E1,4.538269E0,7.287189E1,6.580678E1,1.774356E1,0E0,0E0,0E0,0E0,0E0,0E0,0E0,0E0],"parents":[2147483647,0,0,1,1,2,2,3,3,4,4,5,5,6,6],"right_children":[2,4,6,8,10,12,14,-1,-1,-1,-1,-1,-1,-1,-1],"split_conditions":[3.003952E0,1.0014606E0,4.001461E0,9.5E0,1.9099948E0,3.9989743E0,2.9994853E0,-9.423577E-3,-1.28981685E-2,1.3534565E-2,-6.940572E-3,1.4129644E-2,-2.601084E-3,1.2387165E-2,6.627511E-3],"split_indices":[1,0,1,4,0,1,0,0,0,0,0,0,0,0,0],"split_type":[0,0,0,0,0,0,0,0,0,0,0,0,0,0,0],"sum_hessian":[7.1289667E2,3.778341E2,3.350626E2,2.2609518E2,1.5173892E2,9.603299E1,2.390296E2,7.076317E1,1.5533202E2,1.9037716E1,1.327012E2,3.8430386E1,5.7602604E1,1.4902646E2,9.000315E1],"tree_param":{"num_deleted":"0","num_feature":"16","num_nodes":"15","size_leaf_vector":"0"}},{"base_weights":[-6.7202576E-2,-8.783871E-1,8.46972E-1,-1.1790767E0,-4.2654815E-1,9.8954844E-1,3.2469782E-1,-1.3216512E0,-9.9560344E-1,1.3476627E0,-6.8829817E-1,1.0673451E0,-3.3016947E-1,-7.5361025E-1,5.6114775E-1],"categories":[],"categories_nodes":[],"categories_segments":[],"categories_sizes":[],"default_left":[true,true,true,true,true,true,true,false,false,false,false,false,false,false,false],"id":55,"left_children":[1,3,5,7,9,11,13,-1,-1,-1,-1,-1,-1,-1,-1],"loss_changes":[5.2843756E2,5.0789062E1,2.4629242E1,4.5989075E0,7.1709564E1,2.7326263E1,1.9122963E1,0E0,0E0,0E0,0E0,0E0,0E0,0E0,0E0],"parents":[2147483647,0,0,1,1,2,2,3,3,4,4,5,5,6,6],"right_children":[2,4,6,8,10,12,14,-1,-1,-1,-1,-1,-1,-1,-1],"split_conditions":[3.003952E0,1.0014606E0,5E-1,1.4286676E-1,1.9099948E0,4.5E0,1.35E1,-1.3216512E-2,-9.956034E-3,1.3476627E-2,-6.8829814E-3,1.0673451E-2,-3.3016945E-3,-7.5361026E-3,5.6114774E-3],"split_indices":[1,0,13,9,0,15,4,0,0,0,0,0,0,0,0],"split_type":[0,0,0,0,0,0,0,0,0,0,0,0,0,0,0],"sum_hessian":[7.105952E2,3.7652676E2,3.3406848E2,2.251107E2,1.5141605E2,2.6172504E2,7.2343445E1,1.2318319E2,1.0192752E2,1.8933193E1,1.3248285E2,2.4733595E2,1.4389079E1,1.2617106E1,5.972634E1],"tree_param":{"num_deleted":"0","num_feature":"16","num_nodes":"15","size_leaf_vector":"0"}},{"base_weights":[-6.6752285E-2,-8.7271416E-1,8.4067243E-1,-1.1725788E0,-4.231394E-1,4.0678334E-1,1.0129856E0,-1.3154836E0,-9.8906296E-1,1.3419621E0,-6.8259287E-1,1.4027191E0,-2.6453653E-1,1.2263868E0,6.5121263E-1],"categories":[],"categories_nodes":[],"categories_segments":[],"categories_sizes":[],"default_left":[true,true,true,true,true,true,true,false,false,false,false,false,false,false,false],"id":56,"left_children":[1,3,5,7,9,11,13,-1,-1,-1,-1,-1,-1,-1,-1],"loss_changes":[5.195694E2,5.0220886E1,2.4575485E1,4.6026E0,7.056833E1,6.5005035E1,1.7617584E1,0E0,0E0,0E0,0E0,0E0,0E0,0E0,0E0],"parents":[2147483647,0,0,1,1,2,2,3,3,4,4,5,5,6,6],"right_children":[2,4,6,8,10,12,14,-1,-1,-1,-1,-1,-1,-1,-1],"split_conditions":[3.003952E0,1.0014606E0,4.001461E0,1.4286676E-1,1.9099948E0,3.9989743E0,2.9994853E0,-1.3154835E-2,-9.890629E-3,1.3419621E-2,-6.8259286E-3,1.4027191E-2,-2.6453652E-3,1.2263868E-2,6.512126E-3],"split_indices":[1,0,1,9,0,1,0,0,0,0,0,0,0,0,0],"split_type":[0,0,0,0,0,0,0,0,0,0,0,0,0,0,0],"sum_hessian":[7.0842224E2,3.7520694E2,3.332153E2,2.2411494E2,1.5109201E2,9.567182E1,2.3754347E2,1.2253108E2,1.0158386E2,1.8828257E1,1.3226375E2,3.8083538E1,5.7588284E1,1.4790683E2,8.9636635E1],"tree_param":{"num_deleted":"0","num_feature":"16","num_nodes":"15","size_leaf_vector":"0"}},{"base_weights":[-6.628299E-2,-8.6709905E-1,8.3487654E-1,-1.1661578E0,-4.1976222E-1,9.771542E-1,3.15527E-1,-1.3094075E0,-9.825865E-1,1.3363523E0,-6.769405E-1,-2.6167148E-1,1.0611999E0,-7.527683E-1,5.5048954E-1],"categories":[],"categories_nodes":[],"categories_segments":[],"categories_sizes":[],"default_left":[true,true,true,true,true,true,true,false,false,false,false,false,false,false,false],"id":57,"left_children":[1,3,5,7,9,11,13,-1,-1,-1,-1,-1,-1,-1,-1],"loss_changes":[5.110089E2,4.9662292E1,2.431343E1,4.606842E0,6.944777E1,2.7460953E1,1.8771152E1,0E0,0E0,0E0,0E0,0E0,0E0,0E0,0E0],"parents":[2147483647,0,0,1,1,2,2,3,3,4,4,5,5,6,6],"right_children":[2,4,6,8,10,12,14,-1,-1,-1,-1,-1,-1,-1,-1],"split_conditions":[3.003952E0,1.0014606E0,5E-1,1.4286676E-1,1.9099948E0,1.4077547E-1,1.35E1,-1.3094074E-2,-9.825865E-3,1.3363523E-2,-6.7694047E-3,-2.6167147E-3,1.0611999E-2,-7.5276825E-3,5.5048955E-3],"split_indices":[1,0,13,9,0,9,4,0,0,0,0,0,0,0,0],"split_type":[0,0,0,0,0,0,0,0,0,0,0,0,0,0,0],"sum_hessian":[7.0609595E2,3.7388266E2,3.322133E2,2.2311581E2,1.5076683E2,2.6008154E2,7.213176E1,1.21876595E2,1.0123922E2,1.8722946E1,1.3204388E2,1.6389427E1,2.4369211E2,1.2607222E1,5.9524544E1],"tree_param":{"num_deleted":"0","num_feature":"16","num_nodes":"15","size_leaf_vector":"0"}},{"base_weights":[-6.5841794E-2,-8.615405E-1,8.287283E-1,-1.1598115E0,-4.1641647E-1,3.966192E-1,1.0007927E0,-9.1367644E-1,-1.2655202E0,1.3308315E0,-6.713404E-1,1.393045E0,-2.6924995E-1,1.2143991E0,6.400098E-1],"categories":[],"categories_nodes":[],"categories_segments":[],"categories_sizes":[],"default_left":[true,true,true,true,true,true,true,false,false,false,false,false,false,false,false],"id":58,"left_children":[1,3,5,7,9,11,13,-1,-1,-1,-1,-1,-1,-1,-1],"loss_changes":[5.0246442E2,4.9112946E1,2.431285E1,4.648834E0,6.8347435E1,6.427237E1,1.7490097E1,0E0,0E0,0E0,0E0,0E0,0E0,0E0,0E0],"parents":[2147483647,0,0,1,1,2,2,3,3,4,4,5,5,6,6],"right_children":[2,4,6,8,10,12,14,-1,-1,-1,-1,-1,-1,-1,-1],"split_conditions":[3.003952E0,1.0014606E0,4.001461E0,9.5E0,1.9099948E0,3.9989743E0,2.9994853E0,-9.136764E-3,-1.2655202E-2,1.3308315E-2,-6.713404E-3,1.3930449E-2,-2.6924994E-3,1.2143991E-2,6.400098E-3],"split_indices":[1,0,1,4,0,1,0,0,0,0,0,0,0,0,0],"split_type":[0,0,0,0,0,0,0,0,0,0,0,0,0,0,0],"sum_hessian":[7.038955E2,3.725543E2,3.313412E2,2.2211363E2,1.5044066E2,9.5304955E1,2.3603624E2,6.9629555E1,1.5248407E2,1.8617294E1,1.3182336E2,3.7739063E1,5.7565887E1,1.4677196E2,8.926429E1],"tree_param":{"num_deleted":"0","num_feature":"16","num_nodes":"15","size_leaf_vector":"0"}},{"base_weights":[-6.5379135E-2,-8.560158E-1,8.2304615E-1,-1.1534919E0,-4.131012E-1,9.650593E-1,3.065365E-1,-1.2981685E0,-9.687296E-1,1.3253973E0,-6.657916E-1,-2.6545748E-1,1.0490074E0,-7.518559E-1,5.400294E-1],"categories":[],"categories_nodes":[],"categories_segments":[],"categories_sizes":[],"default_left":[true,true,true,true,true,true,true,false,false,false,false,false,false,false,false],"id":59,"left_children":[1,3,5,7,9,11,13,-1,-1,-1,-1,-1,-1,-1,-1],"loss_changes":[4.941998E2,4.856726E1,2.4007797E1,4.679779E0,6.726689E1,2.707579E1,1.842622E1,0E0,0E0,0E0,0E0,0E0,0E0,0E0,0E0],"parents":[2147483647,0,0,1,1,2,2,3,3,4,4,5,5,6,6],"right_children":[2,4,6,8,10,12,14,-1,-1,-1,-1,-1,-1,-1,-1],"split_conditions":[3.003952E0,1.0014606E0,5E-1,1.4286676E-1,1.9099948E0,1.4077547E-1,1.35E1,-1.2981685E-2,-9.687296E-3,1.3253972E-2,-6.6579157E-3,-2.6545748E-3,1.0490074E-2,-7.5185588E-3,5.400294E-3],"split_indices":[1,0,13,9,0,9,4,0,0,0,0,0,0,0,0],"split_type":[0,0,0,0,0,0,0,0,0,0,0,0,0,0,0],"sum_hessian":[7.0156274E2,3.712302E2,3.3033258E2,2.2111665E2,1.5011354E2,2.5841385E2,7.191873E1,1.2063116E2,1.004855E2,1.8511322E1,1.3160222E2,1.6365477E1,2.4204836E2,1.259721E1,5.932152E1],"tree_param":{"num_deleted":"0","num_feature":"16","num_nodes":"15","size_leaf_vector":"0"}},{"base_weights":[-6.4946756E-2,-8.5056615E-1,8.17011E-1,-1.147289E0,-4.0981618E-1,3.866466E-1,9.8884404E-1,-1.2923436E0,-9.6244645E-1,1.3200474E0,-6.602933E-1,1.3836784E0,-2.7382335E-1,1.2026987E0,6.290052E-1],"categories":[],"categories_nodes":[],"categories_segments":[],"categories_sizes":[],"default_left":[true,true,true,true,true,true,true,false,false,false,false,false,false,false,false],"id":60,"left_children":[1,3,5,7,9,11,13,-1,-1,-1,-1,-1,-1,-1,-1],"loss_changes":[4.859554E2,4.8035675E1,2.4055084E1,4.6846313E0,6.6205696E1,6.3553104E1,1.7367493E1,0E0,0E0,0E0,0E0,0E0,0E0,0E0,0E0],"parents":[2147483647,0,0,1,1,2,2,3,3,4,4,5,5,6,6],"right_children":[2,4,6,8,10,12,14,-1,-1,-1,-1,-1,-1,-1,-1],"split_conditions":[3.003952E0,1.0014606E0,4.001461E0,1.4286676E-1,1.9099948E0,3.9989743E0,2.9994853E0,-1.2923436E-2,-9.624464E-3,1.3200473E-2,-6.6029327E-3,1.3836784E-2,-2.7382334E-3,1.2026987E-2,6.2900516E-3],"split_indices":[1,0,1,9,0,1,0,0,0,0,0,0,0,0,0],"split_type":[0,0,0,0,0,0,0,0,0,0,0,0,0,0,0],"sum_hessian":[6.9934973E2,3.6989493E2,3.2945483E2,2.201093E2,1.4978561E2,9.493516E1,2.3451967E2,1.1997094E2,1.0013836E2,1.8405064E1,1.3138055E2,3.7392788E1,5.754237E1,1.4562901E2,8.889065E1],"tree_param":{"num_deleted":"0","num_feature":"16","num_nodes":"15","size_leaf_vector":"0"}},{"base_weights":[-6.449487E-2,-8.451691E-1,8.11438E-1,-1.1411554E0,-4.0656072E-1,3.8374168E-1,9.824165E-1,-8.931671E-1,-1.2479907E0,1.3147802E0,-6.5484476E-1,1.377861E0,-2.7110994E-1,1.0581439E0,8.611988E-3],"categories":[],"categories_nodes":[],"categories_segments":[],"categories_sizes":[],"default_left":[true,true,true,true,true,true,true,false,false,false,false,false,false,false,false],"id":61,"left_children":[1,3,5,7,9,11,13,-1,-1,-1,-1,-1,-1,-1,-1],"loss_changes":[4.7798907E2,4.7512634E1,2.3713959E1,4.716675E0,6.516349E1,6.2692234E1,1.7299469E1,0E0,0E0,0E0,0E0,0E0,0E0,0E0,0E0],"parents":[2147483647,0,0,1,1,2,2,3,3,4,4,5,5,6,6],"right_children":[2,4,6,8,10,12,14,-1,-1,-1,-1,-1,-1,-1,-1],"split_conditions":[3.003952E0,1.0014606E0,4.001461E0,9.5E0,1.9099948E0,3.9989743E0,5.5E0,-8.93167E-3,-1.2479907E-2,1.3147802E-2,-6.5484475E-3,1.377861E-2,-2.7110993E-3,1.0581438E-2,8.611988E-5],"split_indices":[1,0,1,4,0,1,6,0,0,0,0,0,0,0,0],"split_type":[0,0,0,0,0,0,0,0,0,0,0,0,0,0,0],"sum_hessian":[6.9699725E2,3.6855667E2,3.2844058E2,2.1909973E2,1.4945694E2,9.472753E1,2.3371306E2,6.878793E1,1.503118E2,1.829855E1,1.3115839E2,3.7180443E1,5.7547092E1,2.167695E2,1.6943556E1],"tree_param":{"num_deleted":"0","num_feature":"16","num_nodes":"15","size_leaf_vector":"0"}},{"base_weights":[-6.405656E-2,-8.398021E-1,8.0591667E-1,-1.1350425E0,-4.0333426E-1,9.477385E-1,2.9281738E-1,-1.2815793E0,-9.4896555E-1,1.3095937E0,-6.4944524E-1,1.0263633E0,-3.680367E-1,-7.554636E-1,5.250558E-1],"categories":[],"categories_nodes":[],"categories_segments":[],"categories_sizes":[],"default_left":[true,true,true,true,true,true,true,false,false,false,false,false,false,false,false],"id":62,"left_children":[1,3,5,7,9,11,13,-1,-1,-1,-1,-1,-1,-1,-1],"loss_changes":[4.7014795E2,4.6992645E1,2.3620804E1,4.7579346E0,6.413986E1,2.6949524E1,1.8062613E1,0E0,0E0,0E0,0E0,0E0,0E0,0E0,0E0],"parents":[2147483647,0,0,1,1,2,2,3,3,4,4,5,5,6,6],"right_children":[2,4,6,8,10,12,14,-1,-1,-1,-1,-1,-1,-1,-1],"split_conditions":[3.003952E0,1.0014606E0,5E-1,1.4286676E-1,1.9099948E0,4.5E0,1.35E1,-1.2815792E-2,-9.4896555E-3,1.3095937E-2,-6.4944522E-3,1.0263632E-2,-3.6803668E-3,-7.554636E-3,5.2505583E-3],"split_indices":[1,0,13,9,0,15,4,0,0,0,0,0,0,0,0],"split_type":[0,0,0,0,0,0,0,0,0,0,0,0,0,0,0],"sum_hessian":[6.946387E2,3.6722385E2,3.274148E2,2.1809625E2,1.4912761E2,2.5585013E2,7.1564674E1,1.1871788E2,9.937838E1,1.8191807E1,1.3093579E2,2.4163129E2,1.4218831E1,1.2570558E1,5.8994114E1],"tree_param":{"num_deleted":"0","num_feature":"16","num_nodes":"15","size_leaf_vector":"0"}},{"base_weights":[-6.363707E-2,-8.345066E-1,8.0000365E-1,-1.1290417E0,-4.0013644E-1,3.7410298E-1,9.7073716E-1,-1.2759875E0,-9.428624E-1,1.3044858E0,-6.4409393E-1,1.3687121E0,-2.7508E-1,1.1857802E0,6.1071837E-1],"categories":[],"categories_nodes":[],"categories_segments":[],"categories_sizes":[],"default_left":[true,true,true,true,true,true,true,false,false,false,false,false,false,false,false],"id":63,"left_children":[1,3,5,7,9,11,13,-1,-1,-1,-1,-1,-1,-1,-1],"loss_changes":[4.623186E2,4.6485947E1,2.3454407E1,4.7633057E0,6.313439E1,6.194728E1,1.7329056E1,0E0,0E0,0E0,0E0,0E0,0E0,0E0,0E0],"parents":[2147483647,0,0,1,1,2,2,3,3,4,4,5,5,6,6],"right_children":[2,4,6,8,10,12,14,-1,-1,-1,-1,-1,-1,-1,-1],"split_conditions":[3.003952E0,1.0014606E0,4.001461E0,1.4286676E-1,1.9099948E0,3.9989743E0,2.9994853E0,-1.2759875E-2,-9.428624E-3,1.3044857E-2,-6.4409394E-3,1.3687121E-2,-2.7508E-3,1.1857801E-2,6.1071836E-3],"split_indices":[1,0,1,9,0,1,0,0,0,0,0,0,0,0,0],"split_type":[0,0,0,0,0,0,0,0,0,0,0,0,0,0,0],"sum_hessian":[6.924255E2,3.6588083E2,3.2654462E2,2.1708313E2,1.487977E2,9.435755E1,2.3218707E2,1.1805347E2,9.9029655E1,1.808486E1,1.3071284E2,3.6826916E1,5.753064E1,1.439253E2,8.826178E1],"tree_param":{"num_deleted":"0","num_feature":"16","num_nodes":"15","size_leaf_vector":"0"}},{"base_weights":[-6.3197225E-2,-8.292602E-1,7.945878E-1,-1.1231052E0,-3.9696658E-1,9.3616694E-1,2.8426033E-1,-8.73159E-1,-1.2311274E0,1.2994549E0,-6.387902E-1,-2.928364E-1,1.0209494E0,-7.543419E-1,5.150633E-1],"categories":[],"categories_nodes":[],"categories_segments":[],"categories_sizes":[],"default_left":[true,true,true,true,true,true,true,false,false,false,false,false,false,false,false],"id":64,"left_children":[1,3,5,7,9,11,13,-1,-1,-1,-1,-1,-1,-1,-1],"loss_changes":[4.547657E2,4.5987183E1,2.3325745E1,4.7858276E0,6.2146755E1,2.6887543E1,1.7731579E1,0E0,0E0,0E0,0E0,0E0,0E0,0E0,0E0],"parents":[2147483647,0,0,1,1,2,2,3,3,4,4,5,5,6,6],"right_children":[2,4,6,8,10,12,14,-1,-1,-1,-1,-1,-1,-1,-1],"split_conditions":[3.003952E0,1.0014606E0,5E-1,9.5E0,1.9099948E0,1.4077547E-1,1.35E1,-8.73159E-3,-1.2311273E-2,1.2994549E-2,-6.387902E-3,-2.9283639E-3,1.0209493E-2,-7.543419E-3,5.150633E-3],"split_indices":[1,0,13,4,0,9,4,0,0,0,0,0,0,0,0],"split_type":[0,0,0,0,0,0,0,0,0,0,0,0,0,0,0],"sum_hessian":[6.900589E2,3.645358E2,3.255231E2,2.1606851E2,1.484673E2,2.5417375E2,7.1349365E1,6.7942825E1,1.4812569E2,1.797774E1,1.3048956E2,1.6244215E1,2.3792953E2,1.2560296E1,5.878907E1],"tree_param":{"num_deleted":"0","num_feature":"16","num_nodes":"15","size_leaf_vector":"0"}},{"base_weights":[-6.278311E-2,-8.240404E-1,7.8881073E-1,-1.1171839E0,-3.9382458E-1,3.6457258E-1,9.593524E-1,-1.2656646E0,-9.297311E-1,1.294499E0,-6.335334E-1,1.3600793E0,-2.7935335E-1,1.174731E0,6.0019904E-1],"categories":[],"categories_nodes":[],"categories_segments":[],"categories_sizes":[],"default_left":[true,true,true,true,true,true,true,false,false,false,false,false,false,false,false],"id":65,"left_children":[1,3,5,7,9,11,13,-1,-1,-1,-1,-1,-1,-1,-1],"loss_changes":[4.47209E2,4.549077E1,2.321019E1,4.836914E0,6.117655E1,6.1267235E1,1.721428E1,0E0,0E0,0E0,0E0,0E0,0E0,0E0,0E0],